[{"Inputs":[0.030188679695129395,0.06981132179498672,0.058018866926431656,0.09811320900917053,0.0948113203048706,0.09386792778968811,0.02783018909394741,0.033018868416547775,0.028773585334420204,0.019811321049928665,0.043396227061748505,0.031603772193193436,0.06981132179498672,0.10000000149011612,0.09245283156633377],"arrInputWeight":[[0.2780981659889221],[-0.31574296951293945],[-0.5793784260749817],[-1.1658384799957275],[-1.2375692129135132],[-0.8617280125617981],[-0.28915682435035706],[0.3350929915904999],[-0.3193292021751404],[-0.2075824737548828],[0.16740788519382477],[-0.034096501767635345],[-1.1341910362243652],[-0.9172210693359375],[-0.5772503614425659]],"matrixHiddenWeight":[[[-0.4266713261604309],[-0.15652497112751007]],[[-0.6401017904281616],[-0.5395264029502869]],[[-0.31733438372612],[-0.4102436602115631]],[[-1.4515588283538818],[-1.1265233755111694]],[[-1.2908837795257568],[-0.7693984508514404]],[[-0.7968752980232239],[-0.8646793961524963]],[[0.5214122533798218],[0.20197679102420807]],[[0.20361018180847168],[0.4474787414073944]],[[-0.3641115427017212],[0.3887642025947571]],[[0.4690340459346771],[0.5901221632957458]],[[-0.407155841588974],[-0.6003696322441101]],[[-0.4983081519603729],[-0.24361203610897064]],[[-1.1411529779434204],[-0.690186083316803]],[[-1.2819520235061646],[-0.8815180063247681]],[[-0.5674431324005127],[-0.9563775062561035]]],"Bias":0,"Activation":"sigmoid","hiddenLayers":2,"dense":false,"divMulI":2120,"divMulO":1},{"Inputs":[0.03076923079788685,0.07115384936332703,0.05913461372256279,0.10000000149011612,0.09663461893796921,0.0956730768084526,0.02836538478732109,0.03365384787321091,0.029326923191547394,0.07019230723381042,0.09663461893796921,0.09038461744785309,0.06586538255214691,0.09807692468166351,0.08509615063667297],"arrInputWeight":[[-0.2098732590675354],[-0.26847952604293823],[-0.18874278664588928],[-1.004862666130066],[-0.6267504096031189],[-0.6901674270629883],[0.09395227581262589],[0.37838542461395264],[0.4310551881790161],[-0.7777850031852722],[-0.715232789516449],[-0.9940374493598938],[-0.7530093193054199],[-1.221792459487915],[-1.2133777141571045]],"matrixHiddenWeight":[[[0.021674931049346924],[0.40409529209136963]],[[-0.44226664304733276],[-0.774084210395813]],[[0.06686261296272278],[-0.8788784146308899]],[[-1.2046211957931519],[-0.7122007608413696]],[[-0.5674499869346619],[-1.0200574398040771]],[[-1.3076486587524414],[-1.2475181818008423]],[[0.17469562590122223],[0.00824996829032898]],[[0.28625595569610596],[-0.14590421319007874]],[[0.4823777675628662],[0.5015497207641602]],[[-0.1928904801607132],[-0.5440331101417542]],[[-1.278337836265564],[-1.1891833543777466]],[[-1.3013874292373657],[-0.7686877846717834]],[[-0.1205737516283989],[-0.6970290541648865]],[[-1.0728594064712524],[-1.3249950408935547]],[[-0.6792629957199097],[-0.9380349516868591]]],"Bias":0,"Activation":"sigmoid","hiddenLayers":2,"dense":false,"divMulI":2080,"divMulO":1},{"Inputs":[0.030188679695129395,0.06981132179498672,0.058018866926431656,0.09811320900917053,0.0948113203048706,0.09386792778968811,0.02783018909394741,0.033018868416547775,0.028773585334420204,0.01886792480945587,0.043396227061748505,0.031603772193193436,0.06792452931404114,0.10000000149011612,0.09245283156633377],"arrInputWeight":[[0.3477504253387451],[-0.9194455146789551],[-0.43487703800201416],[-1.3953344821929932],[-1.2287379503250122],[-0.5174422264099121],[0.549773633480072],[-0.4326575696468353],[-0.18201768398284912],[-0.08614058792591095],[-0.13446994125843048],[-0.2956663966178894],[-1.081179141998291],[-1.610733985900879],[-0.5465459823608398]],"matrixHiddenWeight":[[[0.16825193166732788],[0.2176399528980255]],[[-0.43730273842811584],[-0.6881507635116577]],[[-0.42936307191848755],[0.05572489649057388]],[[-0.98042893409729],[-1.2414604425430298]],[[-1.3588950634002686],[-1.263912320137024]],[[-0.7223037481307983],[-0.5692495107650757]],[[-0.4384106695652008],[0.358413428068161]],[[-0.038850441575050354],[0.41957154870033264]],[[-0.2216407060623169],[0.060891442000865936]],[[0.6908718347549438],[0.19471868872642517]],[[-0.609867513179779],[-0.3217228651046753]],[[0.11811766028404236],[-0.05215362459421158]],[[-0.5587584376335144],[-0.27977821230888367]],[[-0.8671477437019348],[-0.7674792408943176]],[[-1.4880011081695557],[-1.444502353668213]]],"Bias":0,"Activation":"sigmoid","hiddenLayers":2,"dense":false,"divMulI":2120,"divMulO":1},{"Inputs":[0.03125,0.07115384936332703,0.05913461372256279,0.10000000149011612,0.09663461893796921,0.0956730768084526,0.02836538478732109,0.033173076808452606,0.028846153989434242,0.07067307829856873,0.09855769574642181,0.09038461744785309,0.06730769574642181,0.09807692468166351,0.08605769276618958],"arrInputWeight":[[-0.2428145855665207],[-0.7390589118003845],[-0.03664478659629822],[-0.9869279265403748],[-0.829197108745575],[-1.1686643362045288],[0.42177680134773254],[-0.0678543746471405],[-0.2277735024690628],[-0.048388805240392685],[-0.8806127905845642],[-1.010828971862793],[-0.6210886240005493],[-0.7823647856712341],[-1.153984546661377]],"matrixHiddenWeight":[[[0.04222073405981064],[0.40316325426101685]],[[-0.40090858936309814],[-0.0917310118675232]],[[0.15657806396484375],[0.05324077606201172]],[[-0.944024384021759],[-0.8186966776847839]],[[-0.7574334144592285],[-0.5002927780151367]],[[-1.3023569583892822],[-1.2160383462905884]],[[-0.3837626278400421],[0.35496607422828674]],[[0.18331049382686615],[0.29007256031036377]],[[0.2281799465417862],[-0.3591127395629883]],[[-0.8252122402191162],[-0.5896371006965637]],[[-1.013610601425171],[-1.1216001510620117]],[[-1.0620152950286865],[-0.9638332724571228]],[[-0.6645113229751587],[-0.6043585538864136]],[[-1.1759635210037231],[-1.2753117084503174]],[[-0.8834584951400757],[-0.48592686653137207]]],"Bias":0,"Activation":"sigmoid","hiddenLayers":2,"dense":false,"divMulI":2080,"divMulO":1},{"Inputs":[0.030805686488747597,0.069668248295784,0.0578199066221714,0.10000000149011612,0.09526066482067108,0.09478673338890076,0.024170616641640663,0.0289099533110857,0.02369668334722519,0.07109005004167557,0.09668246656656265,0.08720379322767258,0.07393364608287811,0.0976303294301033,0.09289099276065826],"arrInputWeight":[[0.14135953783988953],[-0.15839484333992004],[-0.5067248344421387],[-1.3255114555358887],[-0.5540741682052612],[-1.1816987991333008],[0.5941672921180725],[-0.17958232760429382],[0.5937191843986511],[-0.3530874252319336],[-0.41632968187332153],[-1.0971060991287231],[-0.3588181138038635],[-1.3298355340957642],[-0.8175517916679382]],"matrixHiddenWeight":[[[-0.007162351161241531],[-0.07923728227615356]],[[-0.026880551129579544],[-0.016921568661928177]],[[-0.13502097129821777],[-0.06658953428268433]],[[-0.7436462640762329],[-1.05674147605896]],[[-0.7264199256896973],[-1.3471858501434326]],[[-0.467105507850647],[-1.141028881072998]],[[0.4405665099620819],[0.03792278841137886]],[[0.24407635629177094],[-0.23039403557777405]],[[0.650697648525238],[-0.10741078853607178]],[[-0.6945104002952576],[-0.6037859320640564]],[[-1.3757777214050293],[-0.6874218583106995]],[[-0.9983768463134766],[-0.8907924890518188]],[[-0.8831597566604614],[-0.6658639311790466]],[[-1.3099827766418457],[-1.054337978363037]],[[-0.40828728675842285],[-0.6848642826080322]]],"Bias":0,"Activation":"sigmoid","hiddenLayers":2,"dense":false,"divMulI":2110,"divMulO":1},{"Inputs":[0.03095238097012043,0.07000000029802322,0.058095239102840424,0.10000000149011612,0.09619047492742538,0.095238097012043,0.02380952425301075,0.02857142873108387,0.02380952425301075,0.020476190373301506,0.03999999910593033,0.02857142873108387,0.07047618925571442,0.09904761612415314,0.09333333373069763],"arrInputWeight":[[-0.055909231305122375],[-1.0969449281692505],[-0.4419558048248291],[-0.8064725399017334],[-0.7085685729980469],[-1.2034921646118164],[-0.0006241817027330399],[0.28763648867607117],[-0.20543017983436584],[-0.000772964209318161],[-0.3134591579437256],[-0.19809946417808533],[-0.875724732875824],[-1.6921311616897583],[-0.8029810786247253]],"matrixHiddenWeight":[[[-0.1629825383424759],[-0.5459802150726318]],[[-0.8309921622276306],[-0.6521622538566589]],[[-0.5146548748016357],[-0.3732200264930725]],[[-1.2811485528945923],[-1.091655969619751]],[[-0.8616504073143005],[-1.3616914749145508]],[[-0.8979079723358154],[-1.0516078472137451]],[[-0.34025153517723083],[-0.23894184827804565]],[[0.18551309406757355],[-0.4502883553504944]],[[0.21057580411434174],[-0.31784921884536743]],[[-0.3371913433074951],[-0.2320435792207718]],[[-0.27720990777015686],[-0.13919591903686523]],[[-0.18305513262748718],[0.16479142010211945]],[[-1.0807737112045288],[-0.2606583833694458]],[[-1.0224641561508179],[-0.8693745136260986]],[[-1.0274125337600708],[-0.7632030844688416]]],"Bias":0,"Activation":"sigmoid","hiddenLayers":2,"dense":false,"divMulI":2100,"divMulO":1},{"Inputs":[0.031132075935602188,0.06933962553739548,0.058018866926431656,0.09905660152435303,0.0948113203048706,0.09433962404727936,0.02500000037252903,0.028773585334420204,0.024528302252292633,0.01933962292969227,0.03962264209985733,0.028301887214183807,0.07122641801834106,0.10000000149011612,0.09292452782392502],"arrInputWeight":[[0.13026483356952667],[-0.9944489002227783],[-0.1318461298942566],[-1.091819405555725],[-0.7001937627792358],[-1.0235769748687744],[-0.11590257287025452],[-0.14239026606082916],[-0.14865735173225403],[-0.19974830746650696],[-0.46600937843322754],[-0.2876943349838257],[-0.9344942569732666],[-1.2821906805038452],[-0.5327631831169128]],"matrixHiddenWeight":[[[-0.2591813802719116],[0.47355175018310547]],[[-0.3741607069969177],[-0.2924700975418091]],[[-0.33041438460350037],[-0.4380771815776825]],[[-0.6078619956970215],[-1.1761997938156128]],[[-1.4893661737442017],[-0.9273546934127808]],[[-1.016210675239563],[-1.337420105934143]],[[0.33029332756996155],[-0.27540895342826843]],[[-0.43970873951911926],[-0.2352272868156433]],[[-0.0773053988814354],[0.6040420532226562]],[[-0.15376344323158264],[0.45934635400772095]],[[-0.526384174823761],[-0.005646282806992531]],[[-0.13082729279994965],[0.1000131219625473]],[[-0.34825992584228516],[-0.15248344838619232]],[[-1.5143849849700928],[-1.279151439666748]],[[-1.2137126922607422],[-1.3383305072784424]]],"Bias":0,"Activation":"sigmoid","hiddenLayers":2,"dense":false,"divMulI":2120,"divMulO":1},{"Inputs":[0.031578946858644485,0.07224880158901215,0.06028708070516586,0.10000000149011612,0.09617225080728531,0.09569378197193146,0.031100478023290634,0.034928228706121445,0.031578946858644485,0.021052632480859756,0.04401914030313492,0.03253588452935219,0.07320573925971985,0.09952153265476227,0.09377990663051605],"arrInputWeight":[[-0.46553999185562134],[-0.9384757876396179],[-0.876078188419342],[-1.082267165184021],[-1.0310715436935425],[-1.3028839826583862],[-0.3820851743221283],[-0.05576212704181671],[0.4168827533721924],[-0.24772930145263672],[-0.10816530883312225],[-0.23216377198696136],[-0.25431665778160095],[-0.7660068869590759],[-1.2245174646377563]],"matrixHiddenWeight":[[[0.46898943185806274],[-0.28301405906677246]],[[-1.0160372257232666],[-0.19563286006450653]],[[-0.8332231044769287],[-0.5039041638374329]],[[-1.497323989868164],[-0.8662282228469849]],[[-0.8122295141220093],[-1.1782490015029907]],[[-1.1274789571762085],[-0.6457136869430542]],[[0.3429591953754425],[-0.22833722829818726]],[[-0.26190680265426636],[-0.46563151478767395]],[[-0.3410792946815491],[-0.12331108748912811]],[[0.5936727523803711],[-0.11905071884393692]],[[-0.4774182438850403],[-0.34915679693222046]],[[-0.501279890537262],[0.13195712864398956]],[[-0.9291314482688904],[-0.19928233325481415]],[[-0.7611108422279358],[-1.1138885021209717]],[[-1.1659353971481323],[-1.4417442083358765]]],"Bias":0,"Activation":"sigmoid","hiddenLayers":2,"dense":false,"divMulI":2090,"divMulO":1},{"Inputs":[0.031603772193193436,0.07075471431016922,0.05896226316690445,0.09905660152435303,0.0948113203048706,0.09386792778968811,0.028301887214183807,0.031603772193193436,0.02783018909394741,0.019811321049928665,0.03962264209985733,0.028301887214183807,0.07169811427593231,0.10000000149011612,0.09245283156633377],"arrInputWeight":[[0.29040223360061646],[-0.3590005040168762],[-0.7314086556434631],[-1.4592561721801758],[-0.9526375532150269],[-0.6124763488769531],[0.09990547597408295],[-0.03905561566352844],[0.5121311545372009],[0.5926617383956909],[0.24075204133987427],[0.5383671522140503],[-1.006760835647583],[-1.022775650024414],[-0.510225236415863]],"matrixHiddenWeight":[[[-0.42677342891693115],[0.30500030517578125]],[[-0.6667147874832153],[-0.9350858330726624]],[[-0.4853607416152954],[-0.06676581501960754]],[[-1.2007091045379639],[-1.5214636325836182]],[[-0.5371917486190796],[-1.4095808267593384]],[[-0.8386895656585693],[-1.2140055894851685]],[[0.25138312578201294],[-0.2502841353416443]],[[0.3489815890789032],[0.4610680639743805]],[[-0.3016243278980255],[-0.3404177129268646]],[[0.5058741569519043],[-0.23516950011253357]],[[0.034079600125551224],[0.07025526463985443]],[[0.07280633598566055],[0.48473554849624634]],[[-0.41977372765541077],[-0.977674663066864]],[[-0.8300992250442505],[-1.4370992183685303]],[[-0.741852343082428],[-1.4012054204940796]]],"Bias":0,"Activation":"sigmoid","hiddenLayers":2,"dense":false,"divMulI":2120,"divMulO":1},{"Inputs":[0.03205741569399834,0.07224880158901215,0.06028708070516586,0.10000000149011612,0.09617225080728531,0.0952153131365776,0.02918660268187523,0.03253588452935219,0.028708133846521378,0.019617224112153053,0.04019138589501381,0.028708133846521378,0.07320573925971985,0.09952153265476227,0.09377990663051605],"arrInputWeight":[[-0.20474764704704285],[-0.8416955471038818],[-0.3051510751247406],[-1.4648104906082153],[-1.179975986480713],[-0.5811491012573242],[0.1820024698972702],[-0.023786017671227455],[-0.35853317379951477],[0.4496769309043884],[-0.3459606170654297],[0.06300961226224899],[-0.5545679926872253],[-1.275030493736267],[-0.46370646357536316]],"matrixHiddenWeight":[[[0.2670714259147644],[-0.11412753164768219]],[[-0.2823825180530548],[-0.14048127830028534]],[[-0.6370567083358765],[-0.27626559138298035]],[[-0.9260780215263367],[-1.220746636390686]],[[-0.9321717619895935],[-1.2894067764282227]],[[-1.199723243713379],[-1.0919381380081177]],[[0.5572602152824402],[0.16610243916511536]],[[0.3298267424106598],[-0.3210929036140442]],[[0.07040845602750778],[0.02835858426988125]],[[-0.19561515748500824],[0.26610031723976135]],[[0.30585944652557373],[0.022557346150279045]],[[0.10176097601652145],[0.3192051947116852]],[[-0.3386407494544983],[-0.8896148204803467]],[[-1.4110640287399292],[-1.1149872541427612]],[[-0.8010738492012024],[-0.6778069138526917]]],"Bias":0,"Activation":"sigmoid","hiddenLayers":2,"dense":false,"divMulI":2090,"divMulO":1},{"Inputs":[0.03253588452935219,0.07224880158901215,0.06028708070516586,0.10000000149011612,0.09569378197193146,0.0952153131365776,0.02966507151722908,0.03253588452935219,0.028708133846521378,0.019617224112153053,0.04019138589501381,0.028708133846521378,0.0736842080950737,0.10000000149011612,0.09377990663051605],"arrInputWeight":[[0.2906070649623871],[-0.49202150106430054],[-0.40553420782089233],[-0.5640642046928406],[-1.257320761680603],[-0.6424114108085632],[0.23686696588993073],[0.46400508284568787],[-0.029979057610034943],[-0.10398980230093002],[-0.4463618993759155],[0.046245623379945755],[-1.082129955291748],[-1.440273404121399],[-1.2902867794036865]],"matrixHiddenWeight":[[[0.4835830628871918],[0.03390851989388466]],[[-0.7237715721130371],[-0.1549341231584549]],[[-0.07457643747329712],[-0.7508231997489929]],[[-1.4138649702072144],[-1.532291054725647]],[[-0.8088101148605347],[-1.2461223602294922]],[[-0.6820996403694153],[-0.9040852189064026]],[[0.542819082736969],[-0.36739400029182434]],[[0.40141457319259644],[0.34562253952026367]],[[0.1471802145242691],[-0.22508393228054047]],[[-0.16065584123134613],[-0.10771020501852036]],[[-0.43941277265548706],[0.2295396476984024]],[[0.02289479225873947],[-0.2959529757499695]],[[-0.37521296739578247],[-0.13450194895267487]],[[-1.054181456565857],[-1.1663802862167358]],[[-1.4103176593780518],[-0.6912426352500916]]],"Bias":0,"Activation":"sigmoid","hiddenLayers":2,"dense":false,"divMulI":2090,"divMulO":1},{"Inputs":[0.031753554940223694,0.07061611115932465,0.0597156397998333,0.09857819974422455,0.09431279450654984,0.09383886307477951,0.02748815156519413,0.029383886605501175,0.026540284976363182,0.02511848323047161,0.03649289160966873,0.027962084859609604,0.07203791290521622,0.10000000149011612,0.09289099276065826],"arrInputWeight":[[0.05166608840227127],[-0.7514795064926147],[-0.36031588912010193],[-0.7973567247390747],[-1.3251501321792603],[-1.049036979675293],[-0.10637950897216797],[-0.02494489774107933],[-0.35245105624198914],[-0.03389597684144974],[0.1702418327331543],[0.021029222756624222],[-0.7773462533950806],[-0.8619609475135803],[-0.5467455387115479]],"matrixHiddenWeight":[[[0.37820571660995483],[0.09762226045131683]],[[-0.611116349697113],[-0.34412476420402527]],[[-0.3004441261291504],[-0.4411105811595917]],[[-1.348738670349121],[-1.4770963191986084]],[[-1.4433506727218628],[-0.645970344543457]],[[-0.8689495325088501],[-1.1184282302856445]],[[0.2695342004299164],[0.0029879864305257797]],[[0.15400969982147217],[0.2871568500995636]],[[0.010689204558730125],[-0.18837295472621918]],[[-0.25312507152557373],[0.15871402621269226]],[[0.08322454988956451],[0.2741630971431732]],[[-0.26887089014053345],[0.5074857473373413]],[[-0.5052404999732971],[-0.28130942583084106]],[[-1.1389119625091553],[-1.1430292129516602]],[[-1.5146727561950684],[-1.3755183219909668]]],"Bias":0,"Activation":"sigmoid","hiddenLayers":2,"dense":false,"divMulI":2110,"divMulO":1},{"Inputs":[0.03192488104104996,0.07042253762483597,0.05962441489100456,0.09765258431434631,0.0929577499628067,0.0929577499628067,0.030985916033387184,0.03239436447620392,0.02957746386528015,0.07042253762483597,0.10000000149011612,0.09248826652765274,0.05821596086025238,0.09953051805496216,0.08826290816068649],"arrInputWeight":[[-0.22417668998241425],[-0.47885462641716003],[-0.9089671969413757],[-0.9636874198913574],[-1.4218635559082031],[-1.418837547302246],[-0.3285299241542816],[-0.17454217374324799],[0.31296035647392273],[-0.9105368852615356],[-0.5938563346862793],[-0.9484371542930603],[-0.13983726501464844],[-0.5887895822525024],[-0.8625829815864563]],"matrixHiddenWeight":[[[0.4400174617767334],[0.06748399138450623]],[[-0.4783432185649872],[-0.28870007395744324]],[[-0.43950459361076355],[-0.6198803186416626]],[[-0.7168951630592346],[-1.198174238204956]],[[-1.1722289323806763],[-1.21745765209198]],[[-0.5405725240707397],[-0.7847374677658081]],[[0.40400955080986023],[0.40653082728385925]],[[-0.26238781213760376],[-0.11136342585086823]],[[0.3564385771751404],[0.42596110701560974]],[[-0.24362584948539734],[-0.09069705009460449]],[[-0.8348450064659119],[-0.9674404859542847]],[[-0.817870557308197],[-0.5723339319229126]],[[-0.06924968212842941],[-0.46608296036720276]],[[-1.0860430002212524],[-1.1134297847747803]],[[-0.8738666772842407],[-1.2406452894210815]]],"Bias":0,"Activation":"sigmoid","hiddenLayers":2,"dense":false,"divMulI":2130,"divMulO":1},{"Inputs":[0.03254716843366623,0.07122641801834106,0.06037735939025879,0.09811320900917053,0.09339622408151627,0.09292452782392502,0.03349056467413902,0.03537735715508461,0.033018868416547775,0.07169811427593231,0.09952830523252487,0.09292452782392502,0.06981132179498672,0.10000000149011612,0.0886792466044426],"arrInputWeight":[[-0.21164418756961823],[-0.318013995885849],[-0.6230818629264832],[-1.1680318117141724],[-0.6005373597145081],[-0.8667259812355042],[0.36118781566619873],[0.21367931365966797],[0.11359472572803497],[-1.159142017364502],[-0.7727174162864685],[-0.5697894096374512],[-0.5295026302337646],[-1.3631751537322998],[-0.47604453563690186]],"matrixHiddenWeight":[[[0.01818804070353508],[-0.3766826391220093]],[[-0.17926828563213348],[-1.0964546203613281]],[[-0.9762171506881714],[-0.8391860723495483]],[[-0.6339690685272217],[-1.4226047992706299]],[[-0.8760809302330017],[-1.1108250617980957]],[[-1.2584006786346436],[-1.4048759937286377]],[[-0.4580194354057312],[-0.47522616386413574]],[[0.36602669954299927],[-0.0772838145494461]],[[0.22346986830234528],[-0.24619559943675995]],[[-0.31858086585998535],[-0.976749837398529]],[[-1.058569312095642],[-1.4168708324432373]],[[-1.1031547784805298],[-0.8268457651138306]],[[-0.4696197509765625],[-0.36256885528564453]],[[-0.8025834560394287],[-1.2164143323898315]],[[-0.47941112518310547],[-0.8027992844581604]]],"Bias":0,"Activation":"sigmoid","hiddenLayers":2,"dense":false,"divMulI":2120,"divMulO":1},{"Inputs":[0.027014218270778656,0.07156398147344589,0.059241704642772675,0.10000000149011612,0.09478673338890076,0.09478673338890076,0.06255923956632614,0.07203791290521622,0.06824644654989243,0.03507108986377716,0.03601895645260811,0.03412322327494621,0.0758293867111206,0.10000000149011612,0.09383886307477951],"arrInputWeight":[[0.08563032001256943],[-0.7693949341773987],[-0.4775587022304535],[-0.7992680072784424],[-0.8580358624458313],[-1.2636853456497192],[-0.02772778645157814],[-0.8571124076843262],[-0.09585245698690414],[0.25277140736579895],[-0.171297088265419],[0.4233022928237915],[-0.9840428829193115],[-0.7971113920211792],[-1.424741506576538]],"matrixHiddenWeight":[[[-0.15306338667869568],[0.4923839867115021]],[[-0.28034743666648865],[-0.20159980654716492]],[[-0.0632270872592926],[-0.5578693151473999]],[[-0.9465196132659912],[-1.0647910833358765]],[[-1.3588558435440063],[-1.3451751470565796]],[[-1.373092532157898],[-1.1930798292160034]],[[-0.038153115659952164],[-0.21570497751235962]],[[-0.8713263273239136],[-0.9132833480834961]],[[-0.2424512803554535],[-0.6746006608009338]],[[0.17778638005256653],[0.3967466652393341]],[[0.24901346862316132],[-0.41329050064086914]],[[0.16577892005443573],[0.04568450525403023]],[[-0.726059079170227],[-0.3795974850654602]],[[-1.1186190843582153],[-0.5666984915733337]],[[-0.46751663088798523],[-0.8285158276557922]]],"Bias":0,"Activation":"sigmoid","hiddenLayers":2,"dense":false,"divMulI":2110,"divMulO":1},{"Inputs":[0.03364928811788559,0.07109005004167557,0.06018957495689392,0.10000000149011612,0.09478673338890076,0.09478673338890076,0.031753554940223694,0.031753554940223694,0.030331753194332123,0.07393364608287811,0.09668246656656265,0.08862559497356415,0.07677724957466125,0.09810426831245422,0.09336493164300919],"arrInputWeight":[[-0.04857919365167618],[-0.5985963344573975],[-0.7626811861991882],[-1.153343915939331],[-0.8947813510894775],[-1.3594086170196533],[-0.11625173687934875],[0.19254940748214722],[0.5248968005180359],[-0.23038391768932343],[-0.8819302916526794],[-0.6855883598327637],[-0.7351558208465576],[-1.04398775100708],[-0.8999276161193848]],"matrixHiddenWeight":[[[0.4027971625328064],[0.14657075703144073]],[[-0.09411562979221344],[-0.9422509074211121]],[[0.07139354944229126],[-0.6835107207298279]],[[-0.6257933378219604],[-0.8758028745651245]],[[-1.157530426979065],[-0.611717700958252]],[[-1.4221023321151733],[-1.1731454133987427]],[[-0.11797988414764404],[0.41232579946517944]],[[-0.3115704357624054],[0.19280093908309937]],[[0.4159797132015228],[-0.13389946520328522]],[[-0.997915506362915],[-0.11691217124462128]],[[-0.810613751411438],[-0.6049374938011169]],[[-0.9749239683151245],[-0.4449230432510376]],[[-0.5370014309883118],[-0.8683453798294067]],[[-0.7975735664367676],[-1.3256990909576416]],[[-0.6838972568511963],[-1.3685126304626465]]],"Bias":0,"Activation":"sigmoid","hiddenLayers":2,"dense":false,"divMulI":2110,"divMulO":1},{"Inputs":[0.033175356686115265,0.07109005004167557,0.0597156397998333,0.10000000149011612,0.09526066482067108,0.09526066482067108,0.025592416524887085,0.025592416524887085,0.024644549936056137,0.07630331814289093,0.09857819974422455,0.09336493164300919,0.026540284976363182,0.036966823041439056,0.028436018154025078],"arrInputWeight":[[-0.5179281830787659],[-0.1917090117931366],[-0.835193932056427],[-0.9267287850379944],[-1.284507393836975],[-1.5325735807418823],[0.4786369204521179],[-0.4230848252773285],[-0.11206487566232681],[-0.541202962398529],[-0.8250102400779724],[-1.0007367134094238],[0.5332285165786743],[-0.5981323719024658],[-0.383223295211792]],"matrixHiddenWeight":[[[0.3458004891872406],[-0.157520592212677]],[[-0.6705397367477417],[-0.3308030962944031]],[[-0.25794535875320435],[-0.375367671251297]],[[-1.0060219764709473],[-0.9288483262062073]],[[-0.8280013799667358],[-1.142442226409912]],[[-1.0170316696166992],[-1.3363484144210815]],[[-0.2071649581193924],[-0.30532094836235046]],[[-0.22817933559417725],[0.4562968611717224]],[[-0.009983807802200317],[0.22276140749454498]],[[-0.5670769810676575],[-0.5549453496932983]],[[-0.8079238533973694],[-1.1843559741973877]],[[-0.7878838181495667],[-0.6227829456329346]],[[0.03487103432416916],[-0.09187956899404526]],[[-0.28936532139778137],[0.357160747051239]],[[0.5060020089149475],[0.26698607206344604]]],"Bias":0,"Activation":"sigmoid","hiddenLayers":2,"dense":false,"divMulI":2110,"divMulO":1},{"Inputs":[0.02748815156519413,0.07109005004167557,0.05829383805394173,0.10000000149011612,0.09478673338890076,0.09478673338890076,0.061611372977495193,0.07393364608287811,0.06919430941343307,0.03364928811788559,0.03649289160966873,0.033175356686115265,0.0758293867111206,0.09905213117599487,0.09289099276065826],"arrInputWeight":[[0.35875609517097473],[-1.0802671909332275],[0.08759592473506927],[-0.8309619426727295],[-0.8884339332580566],[-0.6783108115196228],[0.04107777029275894],[-0.3646126091480255],[-0.07869687676429749],[-0.3479483425617218],[0.3870329260826111],[-0.4652865529060364],[-0.9796494245529175],[-1.1876630783081055],[-1.3552199602127075]],"matrixHiddenWeight":[[[-0.073087178170681],[0.12739020586013794]],[[-0.18809571862220764],[-0.18777671456336975]],[[0.04915599524974823],[-0.1858779937028885]],[[-0.7689130306243896],[-1.223716378211975]],[[-0.5215597748756409],[-1.1319469213485718]],[[-1.0742716789245605],[-0.6804220080375671]],[[-0.16309326887130737],[-0.17566066980361938]],[[-1.0006999969482422],[-1.091017246246338]],[[-0.5037614703178406],[-0.44954219460487366]],[[0.418321818113327],[0.44982612133026123]],[[-0.4427076578140259],[0.3692947030067444]],[[0.09428052604198456],[0.008661139756441116]],[[-0.9264606237411499],[-0.8728641271591187]],[[-1.211634874343872],[-1.0819991827011108]],[[-1.1694691181182861],[-1.1234616041183472]]],"Bias":0,"Activation":"sigmoid","hiddenLayers":2,"dense":false,"divMulI":2110,"divMulO":1},{"Inputs":[0.03254716843366623,0.07075471431016922,0.059433963149785995,0.09905660152435303,0.09386792778968811,0.09386792778968811,0.027358490973711014,0.028773585334420204,0.026886792853474617,0.07594339549541473,0.09858490526676178,0.09292452782392502,0.06839622557163239,0.10000000149011612,0.0886792466044426],"arrInputWeight":[[-0.4575200080871582],[-0.08685262501239777],[-0.07324199378490448],[-0.6614291667938232],[-0.6276566386222839],[-1.2347806692123413],[-0.1345362663269043],[0.3873692750930786],[0.4626452326774597],[-0.8482513427734375],[-1.034219741821289],[-1.0425392389297485],[-0.24807003140449524],[-0.5192893743515015],[-0.40810173749923706]],"matrixHiddenWeight":[[[-0.46386581659317017],[0.43461763858795166]],[[-1.027556300163269],[-0.3765464723110199]],[[-0.009938836097717285],[-0.6488138437271118]],[[-1.0067462921142578],[-1.1474858522415161]],[[-1.1746060848236084],[-1.2070181369781494]],[[-0.7414547801017761],[-1.3149502277374268]],[[0.49946749210357666],[0.14614273607730865]],[[0.2209986001253128],[-0.22393377125263214]],[[-0.38345152139663696],[-0.002904929220676422]],[[-0.8490768671035767],[-1.008881688117981]],[[-1.1300406455993652],[-1.1766277551651]],[[-1.1254786252975464],[-0.6280436515808105]],[[-0.6918409466743469],[-0.5516700148582458]],[[-1.2367888689041138],[-1.4483418464660645]],[[-0.45220276713371277],[-1.0749611854553223]]],"Bias":0,"Activation":"sigmoid","hiddenLayers":2,"dense":false,"divMulI":2120,"divMulO":1},{"Inputs":[0.03254716843366623,0.07028301805257797,0.05896226316690445,0.09905660152435303,0.09386792778968811,0.09386792778968811,0.028773585334420204,0.029716981574892998,0.02783018909394741,0.07641509175300598,0.09858490526676178,0.09292452782392502,0.06603773683309555,0.10000000149011612,0.0886792466044426],"arrInputWeight":[[0.41784822940826416],[-0.7591867446899414],[-0.8684482574462891],[-1.2729295492172241],[-0.4658806025981903],[-0.963297426700592],[-0.3006421625614166],[0.1842576116323471],[-0.16363143920898438],[-0.2703072726726532],[-0.6435503959655762],[-0.9757655262947083],[-0.14522141218185425],[-0.7319400906562805],[-1.1505568027496338]],"matrixHiddenWeight":[[[0.3734839856624603],[-0.42816829681396484]],[[-0.4476964473724365],[-0.506543755531311]],[[-0.5873130559921265],[-0.6511231064796448]],[[-0.7707226276397705],[-1.0311880111694336]],[[-0.6394873857498169],[-1.1692026853561401]],[[-0.8344693779945374],[-0.6693863868713379]],[[-0.155986025929451],[0.4408223032951355]],[[-0.30705901980400085],[-0.345801442861557]],[[-0.2899431586265564],[0.35914719104766846]],[[-0.9841076135635376],[-0.6373331546783447]],[[-1.3576667308807373],[-0.5796260237693787]],[[-0.6884950995445251],[-0.8551451563835144]],[[-0.43445059657096863],[-0.36704444885253906]],[[-1.2881791591644287],[-1.2362911701202393]],[[-1.1847562789916992],[-0.8950085639953613]]],"Bias":0,"Activation":"sigmoid","hiddenLayers":2,"dense":false,"divMulI":2120,"divMulO":1},{"Inputs":[0.03254716843366623,0.07028301805257797,0.05896226316690445,0.09905660152435303,0.09386792778968811,0.09386792778968811,0.02783018909394741,0.028773585334420204,0.02641509473323822,0.07594339549541473,0.09858490526676178,0.09292452782392502,0.06981132179498672,0.10000000149011612,0.0886792466044426],"arrInputWeight":[[0.4330381155014038],[-0.19911602139472961],[-0.7481431365013123],[-1.2843838930130005],[-0.6946969628334045],[-0.5627931356430054],[0.47729548811912537],[-0.36891448497772217],[0.19861775636672974],[-0.5092653036117554],[-0.7298649549484253],[-0.6763191819190979],[-0.7227029800415039],[-1.4553617238998413],[-1.0502452850341797]],"matrixHiddenWeight":[[[-0.04191797599196434],[-0.27618086338043213]],[[-0.9327373504638672],[-0.5889886021614075]],[[-0.5556131601333618],[0.07487457245588303]],[[-0.896462619304657],[-1.5121748447418213]],[[-0.9682855606079102],[-0.4869890809059143]],[[-1.4049242734909058],[-1.260886788368225]],[[-0.1862073391675949],[0.476211816072464]],[[-0.08440544456243515],[0.03511039912700653]],[[-0.07468092441558838],[0.5884387493133545]],[[-0.3923385739326477],[-0.5681387782096863]],[[-0.6823004484176636],[-1.4519004821777344]],[[-0.7226200699806213],[-1.27676260471344]],[[-0.521497368812561],[-0.40061020851135254]],[[-0.9475762248039246],[-0.8578872084617615]],[[-0.39776551723480225],[-0.7728778719902039]]],"Bias":0,"Activation":"sigmoid","hiddenLayers":2,"dense":false,"divMulI":2120,"divMulO":1},{"Inputs":[0.03254716843366623,0.07028301805257797,0.05896226316690445,0.09905660152435303,0.09386792778968811,0.09339622408151627,0.027358490973711014,0.027358490973711014,0.025471698492765427,0.07500000298023224,0.10000000149011612,0.09339622408151627,0.05707547068595886,0.10000000149011612,0.08726415038108826],"arrInputWeight":[[-0.3209506571292877],[-0.5743765234947205],[0.08322583138942719],[-0.6640840768814087],[-0.5669590830802917],[-1.405786156654358],[0.39507347345352173],[0.5302016139030457],[0.32862186431884766],[-1.1114493608474731],[-1.2593010663986206],[-1.2624850273132324],[0.12924133241176605],[-0.6898459792137146],[-0.7789344191551208]],"matrixHiddenWeight":[[[0.008231667801737785],[-0.38279616832733154]],[[-0.31567150354385376],[-0.26333823800086975]],[[-0.8538885116577148],[-0.7993863224983215]],[[-1.1615046262741089],[-1.2623542547225952]],[[-1.308144211769104],[-0.7045044898986816]],[[-1.1162195205688477],[-0.7239575982093811]],[[0.5594523549079895],[-0.2994992136955261]],[[0.0732748955488205],[0.09086979180574417]],[[0.4930557906627655],[-0.19660191237926483]],[[-0.578765869140625],[-0.6858776807785034]],[[-1.0135148763656616],[-1.4186615943908691]],[[-0.5752322673797607],[-1.133887529373169]],[[-0.6408195495605469],[-0.7119091153144836]],[[-1.4583289623260498],[-0.9045650362968445]],[[-0.3409631550312042],[-0.5549659132957458]]],"Bias":0,"Activation":"sigmoid","hiddenLayers":2,"dense":false,"divMulI":2120,"divMulO":1},{"Inputs":[0.033175356686115265,0.07109005004167557,0.0597156397998333,0.09905213117599487,0.09383886307477951,0.09383886307477951,0.025592416524887085,0.025592416524887085,0.02369668334722519,0.07677724957466125,0.10000000149011612,0.09431279450654984,0.02369668334722519,0.0398104265332222,0.028436018154025078],"arrInputWeight":[[0.01830158568918705],[-0.5855565667152405],[-0.14272774755954742],[-0.826261579990387],[-0.86378014087677],[-1.08871328830719],[-0.4123913645744324],[-0.20133912563323975],[0.5159257650375366],[-1.1242001056671143],[-1.7028697729110718],[-0.9371702671051025],[0.392764687538147],[-0.4175398647785187],[-0.1884021759033203]],"matrixHiddenWeight":[[[-0.2838212251663208],[0.1584986299276352]],[[-0.7392553091049194],[-1.1293632984161377]],[[-0.4769812524318695],[-0.13685061037540436]],[[-1.1739636659622192],[-1.429491639137268]],[[-0.9770153760910034],[-0.7959243059158325]],[[-0.8760433197021484],[-0.7740297317504883]],[[-0.2882273197174072],[-0.24438762664794922]],[[0.2355765402317047],[-0.40488842129707336]],[[0.3312934339046478],[0.18610897660255432]],[[-0.7552071809768677],[-0.9455018043518066]],[[-0.8012871146202087],[-1.6896528005599976]],[[-0.8391981720924377],[-0.6997321844100952]],[[0.14213301241397858],[-0.38431572914123535]],[[0.09753931313753128],[-0.25834134221076965]],[[-0.48550161719322205],[0.3488720953464508]]],"Bias":0,"Activation":"sigmoid","hiddenLayers":2,"dense":false,"divMulI":2110,"divMulO":1},{"Inputs":[0.03397129103541374,0.07224880158901215,0.060765549540519714,0.09952153265476227,0.09473684430122375,0.09473684430122375,0.021052632480859756,0.020095692947506905,0.019138755276799202,0.016746411100029945,0.03923444822430611,0.027751196175813675,0.07703348994255066,0.10000000149011612,0.0942583754658699],"arrInputWeight":[[0.2358928918838501],[-0.8721979260444641],[-0.08355287462472916],[-1.4745380878448486],[-0.6651687026023865],[-0.8718779683113098],[0.49570900201797485],[0.17635516822338104],[0.3108622431755066],[0.05011790245771408],[-0.5635706186294556],[0.16611526906490326],[-0.7625381350517273],[-1.4004696607589722],[-0.8401710987091064]],"matrixHiddenWeight":[[[-0.2945594787597656],[-0.09389586001634598]],[[-0.10615197569131851],[-0.1808302104473114]],[[-0.39259767532348633],[-0.12111345678567886]],[[-0.5343963503837585],[-1.147051453590393]],[[-0.5270389914512634],[-1.2795289754867554]],[[-0.6437879204750061],[-1.3990472555160522]],[[0.5610151886940002],[-0.05808339640498161]],[[-0.19159944355487823],[0.146361842751503]],[[0.4895142912864685],[-0.06461171805858612]],[[0.6260495185852051],[0.5702300071716309]],[[-0.5587919354438782],[0.31191757321357727]],[[-0.06309197843074799],[0.5576611161231995]],[[-1.0488736629486084],[-1.0524981021881104]],[[-1.3737359046936035],[-1.0322329998016357]],[[-1.1387262344360352],[-1.4119577407836914]]],"Bias":0,"Activation":"sigmoid","hiddenLayers":2,"dense":false,"divMulI":2090,"divMulO":1},{"Inputs":[0.03397129103541374,0.07224880158901215,0.061244018375873566,0.09952153265476227,0.09473684430122375,0.09473684430122375,0.024401914328336716,0.024401914328336716,0.02248803898692131,0.015311004593968391,0.04019138589501381,0.028708133846521378,0.07655502110719681,0.10000000149011612,0.0942583754658699],"arrInputWeight":[[0.11295996606349945],[-0.8489223718643188],[-0.40636003017425537],[-1.469736099243164],[-1.052691102027893],[-0.4726036489009857],[0.20208266377449036],[0.41173335909843445],[-0.1947110891342163],[0.03278793394565582],[0.18756800889968872],[0.3546532690525055],[-1.0311683416366577],[-1.0086331367492676],[-0.96683269739151]],"matrixHiddenWeight":[[[0.1512594074010849],[-0.26439839601516724]],[[-0.3444719910621643],[-0.4977605938911438]],[[-0.047197118401527405],[-0.006925597786903381]],[[-0.5709431171417236],[-1.2880337238311768]],[[-1.2831059694290161],[-1.285190463066101]],[[-1.119465708732605],[-0.9918239116668701]],[[-0.17952314019203186],[0.0828007161617279]],[[-0.242372065782547],[0.5506927967071533]],[[-0.12502044439315796],[-0.01579924300312996]],[[0.33479857444763184],[-0.05786210298538208]],[[-0.36707353591918945],[0.24140319228172302]],[[0.32452133297920227],[-0.20675820112228394]],[[-0.6892716884613037],[-0.4513619840145111]],[[-1.3037288188934326],[-0.5726285576820374]],[[-1.4349937438964844],[-0.8523518443107605]]],"Bias":0,"Activation":"sigmoid","hiddenLayers":2,"dense":false,"divMulI":2090,"divMulO":1},{"Inputs":[0.03397129103541374,0.072727270424366,0.061244018375873566,0.10000000149011612,0.0952153131365776,0.0952153131365776,0.0181818176060915,0.023923445492982864,0.019617224112153053,0.036363635212183,0.03444975987076759,0.03301435336470604,0.07703348994255066,0.09904306381940842,0.09377990663051605],"arrInputWeight":[[-0.47818225622177124],[-0.8128108382225037],[-0.17898313701152802],[-0.7011334896087646],[-1.4309983253479004],[-1.2630751132965088],[-0.07454533874988556],[0.24578504264354706],[0.3496442139148712],[0.2809332311153412],[0.013794634491205215],[0.2783336341381073],[-0.7051870822906494],[-0.9655177593231201],[-1.1165870428085327]],"matrixHiddenWeight":[[[-0.07849915325641632],[-0.3500337600708008]],[[-0.4572852849960327],[-0.807956874370575]],[[-0.9658336043357849],[-0.47047051787376404]],[[-0.825799822807312],[-1.5314066410064697]],[[-0.617344856262207],[-1.1399986743927002]],[[-1.2465968132019043],[-1.209979772567749]],[[-0.06556063145399094],[0.35216742753982544]],[[0.5968164801597595],[0.30790960788726807]],[[0.0922127217054367],[-0.32150915265083313]],[[0.11595907062292099],[0.2217317521572113]],[[0.1289469450712204],[0.028036270290613174]],[[-0.26706400513648987],[-0.5085414052009583]],[[-1.1621061563491821],[-0.64115971326828]],[[-1.3223876953125],[-0.6804714202880859]],[[-0.6833035349845886],[-0.8604761958122253]]],"Bias":0,"Activation":"sigmoid","hiddenLayers":2,"dense":false,"divMulI":2090,"divMulO":1},{"Inputs":[0.034285712987184525,0.07238095253705978,0.06142857298254967,0.10000000149011612,0.095238097012043,0.095238097012043,0.022380951792001724,0.022857142612338066,0.020952381193637848,0.07666666805744171,0.09904761612415314,0.09380952268838882,0.016190476715564728,0.03999999910593033,0.02857142873108387],"arrInputWeight":[[0.273700088262558],[-0.15138958394527435],[-0.3932448625564575],[-1.3246393203735352],[-0.9112951159477234],[-1.411085844039917],[0.3479732871055603],[0.031049171462655067],[0.4816789925098419],[-0.5331407189369202],[-1.295273780822754],[-1.1676523685455322],[0.15224960446357727],[0.1530163735151291],[0.2550203800201416]],"matrixHiddenWeight":[[[-0.05817557871341705],[0.18565517663955688]],[[-0.8299371004104614],[-0.20403388142585754]],[[-0.31444525718688965],[0.05481169372797012]],[[-0.6578902006149292],[-0.7989897727966309]],[[-1.4355952739715576],[-0.9238821864128113]],[[-1.1140862703323364],[-0.8935485482215881]],[[0.128385528922081],[-0.18029020726680756]],[[-0.33384084701538086],[0.22238244116306305]],[[-0.24039702117443085],[0.04199758172035217]],[[-0.9971606135368347],[-0.6853864789009094]],[[-1.497230052947998],[-0.7535335421562195]],[[-1.130625605583191],[-0.849031388759613]],[[0.39311566948890686],[0.580256998538971]],[[0.2472534477710724],[0.07345763593912125]],[[0.18750160932540894],[-0.07120438665151596]]],"Bias":0,"Activation":"sigmoid","hiddenLayers":2,"dense":false,"divMulI":2100,"divMulO":1},{"Inputs":[0.03349056467413902,0.07169811427593231,0.06084905564785004,0.09669811278581619,0.09292452782392502,0.09245283156633377,0.023113207891583443,0.02216981165111065,0.020283019170165062,0.017924528568983078,0.03962264209985733,0.028301887214183807,0.07075471431016922,0.10000000149011612,0.09292452782392502],"arrInputWeight":[[0.3756445646286011],[-1.0874320268630981],[-0.9947659969329834],[-1.4115574359893799],[-1.4239288568496704],[-0.8509772419929504],[0.5810301303863525],[0.315081924200058],[0.615859866142273],[0.4751123785972595],[-0.30617743730545044],[0.4079412519931793],[-1.1923147439956665],[-0.9846497178077698],[-0.883321225643158]],"matrixHiddenWeight":[[[0.006140857934951782],[-0.4685244560241699]],[[-0.4811285436153412],[-0.482526034116745]],[[-0.7060269117355347],[-0.5337539315223694]],[[-0.8860830068588257],[-0.7775590419769287]],[[-0.8419120907783508],[-0.7808274030685425]],[[-1.4798364639282227],[-1.4022574424743652]],[[0.02012418955564499],[-0.29455459117889404]],[[0.49505171179771423],[0.27970150113105774]],[[0.2899056673049927],[0.3891167938709259]],[[0.41036444902420044],[0.13228651881217957]],[[-0.6794462203979492],[-0.4225362241268158]],[[0.2595123052597046],[0.3912595212459564]],[[-0.3905002772808075],[-1.0741745233535767]],[[-0.8333221077919006],[-0.8300625681877136]],[[-1.1364531517028809],[-1.0226199626922607]]],"Bias":0,"Activation":"sigmoid","hiddenLayers":2,"dense":false,"divMulI":2120,"divMulO":1},{"Inputs":[0.032870370894670486,0.07037036865949631,0.05972222238779068,0.09537036716938019,0.09166666865348816,0.0912037044763565,0.02222222276031971,0.02083333395421505,0.01944444514811039,0.06990740448236465,0.10000000149011612,0.09259258955717087,0.028703704476356506,0.035185184329748154,0.02638888917863369],"arrInputWeight":[[0.26706504821777344],[-0.24762094020843506],[-0.10939757525920868],[-1.026540994644165],[-1.2228186130523682],[-0.876978874206543],[0.24350611865520477],[0.5800516605377197],[-0.11070750653743744],[-0.24202241003513336],[-1.0323647260665894],[-1.054942011833191],[0.15563616156578064],[0.23087966442108154],[-0.10166312754154205]],"matrixHiddenWeight":[[[-0.37630847096443176],[-0.2936544716358185]],[[-0.8219882249832153],[-0.2776836156845093]],[[-0.5952149629592896],[-0.3378998637199402]],[[-1.6082282066345215],[-1.2071211338043213]],[[-0.8201476335525513],[-0.6819782257080078]],[[-0.9381393194198608],[-1.4576114416122437]],[[-0.3586995005607605],[0.6042947173118591]],[[0.5694258213043213],[0.45791247487068176]],[[0.43372267484664917],[0.3542552590370178]],[[-0.5832007527351379],[-1.1567484140396118]],[[-0.905359148979187],[-1.168630599975586]],[[-1.575683355331421],[-0.9098407626152039]],[[0.21418553590774536],[-0.49033281207084656]],[[-0.2562960088253021],[0.17591792345046997]],[[0.15162399411201477],[-0.36022889614105225]]],"Bias":0,"Activation":"sigmoid","hiddenLayers":2,"dense":false,"divMulI":2160,"divMulO":1},{"Inputs":[0.03227272629737854,0.06909091025590897,0.058636363595724106,0.09318181872367859,0.08954545110464096,0.08954545110464096,0.02181818149983883,0.020454544574022293,0.018636364489793777,0.036363635212183,0.03227272629737854,0.0331818163394928,0.06545454263687134,0.10000000149011612,0.09272727370262146],"arrInputWeight":[[0.17400965094566345],[-0.42478132247924805],[-0.8085585832595825],[-0.9708037972450256],[-0.6740314960479736],[-1.169651746749878],[0.5956113338470459],[0.08808256685733795],[-0.17356131970882416],[-0.4600936770439148],[0.39467573165893555],[0.34446245431900024],[-0.12736794352531433],[-1.0818735361099243],[-0.5995603203773499]],"matrixHiddenWeight":[[[-0.11035385727882385],[-0.25164711475372314]],[[-0.19066433608531952],[-0.2085208147764206]],[[-0.29448169469833374],[-0.8732938766479492]],[[-1.135757565498352],[-1.5152978897094727]],[[-0.606296181678772],[-1.3210800886154175]],[[-1.3653918504714966],[-0.8996812105178833]],[[0.5570055842399597],[0.5261422991752625]],[[0.5614067912101746],[0.06797926127910614]],[[-0.2992786169052124],[0.5708929896354675]],[[-0.06963128596544266],[0.2125084400177002]],[[0.3009313642978668],[0.09053513407707214]],[[-0.32190683484077454],[-0.44307780265808105]],[[-0.13872656226158142],[-0.10694011300802231]],[[-1.47214674949646],[-1.4425543546676636]],[[-0.7095620036125183],[-0.7846977114677429]]],"Bias":0,"Activation":"sigmoid","hiddenLayers":2,"dense":false,"divMulI":2200,"divMulO":1},{"Inputs":[0.03333333507180214,0.07136150449514389,0.060093898326158524,0.09577465057373047,0.09201877564191818,0.09154929220676422,0.026291079819202423,0.023943662643432617,0.022535210475325584,0.023474179208278656,0.039436619728803635,0.028169013559818268,0.07183098793029785,0.10000000149011612,0.09248826652765274],"arrInputWeight":[[0.3249472379684448],[-0.601050853729248],[-0.6307893395423889],[-0.7024691104888916],[-0.9794996380805969],[-0.6273894309997559],[-0.06154106184840202],[0.10641598701477051],[-0.08655282109975815],[0.24504372477531433],[-0.38907843828201294],[-0.2244720160961151],[-0.3353244364261627],[-1.5426002740859985],[-1.2066402435302734]],"matrixHiddenWeight":[[[-0.11192382127046585],[0.2140037715435028]],[[-0.6381088495254517],[-0.5784090757369995]],[[-0.4623757600784302],[-0.8392055630683899]],[[-0.8398832678794861],[-1.2690465450286865]],[[-0.683340311050415],[-0.8587183952331543]],[[-1.3606321811676025],[-1.3559001684188843]],[[-0.40506067872047424],[0.5598594546318054]],[[-0.3021591305732727],[0.4484714865684509]],[[0.060175418853759766],[0.23043259978294373]],[[0.6000548601150513],[-0.08569544553756714]],[[0.039317503571510315],[-0.3823416829109192]],[[0.5181028246879578],[-0.04322652891278267]],[[-1.0420626401901245],[-1.145587682723999]],[[-0.8187559843063354],[-1.5967023372650146]],[[-1.2536883354187012],[-0.6950567364692688]]],"Bias":0,"Activation":"sigmoid","hiddenLayers":2,"dense":false,"divMulI":2130,"divMulO":1},{"Inputs":[0.033018868416547775,0.07122641801834106,0.05990565940737724,0.09622641652822495,0.09245283156633377,0.09245283156633377,0.026886792853474617,0.02500000037252903,0.023113207891583443,0.0735849067568779,0.10000000149011612,0.09339622408151627,0.059433963149785995,0.10000000149011612,0.08726415038108826],"arrInputWeight":[[0.4159769117832184],[-0.9991822838783264],[0.0851203054189682],[-0.5512635111808777],[-1.2421053647994995],[-0.9281741976737976],[0.30418097972869873],[-0.2024095505475998],[-0.04438891261816025],[-0.4118460416793823],[-1.2444041967391968],[-1.1864267587661743],[-0.7378318309783936],[-1.2244848012924194],[-0.9975060820579529]],"matrixHiddenWeight":[[[-0.287138432264328],[-0.03846348822116852]],[[-0.6784206032752991],[-0.810697615146637]],[[-0.051049258559942245],[-0.8587306141853333]],[[-0.756819486618042],[-0.596663236618042]],[[-1.3635014295578003],[-0.9489568471908569]],[[-0.5165926218032837],[-0.4866042137145996]],[[0.2877475619316101],[0.2546594440937042]],[[-0.014660613611340523],[0.08052052557468414]],[[0.00241823960095644],[-0.2358579784631729]],[[-0.6514589786529541],[-0.54660964012146]],[[-0.6629417538642883],[-1.281639814376831]],[[-0.8953415751457214],[-0.7612586617469788]],[[-0.6222906708717346],[0.06133577972650528]],[[-1.3113700151443481],[-0.9794992208480835]],[[-0.8022666573524475],[-1.0505889654159546]]],"Bias":0,"Activation":"sigmoid","hiddenLayers":2,"dense":false,"divMulI":2120,"divMulO":1},{"Inputs":[0.033018868416547775,0.07075471431016922,0.059433963149785995,0.09716980904340744,0.09339622408151627,0.09292452782392502,0.0292452834546566,0.027358490973711014,0.025471698492765427,0.07169811427593231,0.10000000149011612,0.09292452782392502,0.0584905669093132,0.10000000149011612,0.0886792466044426],"arrInputWeight":[[-0.277362197637558],[-0.3799729347229004],[-0.6331108212471008],[-0.9478299021720886],[-0.4929367005825043],[-1.0391994714736938],[0.15498389303684235],[-0.002557726576924324],[-0.25140324234962463],[-0.5727415084838867],[-0.9704754948616028],[-1.3028897047042847],[-0.27011510729789734],[-1.1063084602355957],[-1.1361720561981201]],"matrixHiddenWeight":[[[-0.4528829753398895],[-0.3223823010921478]],[[-0.47599536180496216],[-0.43665388226509094]],[[-0.7913325428962708],[-0.05051902309060097]],[[-1.4050322771072388],[-0.4898567795753479]],[[-1.2545700073242188],[-0.7095158696174622]],[[-1.0807677507400513],[-1.0314874649047852]],[[0.07388771325349808],[0.22771193087100983]],[[0.579861044883728],[0.07208912074565887]],[[0.31915274262428284],[-0.1795550286769867]],[[-0.44985729455947876],[-0.6966286301612854]],[[-1.0195202827453613],[-1.4447357654571533]],[[-0.6940293908119202],[-1.1961560249328613]],[[-0.28796669840812683],[-0.04866121709346771]],[[-1.3259282112121582],[-1.1358885765075684]],[[-0.539635181427002],[-0.5869312286376953]]],"Bias":0,"Activation":"sigmoid","hiddenLayers":2,"dense":false,"divMulI":2120,"divMulO":1},{"Inputs":[0.033980581909418106,0.07281553745269775,0.06116504967212677,0.09951456636190414,0.09611650556325912,0.09563107043504715,0.03009708784520626,0.03009708784520626,0.027184465900063515,0.014563106931746006,0.04077669978141785,0.029126213863492012,0.07427184283733368,0.10000000149011612,0.09563107043504715],"arrInputWeight":[[0.06634819507598877],[-0.6382560729980469],[-0.8605587482452393],[-1.470621943473816],[-0.7355939745903015],[-0.9818050861358643],[0.3142092227935791],[-0.43375644087791443],[0.15736062824726105],[-0.11569742113351822],[0.05601409450173378],[-0.32424837350845337],[-1.1479109525680542],[-1.0053373575210571],[-1.4390223026275635]],"matrixHiddenWeight":[[[-0.45069971680641174],[0.3865355849266052]],[[-0.5518964529037476],[-0.9665297865867615]],[[-0.11048445850610733],[-0.7686352729797363]],[[-1.2268242835998535],[-1.0302462577819824]],[[-1.4622691869735718],[-0.5827399492263794]],[[-0.8684686422348022],[-1.0971204042434692]],[[0.45675450563430786],[-0.2220657765865326]],[[-0.3406932055950165],[0.21334384381771088]],[[0.3597830832004547],[-0.019922679290175438]],[[0.4543757438659668],[-0.07750256359577179]],[[-0.3694116771221161],[0.08738091588020325]],[[0.23152630031108856],[-0.1585879921913147]],[[-0.9783896207809448],[-1.146193027496338]],[[-1.1395788192749023],[-0.7992751002311707]],[[-0.5388192534446716],[-1.0890309810638428]]],"Bias":0,"Activation":"sigmoid","hiddenLayers":2,"dense":false,"divMulI":2060,"divMulO":1},{"Inputs":[0.033018868416547775,0.07028301805257797,0.05896226316690445,0.09858490526676178,0.09528301656246185,0.0948113203048706,0.030188679695129395,0.036320753395557404,0.031132075935602188,0.07169811427593231,0.09764151275157928,0.09245283156633377,0.0735849067568779,0.10000000149011612,0.0886792466044426],"arrInputWeight":[[-0.13749167323112488],[-0.7779343128204346],[-0.11444132030010223],[-0.9937609434127808],[-1.1163654327392578],[-0.4662657380104065],[-0.3291832506656647],[0.1983887255191803],[-0.11302850395441055],[-1.0335942506790161],[-0.8744778037071228],[-0.9028341174125671],[-0.721907377243042],[-0.8460823893547058],[-0.5428966283798218]],"matrixHiddenWeight":[[[0.26094210147857666],[-0.4667254090309143]],[[-0.35106006264686584],[-0.8041492104530334]],[[-0.4898291826248169],[-0.15251237154006958]],[[-0.755167543888092],[-1.145754098892212]],[[-1.1052420139312744],[-0.709635853767395]],[[-0.9861211180686951],[-0.7985283732414246]],[[-0.36680087447166443],[-0.005968641489744186]],[[0.34136757254600525],[-0.14712969958782196]],[[0.10949528962373734],[-0.4612295925617218]],[[-0.4455658495426178],[-1.022895097732544]],[[-1.4766995906829834],[-1.0857700109481812]],[[-1.3722903728485107],[-0.917495846748352]],[[-1.0405741930007935],[-0.3035474717617035]],[[-0.6602944135665894],[-1.1028857231140137]],[[-0.7541255950927734],[-0.9295088052749634]]],"Bias":0,"Activation":"sigmoid","hiddenLayers":2,"dense":false,"divMulI":2120,"divMulO":1},{"Inputs":[0.02428571507334709,0.07238095253705978,0.058571428060531616,0.10000000149011612,0.09619047492742538,0.09619047492742538,0.05904762074351311,0.0652380958199501,0.06190476194024086,0.03523809462785721,0.04047619178891182,0.0357142873108387,0.07238095253705978,0.09952381253242493,0.09333333373069763],"arrInputWeight":[[-0.23667100071907043],[-0.4564436674118042],[-0.8132561445236206],[-0.730313777923584],[-1.017188549041748],[-1.4035513401031494],[-0.5204203724861145],[-0.9364709854125977],[-0.3661307096481323],[-0.17076048254966736],[-0.3973615765571594],[0.005173834040760994],[-1.1193504333496094],[-0.8271920680999756],[-1.411490797996521]],"matrixHiddenWeight":[[[0.2349083125591278],[0.5993086099624634]],[[-0.5650258660316467],[-1.0611501932144165]],[[-0.8095315098762512],[-0.024555377662181854]],[[-1.090299367904663],[-1.2669676542282104]],[[-1.242443561553955],[-0.8863875269889832]],[[-0.9692404866218567],[-0.5817810297012329]],[[-0.8419540524482727],[-0.9500482082366943]],[[-0.518674910068512],[-0.5564743280410767]],[[-0.3526441752910614],[-0.5232382416725159]],[[0.18701982498168945],[0.16494250297546387]],[[0.12517009675502777],[-0.20778682827949524]],[[0.05770722031593323],[-0.4205842912197113]],[[-0.4902105927467346],[-0.9570227265357971]],[[-0.9935866594314575],[-1.0627012252807617]],[[-1.255776047706604],[-0.9791101217269897]]],"Bias":0,"Activation":"sigmoid","hiddenLayers":2,"dense":false,"divMulI":2100,"divMulO":1},{"Inputs":[0.024761904031038284,0.07190476357936859,0.058095239102840424,0.10000000149011612,0.09619047492742538,0.09571428596973419,0.05904762074351311,0.0657142847776413,0.06238095089793205,0.034761905670166016,0.04095238074660301,0.03523809462785721,0.07333333045244217,0.10000000149011612,0.09333333373069763],"arrInputWeight":[[-0.07249371707439423],[-0.5435575842857361],[-1.0112762451171875],[-1.2621419429779053],[-0.7808300852775574],[-1.135055422782898],[-0.7460349798202515],[-0.47770047187805176],[-0.8163018822669983],[-0.08102436363697052],[-0.553550124168396],[0.022122886031866074],[-1.1885768175125122],[-1.724095106124878],[-0.9777582287788391]],"matrixHiddenWeight":[[[0.21645337343215942],[-0.34180930256843567]],[[-0.461563378572464],[-0.9681110978126526]],[[-0.11747384071350098],[-0.2980729937553406]],[[-0.8628110885620117],[-0.9825455546379089]],[[-1.0314749479293823],[-0.712379515171051]],[[-0.8003712892532349],[-0.7601515054702759]],[[-0.5481936931610107],[-0.3188631236553192]],[[-0.28240036964416504],[-0.6050911545753479]],[[-0.31007885932922363],[-1.099233865737915]],[[-0.15500439703464508],[0.29569724202156067]],[[-0.4872564673423767],[0.26895850896835327]],[[0.014107730239629745],[0.2888542115688324]],[[-0.3283102810382843],[-0.33229735493659973]],[[-1.2114858627319336],[-1.1154903173446655]],[[-1.007494568824768],[-0.8781889081001282]]],"Bias":0,"Activation":"sigmoid","hiddenLayers":2,"dense":false,"divMulI":2100,"divMulO":1},{"Inputs":[0.033018868416547775,0.06981132179498672,0.05896226316690445,0.09858490526676178,0.0948113203048706,0.0948113203048706,0.029716981574892998,0.0372641496360302,0.031132075935602188,0.07264150679111481,0.10000000149011612,0.09292452782392502,0.0735849067568779,0.10000000149011612,0.0886792466044426],"arrInputWeight":[[0.2584127187728882],[-0.9406795501708984],[0.16557717323303223],[-0.8037526607513428],[-0.7756158709526062],[-1.1308436393737793],[0.3103744089603424],[-0.09882311522960663],[0.37129834294319153],[-0.9967643022537231],[-1.10997474193573],[-0.8938722014427185],[-0.6790149211883545],[-1.2621477842330933],[-0.38007882237434387]],"matrixHiddenWeight":[[[0.19689598679542542],[-0.2480243742465973]],[[-0.9697140455245972],[-0.17848354578018188]],[[-0.6913821697235107],[0.1189301535487175]],[[-1.0861166715621948],[-0.8677862286567688]],[[-0.5482711791992188],[-1.1164708137512207]],[[-1.0668933391571045],[-1.1473922729492188]],[[-0.17771567404270172],[-0.022746816277503967]],[[-0.26314058899879456],[0.115613654255867]],[[-0.3274860084056854],[-0.24008220434188843]],[[-0.9837886095046997],[-0.6000100374221802]],[[-1.185052752494812],[-1.094082236289978]],[[-0.5320342779159546],[-0.9001128673553467]],[[-0.8931893110275269],[-0.31541383266448975]],[[-0.9623003005981445],[-0.5104990005493164]],[[-1.1801701784133911],[-0.5899128913879395]]],"Bias":0,"Activation":"sigmoid","hiddenLayers":2,"dense":false,"divMulI":2120,"divMulO":1},{"Inputs":[0.023636363446712494,0.06909091025590897,0.055909089744091034,0.09454545378684998,0.09090909361839294,0.09045454859733582,0.05727272853255272,0.06363636255264282,0.06045454367995262,0.034090910106897354,0.03909090906381607,0.03454545512795448,0.06818182021379471,0.10000000149011612,0.0918181836605072],"arrInputWeight":[[0.4237508475780487],[-1.0986500978469849],[-0.3078928291797638],[-1.0378385782241821],[-1.4530086517333984],[-0.5637826919555664],[-0.19536751508712769],[-0.15401259064674377],[-0.27144405245780945],[-0.09508013725280762],[-0.16892191767692566],[-0.3570631742477417],[-0.8321274518966675],[-0.9342833757400513],[-0.8087505102157593]],"matrixHiddenWeight":[[[-0.11172259598970413],[0.4507375657558441]],[[-0.571442186832428],[-1.0476759672164917]],[[-0.1410803198814392],[-0.5829532146453857]],[[-0.8935751914978027],[-1.1293859481811523]],[[-0.5793020725250244],[-0.5708723068237305]],[[-0.8353954553604126],[-0.5208439826965332]],[[0.010733500123023987],[-0.13813774287700653]],[[-0.5611354112625122],[-0.4856526255607605]],[[-0.34245604276657104],[-0.20132367312908173]],[[-0.09714081883430481],[-0.5583662390708923]],[[-0.35610947012901306],[-0.17572394013404846]],[[-0.2780334949493408],[0.38822445273399353]],[[-0.2963550090789795],[-1.0616304874420166]],[[-1.4059470891952515],[-1.3842999935150146]],[[-1.4574710130691528],[-1.2076598405838013]]],"Bias":0,"Activation":"sigmoid","hiddenLayers":2,"dense":false,"divMulI":2200,"divMulO":1},{"Inputs":[0.033018868416547775,0.06981132179498672,0.059433963149785995,0.09811320900917053,0.09386792778968811,0.09339622408151627,0.03066037781536579,0.03679245337843895,0.03254716843366623,0.07122641801834106,0.09858490526676178,0.09433962404727936,0.06603773683309555,0.10000000149011612,0.0886792466044426],"arrInputWeight":[[-0.38448554277420044],[-1.0523619651794434],[-0.06827249377965927],[-0.7197982668876648],[-1.1266252994537354],[-1.0038999319076538],[-0.03821457922458649],[-0.36735013127326965],[0.08220603317022324],[-0.7739102244377136],[-1.4933156967163086],[-1.0606807470321655],[-0.8191101551055908],[-0.67252117395401],[-0.5447115302085876]],"matrixHiddenWeight":[[[-0.1764478236436844],[-0.1680406928062439]],[[-0.1969621479511261],[-0.18474073708057404]],[[-0.23597505688667297],[-0.3100484311580658]],[[-0.6983409523963928],[-1.0242254734039307]],[[-1.0742766857147217],[-0.5268590450286865]],[[-1.02632474899292],[-1.4024302959442139]],[[-0.4522942006587982],[0.4511527121067047]],[[-0.38129985332489014],[0.019238296896219254]],[[-0.38532784581184387],[0.32573577761650085]],[[-0.3504570424556732],[-0.9039071202278137]],[[-0.8934670686721802],[-0.6923896670341492]],[[-1.3176711797714233],[-0.5958792567253113]],[[-0.3691811263561249],[-0.847103476524353]],[[-1.2297900915145874],[-1.415429949760437]],[[-1.1368310451507568],[-0.4688161611557007]]],"Bias":0,"Activation":"sigmoid","hiddenLayers":2,"dense":false,"divMulI":2120,"divMulO":1},{"Inputs":[0.03317756950855255,0.06962616741657257,0.05887850373983383,0.09672897309064865,0.09252336621284485,0.09252336621284485,0.029439251869916916,0.03598130866885185,0.03130841255187988,0.0705607458949089,0.09626168012619019,0.09158878773450851,0.05280373990535736,0.10000000149011612,0.08504673093557358],"arrInputWeight":[[0.4694044589996338],[-0.9312187433242798],[-0.36245596408843994],[-0.636099636554718],[-0.9251019954681396],[-1.1013606786727905],[0.15136505663394928],[-0.43668270111083984],[-0.17928770184516907],[-0.08843950927257538],[-1.3590664863586426],[-0.9068419337272644],[-0.143303781747818],[-1.0987664461135864],[-1.1162612438201904]],"matrixHiddenWeight":[[[-0.46928659081459045],[0.012880977243185043]],[[-0.9167739152908325],[-0.7685078382492065]],[[0.09218296408653259],[-0.8450525999069214]],[[-0.8784456849098206],[-1.190704107284546]],[[-0.9794632196426392],[-1.084688425064087]],[[-1.0249148607254028],[-1.165287971496582]],[[-0.18704161047935486],[-0.14836551249027252]],[[0.3458080291748047],[0.10746634006500244]],[[0.3756885826587677],[0.1431828737258911]],[[-0.6420058608055115],[-0.36756086349487305]],[[-1.1768027544021606],[-1.011499047279358]],[[-0.5308824777603149],[-0.9281152486801147]],[[0.12777510285377502],[-0.36359402537345886]],[[-1.349640130996704],[-0.726905107498169]],[[-0.30878525972366333],[-1.2059367895126343]]],"Bias":0,"Activation":"sigmoid","hiddenLayers":2,"dense":false,"divMulI":2140,"divMulO":1},{"Inputs":[0.03365384787321091,0.07163461297750473,0.060576923191547394,0.09951923042535782,0.0956730768084526,0.0951923057436943,0.03125,0.032692309468984604,0.029807692393660545,0.015384615398943424,0.04038461670279503,0.028846153989434242,0.07259615510702133,0.10000000149011612,0.0947115421295166],"arrInputWeight":[[0.4029906988143921],[-0.5093303322792053],[-0.14073871076107025],[-0.6975924372673035],[-1.0766217708587646],[-1.5624531507492065],[0.09161528944969177],[-0.07778295129537582],[-0.1918758749961853],[0.5073031783103943],[0.07250087708234787],[0.2944493889808655],[-0.43312400579452515],[-0.8430984020233154],[-1.2688791751861572]],"matrixHiddenWeight":[[[0.2570514976978302],[-0.20810730755329132]],[[-0.4331238865852356],[-0.45348799228668213]],[[-0.6491022706031799],[-0.9632046818733215]],[[-0.7902286648750305],[-0.6506293416023254]],[[-1.354184627532959],[-1.1074531078338623]],[[-1.0113449096679688],[-0.9672995805740356]],[[-0.16520540416240692],[-0.054799407720565796]],[[-0.11354723572731018],[-0.2745901346206665]],[[-0.27718085050582886],[-0.3680450916290283]],[[0.48662638664245605],[-0.06431223452091217]],[[-0.5295188426971436],[-0.3094833791255951]],[[-0.3641492426395416],[0.039860691875219345]],[[-0.2355477660894394],[-0.6027764081954956]],[[-1.240818977355957],[-1.5309250354766846]],[[-0.7225093841552734],[-0.7023698091506958]]],"Bias":0,"Activation":"sigmoid","hiddenLayers":2,"dense":false,"divMulI":2080,"divMulO":1},{"Inputs":[0.03349056467413902,0.07028301805257797,0.05990565940737724,0.09764151275157928,0.09339622408151627,0.09339622408151627,0.03396226465702057,0.03537735715508461,0.03254716843366623,0.07169811427593231,0.09764151275157928,0.09245283156633377,0.06320754438638687,0.10000000149011612,0.0886792466044426],"arrInputWeight":[[0.26878899335861206],[-0.28860151767730713],[-0.40774595737457275],[-1.101320743560791],[-0.8434016108512878],[-1.384970784187317],[-0.061827853322029114],[-0.4079474210739136],[0.19153010845184326],[-1.0547147989273071],[-0.8065030574798584],[-1.1995655298233032],[-0.80632483959198],[-0.656597375869751],[-0.6088434457778931]],"matrixHiddenWeight":[[[-0.0837232694029808],[0.28909218311309814]],[[-0.6287364363670349],[-0.9936695098876953]],[[-0.2367076873779297],[-0.8475306034088135]],[[-0.7741062641143799],[-1.0212464332580566]],[[-1.2785413265228271],[-0.5543976426124573]],[[-1.1724084615707397],[-1.1630173921585083]],[[-0.41543659567832947],[-0.029239937663078308]],[[0.4176451861858368],[-0.3740353584289551]],[[0.36673951148986816],[-0.20766082406044006]],[[-0.3443320393562317],[-0.3731735944747925]],[[-1.318274974822998],[-0.5724527835845947]],[[-1.3116804361343384],[-0.8545129299163818]],[[-0.37336912751197815],[-0.9284008741378784]],[[-0.895980179309845],[-1.5803221464157104]],[[-0.5855308771133423],[-0.8985618352890015]]],"Bias":0,"Activation":"sigmoid","hiddenLayers":2,"dense":false,"divMulI":2120,"divMulO":1},{"Inputs":[0.03349056467413902,0.07075471431016922,0.06037735939025879,0.09716980904340744,0.09339622408151627,0.09292452782392502,0.03537735715508461,0.034433960914611816,0.031132075935602188,0.07075471431016922,0.09811320900917053,0.09339622408151627,0.0584905669093132,0.10000000149011612,0.0886792466044426],"arrInputWeight":[[-0.05244132876396179],[-0.11902506649494171],[-0.28873786330223083],[-0.820384681224823],[-0.4992887079715729],[-0.917058527469635],[-0.15562704205513],[0.15802502632141113],[-0.14304491877555847],[-1.0567786693572998],[-0.6322898864746094],[-1.0841478109359741],[-0.4736921191215515],[-1.4245195388793945],[-0.5082441568374634]],"matrixHiddenWeight":[[[0.4429805278778076],[0.29167699813842773]],[[-0.681024432182312],[-0.2700979709625244]],[[-0.3889380395412445],[-0.23924171924591064]],[[-0.8079152703285217],[-1.4559599161148071]],[[-1.3026024103164673],[-0.5787980556488037]],[[-0.7498921751976013],[-1.0081762075424194]],[[0.06422601640224457],[-0.09751974791288376]],[[0.06963279843330383],[0.28095686435699463]],[[-0.3397482633590698],[0.3587193191051483]],[[-0.9809999465942383],[-0.3183055520057678]],[[-1.2918999195098877],[-1.3027701377868652]],[[-0.7475945949554443],[-1.1616898775100708]],[[-0.5475025177001953],[-0.6985242962837219]],[[-1.2762839794158936],[-0.8729788661003113]],[[-0.9965440630912781],[-0.6006357073783875]]],"Bias":0,"Activation":"sigmoid","hiddenLayers":2,"dense":false,"divMulI":2120,"divMulO":1},{"Inputs":[0.03317756950855255,0.07009346038103104,0.059813085943460464,0.09626168012619019,0.09205607324838638,0.09205607324838638,0.034112147986888885,0.03317756950855255,0.029906542971730232,0.0705607458949089,0.09626168012619019,0.09158878773450851,0.055140186101198196,0.10000000149011612,0.08785046637058258],"arrInputWeight":[[0.3256267309188843],[-0.9314759969711304],[0.010459981858730316],[-1.1271404027938843],[-0.6800587773323059],[-0.5518403053283691],[-0.2944811284542084],[-0.5063884258270264],[0.4305802881717682],[-0.7649415731430054],[-0.741367518901825],[-0.7394727468490601],[-0.8469482660293579],[-0.7686022520065308],[-1.108291745185852]],"matrixHiddenWeight":[[[-0.48260200023651123],[0.39401257038116455]],[[-0.4025311768054962],[-0.6471642255783081]],[[-0.36706116795539856],[-0.9150398969650269]],[[-1.0576958656311035],[-0.6907349824905396]],[[-1.1853134632110596],[-0.7300354838371277]],[[-1.327042818069458],[-0.8837342858314514]],[[0.015880199149250984],[-0.11747504770755768]],[[-0.0903458446264267],[0.17214256525039673]],[[0.4677610993385315],[-0.323539137840271]],[[-0.8865423798561096],[-0.7789979577064514]],[[-1.0098886489868164],[-1.1637732982635498]],[[-1.0153248310089111],[-0.8122199773788452]],[[-0.3609325587749481],[-0.7015277743339539]],[[-1.397501826286316],[-0.8679826259613037]],[[-0.785336434841156],[-0.9280903935432434]]],"Bias":0,"Activation":"sigmoid","hiddenLayers":2,"dense":false,"divMulI":2140,"divMulO":1},{"Inputs":[0.034928228706121445,0.0717703327536583,0.061244018375873566,0.10000000149011612,0.0952153131365776,0.09569378197193146,0.031578946858644485,0.030622009187936783,0.027272727340459824,0.07655502110719681,0.09856459498405457,0.0942583754658699,0.023444976657629013,0.04019138589501381,0.028708133846521378],"arrInputWeight":[[0.19557729363441467],[-0.3221147358417511],[-1.0202971696853638],[-0.9973476529121399],[-0.8834246397018433],[-0.8216031193733215],[-0.46674561500549316],[-0.07818689197301865],[0.3756156265735626],[-0.693614661693573],[-0.7409117817878723],[-1.2304171323776245],[0.5132682919502258],[-0.16436681151390076],[0.22614063322544098]],"matrixHiddenWeight":[[[0.3962363302707672],[-0.2214113175868988]],[[-0.44782015681266785],[-1.0104854106903076]],[[-0.39719098806381226],[-0.6772400736808777]],[[-1.0820304155349731],[-1.1090911626815796]],[[-0.8666486144065857],[-0.5895379185676575]],[[-1.4532475471496582],[-1.222822666168213]],[[-0.3129643201828003],[0.35016733407974243]],[[0.2711550295352936],[-0.17855578660964966]],[[-0.13666720688343048],[-0.13841788470745087]],[[-0.37883299589157104],[-0.6439864039421082]],[[-1.0369291305541992],[-1.4516515731811523]],[[-0.783541202545166],[-1.0814064741134644]],[[-0.35356593132019043],[0.5271657109260559]],[[0.2946665585041046],[0.32470133900642395]],[[-0.09558416903018951],[0.03757474571466446]]],"Bias":0,"Activation":"sigmoid","hiddenLayers":2,"dense":false,"divMulI":2090,"divMulO":1},{"Inputs":[0.034433960914611816,0.07075471431016922,0.06037735939025879,0.09858490526676178,0.09386792778968811,0.09386792778968811,0.030188679695129395,0.029716981574892998,0.02641509473323822,0.0745282992720604,0.09858490526676178,0.09339622408151627,0.0584905669093132,0.10000000149011612,0.0886792466044426],"arrInputWeight":[[-0.2305361032485962],[-0.8752232193946838],[-0.2047826051712036],[-0.7096827626228333],[-0.6138696670532227],[-1.1564431190490723],[0.32981887459754944],[-0.35689717531204224],[-0.18902549147605896],[-0.6821148991584778],[-0.6026636958122253],[-0.948441743850708],[-0.6062771677970886],[-1.297079086303711],[-1.2706282138824463]],"matrixHiddenWeight":[[[0.2807445526123047],[0.102543905377388]],[[-0.5575153827667236],[-1.0086346864700317]],[[-0.7060041427612305],[-0.8375598192214966]],[[-1.2159395217895508],[-1.0772392749786377]],[[-0.4769716262817383],[-1.2796380519866943]],[[-0.7908071279525757],[-0.877734363079071]],[[0.3882313668727875],[-0.11962688714265823]],[[0.3640749454498291],[0.5157206058502197]],[[-0.28593873977661133],[-0.10301986336708069]],[[-0.22894373536109924],[-0.8444657325744629]],[[-1.2682026624679565],[-1.3222705125808716]],[[-0.9112006425857544],[-0.9621996283531189]],[[0.042639512568712234],[-0.17702117562294006]],[[-0.8052830696105957],[-1.4757378101348877]],[[-0.6909545660018921],[-0.7214647531509399]]],"Bias":0,"Activation":"sigmoid","hiddenLayers":2,"dense":false,"divMulI":2120,"divMulO":1},{"Inputs":[0.035406697541475296,0.0717703327536583,0.06172248721122742,0.10000000149011612,0.0952153131365776,0.0952153131365776,0.027751196175813675,0.026794258505105972,0.024401914328336716,0.03349282220005989,0.036363635212183,0.028708133846521378,0.0755980834364891,0.10000000149011612,0.0952153131365776],"arrInputWeight":[[0.4216839075088501],[-0.7686520218849182],[-0.5239130258560181],[-0.9633674025535583],[-0.7286159992218018],[-1.464601993560791],[-0.24378997087478638],[-0.1732862889766693],[-0.3404141366481781],[0.06024538725614548],[0.3545946478843689],[-0.40860670804977417],[-0.45383980870246887],[-0.9459094405174255],[-1.373065710067749]],"matrixHiddenWeight":[[[-0.32082682847976685],[-0.39918917417526245]],[[-1.0088512897491455],[-0.6687263250350952]],[[-0.8559972643852234],[-0.38818445801734924]],[[-0.8105001449584961],[-1.2206093072891235]],[[-0.9485514163970947],[-1.380866527557373]],[[-1.0154871940612793],[-1.0411287546157837]],[[-0.013264629989862442],[-0.33482471108436584]],[[-0.2596812844276428],[0.5509433746337891]],[[0.23152463138103485],[0.08368890732526779]],[[-0.3543674647808075],[-0.47157949209213257]],[[0.12093641608953476],[0.3191499412059784]],[[0.11121460050344467],[0.37639981508255005]],[[-0.7184319496154785],[-0.7549086809158325]],[[-1.0794847011566162],[-1.4766813516616821]],[[-1.1568289995193481],[-0.7314021587371826]]],"Bias":0,"Activation":"sigmoid","hiddenLayers":2,"dense":false,"divMulI":2090,"divMulO":1},{"Inputs":[0.03537735715508461,0.07122641801834106,0.06132075563073158,0.09905660152435303,0.09386792778968811,0.09386792778968811,0.028773585334420204,0.028301887214183807,0.025471698492765427,0.07500000298023224,0.09858490526676178,0.09339622408151627,0.06745283305644989,0.10000000149011612,0.0886792466044426],"arrInputWeight":[[-0.44498854875564575],[-0.22245754301548004],[-0.676975667476654],[-0.5685837864875793],[-0.7923111319541931],[-1.2162314653396606],[0.3131125867366791],[0.3714504837989807],[-0.16332703828811646],[-0.7521148920059204],[-0.8251834511756897],[-0.8389033675193787],[-0.36385664343833923],[-1.2697001695632935],[-0.5426005125045776]],"matrixHiddenWeight":[[[-0.24165593087673187],[-0.34366902709007263]],[[-0.4798637330532074],[-0.9654347896575928]],[[-0.2136373221874237],[-0.001991964876651764]],[[-1.2556061744689941],[-0.97141432762146]],[[-0.9037801623344421],[-1.109916090965271]],[[-1.076796293258667],[-0.988450288772583]],[[-0.044639185070991516],[0.5400319695472717]],[[0.22201628983020782],[0.27578336000442505]],[[0.10680558532476425],[0.17527663707733154]],[[-0.3538096845149994],[-0.7117836475372314]],[[-1.0640610456466675],[-1.2198563814163208]],[[-1.09955632686615],[-0.7320799827575684]],[[0.022330619394779205],[-0.0851106345653534]],[[-1.1524055004119873],[-0.7337749600410461]],[[-0.5781009197235107],[-0.9878878593444824]]],"Bias":0,"Activation":"sigmoid","hiddenLayers":2,"dense":false,"divMulI":2120,"divMulO":1},{"Inputs":[0.035680752247571945,0.07089202105998993,0.061032865196466446,0.10000000149011612,0.09436620026826859,0.09483568370342255,0.030046949163079262,0.031455397605895996,0.028169013559818268,0.07511737197637558,0.09718310087919235,0.09248826652765274,0.050704225897789,0.09953051805496216,0.0845070406794548],"arrInputWeight":[[-0.03805258497595787],[-0.9015535712242126],[-0.8051927089691162],[-0.7783217430114746],[-1.0360589027404785],[-0.9890120625495911],[0.1584218293428421],[0.26423877477645874],[-0.3637605607509613],[-0.6092649102210999],[-1.011945366859436],[-1.0109750032424927],[0.07444246113300323],[-0.7962231040000916],[-0.4932020604610443]],"matrixHiddenWeight":[[[-0.5178385972976685],[0.0900854542851448]],[[-0.4267524480819702],[-0.94977867603302]],[[-0.5879085063934326],[-0.43582257628440857]],[[-1.1347553730010986],[-0.6026140451431274]],[[-0.7868025898933411],[-0.6438774466514587]],[[-1.1324121952056885],[-0.5508267879486084]],[[-0.10919611155986786],[-0.373335063457489]],[[0.2386450171470642],[-0.40509772300720215]],[[0.3793254792690277],[-0.12401597946882248]],[[-0.4224897623062134],[-0.6088346838951111]],[[-1.3149480819702148],[-1.426461100578308]],[[-0.5391247868537903],[-0.849923312664032]],[[-0.4926929175853729],[-0.5842678546905518]],[[-1.0064482688903809],[-1.3131487369537354]],[[-0.7280932068824768],[-1.0499440431594849]]],"Bias":0,"Activation":"sigmoid","hiddenLayers":2,"dense":false,"divMulI":2130,"divMulO":1},{"Inputs":[0.035680752247571945,0.07089202105998993,0.061032865196466446,0.10000000149011612,0.09436620026826859,0.09483568370342255,0.03239436447620392,0.03427230194211006,0.030985916033387184,0.07417840510606766,0.09812206774950027,0.0929577499628067,0.023474179208278656,0.043192487210035324,0.03192488104104996],"arrInputWeight":[[0.32272717356681824],[-0.3873349726200104],[-0.4940100610256195],[-1.166070818901062],[-1.4102098941802979],[-0.9405739903450012],[-0.46138060092926025],[0.04147512465715408],[-0.3982740044593811],[-0.6721047163009644],[-0.8564308881759644],[-0.5360843539237976],[-0.01896308921277523],[0.062444351613521576],[-0.05894291400909424]],"matrixHiddenWeight":[[[-0.3563362658023834],[-0.142264261841774]],[[-0.6463886499404907],[-1.137266755104065]],[[-0.8805460929870605],[-0.21912293136119843]],[[-1.2992719411849976],[-1.2847363948822021]],[[-0.7033665180206299],[-1.2509453296661377]],[[-1.4570684432983398],[-1.1594107151031494]],[[0.2683466672897339],[-0.3512757122516632]],[[0.3376323878765106],[-0.28059059381484985]],[[-0.056332871317863464],[0.18718233704566956]],[[-0.3509281277656555],[-0.712180495262146]],[[-1.027529239654541],[-1.405394434928894]],[[-0.6433403491973877],[-0.8531163334846497]],[[0.46015018224716187],[0.3000603914260864]],[[0.045532189309597015],[0.1313900649547577]],[[-0.4158102869987488],[0.16138945519924164]]],"Bias":0,"Activation":"sigmoid","hiddenLayers":2,"dense":false,"divMulI":2130,"divMulO":1},{"Inputs":[0.035211268812417984,0.07042253762483597,0.060563381761312485,0.10000000149011612,0.09436620026826859,0.09436620026826859,0.03192488104104996,0.035680752247571945,0.031455397605895996,0.07464788854122162,0.09859155118465424,0.09248826652765274,0.06197183206677437,0.09953051805496216,0.08826290816068649],"arrInputWeight":[[-0.11655233055353165],[-0.6932434439659119],[-0.44638389348983765],[-1.4647550582885742],[-0.6164754033088684],[-1.3425846099853516],[0.12041117995977402],[0.010639255866408348],[0.0675140991806984],[-0.7289284467697144],[-1.1018297672271729],[-1.027605414390564],[0.03835279494524002],[-0.6284962892532349],[-1.2926498651504517]],"matrixHiddenWeight":[[[-0.12616704404354095],[-0.06859949976205826]],[[-0.8522325754165649],[-0.609911322593689]],[[-0.2245413362979889],[-0.04312349483370781]],[[-1.3876006603240967],[-0.6100640892982483]],[[-0.43582388758659363],[-1.405798316001892]],[[-0.956525981426239],[-0.82686448097229]],[[0.34260937571525574],[-0.47002068161964417]],[[-0.45550277829170227],[-0.20782163739204407]],[[0.4050409495830536],[-0.12513865530490875]],[[-0.9979138374328613],[-0.420772522687912]],[[-0.852415919303894],[-1.2905356884002686]],[[-0.7044724225997925],[-0.5520901083946228]],[[0.006715010851621628],[-0.7271687388420105]],[[-1.4262824058532715],[-1.094974160194397]],[[-1.0400573015213013],[-0.8256961703300476]]],"Bias":0,"Activation":"sigmoid","hiddenLayers":2,"dense":false,"divMulI":2130,"divMulO":1},{"Inputs":[0.03537735715508461,0.07028301805257797,0.06037735939025879,0.10000000149011612,0.0948113203048706,0.0948113203048706,0.03490566089749336,0.03820754587650299,0.034433960914611816,0.07547169923782349,0.09952830523252487,0.09339622408151627,0.06792452931404114,0.10000000149011612,0.0886792466044426],"arrInputWeight":[[0.2581429183483124],[-0.26765623688697815],[-0.642590343952179],[-0.6742181181907654],[-0.9075101017951965],[-0.8608470559120178],[0.013892767950892448],[-0.24912555515766144],[0.17646411061286926],[-0.841315746307373],[-0.7198216319084167],[-1.1775280237197876],[-0.7501133680343628],[-1.075774073600769],[-1.1927398443222046]],"matrixHiddenWeight":[[[0.029381264001131058],[0.23898908495903015]],[[-0.7166982293128967],[-0.2037447690963745]],[[-0.4604703187942505],[-0.6959178447723389]],[[-0.798433780670166],[-1.0028692483901978]],[[-0.5951719880104065],[-1.3238509893417358]],[[-1.5143102407455444],[-0.7790688872337341]],[[-0.1698271483182907],[0.3990134596824646]],[[0.22918842732906342],[0.31516793370246887]],[[0.0665569007396698],[-0.4402933120727539]],[[-0.4887791574001312],[-0.370423287153244]],[[-0.8278598189353943],[-1.2529382705688477]],[[-1.2542747259140015],[-0.8436339497566223]],[[-0.22265812754631042],[-0.4685386121273041]],[[-0.7391830682754517],[-1.6073830127716064]],[[-1.2089520692825317],[-0.48849350214004517]]],"Bias":0,"Activation":"sigmoid","hiddenLayers":2,"dense":false,"divMulI":2120,"divMulO":1},{"Inputs":[0.02957746386528015,0.06948357075452805,0.05821596086025238,0.10000000149011612,0.09436620026826859,0.09436620026826859,0.06384976208209991,0.07183098793029785,0.06948357075452805,0.03427230194211006,0.03849765285849571,0.035211268812417984,0.07511737197637558,0.09812206774950027,0.09248826652765274],"arrInputWeight":[[0.29280105233192444],[-0.48675236105918884],[-0.4404098689556122],[-0.7119894623756409],[-0.624843180179596],[-1.0067791938781738],[-0.15683357417583466],[-0.4955615997314453],[-0.5123467445373535],[-0.2835530638694763],[-0.28317466378211975],[-0.38179293274879456],[-0.6926191449165344],[-1.5140514373779297],[-0.5240309834480286]],"matrixHiddenWeight":[[[-0.4501970112323761],[-0.18111541867256165]],[[-0.9304397106170654],[-0.21308161318302155]],[[-0.800036609172821],[-0.07852163165807724]],[[-0.7704792618751526],[-1.1358411312103271]],[[-0.929175078868866],[-0.7940496802330017]],[[-1.1934350728988647],[-1.1529256105422974]],[[-0.5316672325134277],[-0.49571073055267334]],[[-0.25114965438842773],[-0.43648993968963623]],[[-0.3803839683532715],[-0.4689023196697235]],[[0.07369677722454071],[0.2735261023044586]],[[-0.2263292819261551],[0.126823291182518]],[[-0.094999298453331],[0.11400631815195084]],[[-0.5087120532989502],[-1.0228534936904907]],[[-1.1891648769378662],[-1.3946624994277954]],[[-1.1606444120407104],[-1.4072717428207397]]],"Bias":0,"Activation":"sigmoid","hiddenLayers":2,"dense":false,"divMulI":2130,"divMulO":1},{"Inputs":[0.02957746386528015,0.06948357075452805,0.05821596086025238,0.10000000149011612,0.09436620026826859,0.09436620026826859,0.06431924551725388,0.07136150449514389,0.06901408731937408,0.03427230194211006,0.03849765285849571,0.035211268812417984,0.07511737197637558,0.09812206774950027,0.0929577499628067],"arrInputWeight":[[-0.1964002251625061],[-0.7930375337600708],[-0.0691019743680954],[-1.35201096534729],[-0.8960477113723755],[-1.5270280838012695],[-0.0581689327955246],[-0.30213409662246704],[-0.37751954793930054],[-0.37619778513908386],[-0.3995797336101532],[-0.14532235264778137],[-0.6162262558937073],[-0.8251909017562866],[-1.06818687915802]],"matrixHiddenWeight":[[[0.1988106220960617],[-0.2511293292045593]],[[-0.40962812304496765],[-0.2903554439544678]],[[-0.3958582878112793],[0.020234916359186172]],[[-1.0522003173828125],[-1.4815202951431274]],[[-1.3886696100234985],[-1.2194061279296875]],[[-0.5957181453704834],[-1.3685439825057983]],[[-0.8263014554977417],[-0.2761029601097107]],[[-0.782669723033905],[-0.9563204646110535]],[[-0.1938164085149765],[-0.6384784579277039]],[[0.3953215777873993],[-0.4087638556957245]],[[0.11471988260746002],[-0.5085636377334595]],[[0.1565096378326416],[0.3282514810562134]],[[-0.6120733022689819],[-0.5097683668136597]],[[-0.8139840960502625],[-0.6985393762588501]],[[-0.6065027117729187],[-1.5122120380401611]]],"Bias":0,"Activation":"sigmoid","hiddenLayers":2,"dense":false,"divMulI":2130,"divMulO":1},{"Inputs":[0.027699530124664307,0.06948357075452805,0.05774647742509842,0.10000000149011612,0.09436620026826859,0.09436620026826859,0.061032865196466446,0.06948357075452805,0.06666667014360428,0.0338028185069561,0.03708920255303383,0.0338028185069561,0.07558685541152954,0.09859155118465424,0.09248826652765274],"arrInputWeight":[[-0.1660045087337494],[-0.5486450791358948],[-0.5468044281005859],[-1.0161842107772827],[-0.8917396664619446],[-1.1633715629577637],[-0.8566645383834839],[-0.8657217621803284],[-0.46037617325782776],[-0.4477868974208832],[0.12927038967609406],[0.4396089017391205],[-1.1986703872680664],[-0.8825427293777466],[-1.318053960800171]],"matrixHiddenWeight":[[[0.254059374332428],[-0.4204598665237427]],[[-1.0918089151382446],[-1.0622663497924805]],[[-0.7898920774459839],[-0.5012520551681519]],[[-0.6979652047157288],[-0.7255280017852783]],[[-1.124354362487793],[-0.9230701923370361]],[[-0.7060692310333252],[-1.3283462524414062]],[[-0.7025519609451294],[-0.05787942185997963]],[[-0.7626144289970398],[-0.2954489290714264]],[[-0.603352427482605],[-0.18815600872039795]],[[0.18702761828899384],[0.4351360499858856]],[[-0.03834391385316849],[0.013631755486130714]],[[-0.08911547064781189],[-0.0020643454045057297]],[[-0.24225857853889465],[-0.3931732475757599]],[[-1.375862956047058],[-1.5967023372650146]],[[-1.0139172077178955],[-0.7118960618972778]]],"Bias":0,"Activation":"sigmoid","hiddenLayers":2,"dense":false,"divMulI":2130,"divMulO":1},{"Inputs":[0.02783018909394741,0.06839622557163239,0.056603774428367615,0.09811320900917053,0.09386792778968811,0.09386792778968811,0.06084905564785004,0.06886792182922363,0.0665094330906868,0.07169811427593231,0.09905660152435303,0.09292452782392502,0.06603773683309555,0.10000000149011612,0.0886792466044426],"arrInputWeight":[[-0.13958396017551422],[-0.4221205413341522],[-0.45269450545310974],[-1.0037752389907837],[-0.9646260142326355],[-0.6706504821777344],[-0.7349964380264282],[-0.4891945421695709],[-0.5120441317558289],[-0.3966965675354004],[-1.0910207033157349],[-0.7962714433670044],[-0.5750994086265564],[-0.7686759233474731],[-0.8215557336807251]],"matrixHiddenWeight":[[[0.34179240465164185],[-0.35369259119033813]],[[-0.13812881708145142],[-0.5859292149543762]],[[-0.1151980385184288],[0.03642568737268448]],[[-1.2755446434020996],[-0.5947078466415405]],[[-1.1845585107803345],[-1.1940850019454956]],[[-0.6383108496665955],[-1.1090061664581299]],[[-0.37829819321632385],[-0.006095658987760544]],[[-0.6650722622871399],[-0.49282994866371155]],[[-0.689289391040802],[-0.7105336785316467]],[[-0.1614520102739334],[-0.4851176142692566]],[[-0.859857976436615],[-1.1498216390609741]],[[-1.0656564235687256],[-0.598564088344574]],[[-0.028531908988952637],[-0.5586297512054443]],[[-1.5172722339630127],[-1.4497895240783691]],[[-0.41335269808769226],[-0.5678178071975708]]],"Bias":0,"Activation":"sigmoid","hiddenLayers":2,"dense":false,"divMulI":2120,"divMulO":1},{"Inputs":[0.025471698492765427,0.07075471431016922,0.058018866926431656,0.09811320900917053,0.09386792778968811,0.09386792778968811,0.058018866926431656,0.06698112934827805,0.06415094435214996,0.03490566089749336,0.03867924585938454,0.036320753395557404,0.07075471431016922,0.10000000149011612,0.09292452782392502],"arrInputWeight":[[-0.3377991318702698],[-0.8422206044197083],[-0.3262362778186798],[-0.7412463426589966],[-0.659719705581665],[-0.7433099746704102],[-0.1714855432510376],[-0.6388489603996277],[-0.855728805065155],[-0.0638708621263504],[-0.40473777055740356],[0.01077389344573021],[-0.4497866630554199],[-1.3419320583343506],[-1.592229962348938]],"matrixHiddenWeight":[[[-0.056521691381931305],[0.11877451837062836]],[[-0.47786229848861694],[-0.4782945513725281]],[[-0.4621897041797638],[-0.1715589165687561]],[[-0.7896775007247925],[-1.1745374202728271]],[[-1.126833438873291],[-0.7517234086990356]],[[-1.101353645324707],[-0.8877348899841309]],[[-0.23313862085342407],[-0.3495226800441742]],[[-0.7608655095100403],[-1.067775011062622]],[[-0.2681664824485779],[-0.4801784157752991]],[[-0.011993387714028358],[-0.1240890696644783]],[[0.1265447735786438],[-0.3408559262752533]],[[-0.3842976689338684],[-0.2433762401342392]],[[-0.35926079750061035],[-0.4616740345954895]],[[-1.3912875652313232],[-1.5306549072265625]],[[-0.8167884349822998],[-0.7287514805793762]]],"Bias":0,"Activation":"sigmoid","hiddenLayers":2,"dense":false,"divMulI":2120,"divMulO":1},{"Inputs":[0.032093022018671036,0.06837209314107895,0.058139536529779434,0.09674418717622757,0.09255813807249069,0.09255813807249069,0.031162790954113007,0.03395348787307739,0.032093022018671036,0.07069767266511917,0.10000000149011612,0.09255813807249069,0.06604651361703873,0.09860464930534363,0.08744186162948608],"arrInputWeight":[[-0.4565638601779938],[-0.9205078482627869],[-0.10816739499568939],[-1.1483707427978516],[-1.1518659591674805],[-1.1159303188323975],[-0.024474142119288445],[0.0872117131948471],[0.014338003471493721],[-0.7907636165618896],[-1.240451693534851],[-0.595819354057312],[-1.0042659044265747],[-1.3934212923049927],[-0.3494495153427124]],"matrixHiddenWeight":[[[0.473943829536438],[-0.2886209487915039]],[[-0.14082258939743042],[-0.7038953304290771]],[[-0.2600743770599365],[0.012625236064195633]],[[-0.557835042476654],[-0.9490110278129578]],[[-1.2694621086120605],[-1.2014803886413574]],[[-0.8774616122245789],[-0.44080835580825806]],[[-0.2648990750312805],[0.18171846866607666]],[[-0.363958477973938],[-0.451297402381897]],[[-0.20172524452209473],[-0.10720479488372803]],[[-0.6099758148193359],[-0.19626441597938538]],[[-1.2592051029205322],[-1.1515021324157715]],[[-0.49509328603744507],[-0.6884313821792603]],[[-0.1209423840045929],[-0.7494543194770813]],[[-1.0355805158615112],[-0.5982072353363037]],[[-0.48532289266586304],[-1.047061562538147]]],"Bias":0,"Activation":"sigmoid","hiddenLayers":2,"dense":false,"divMulI":2150,"divMulO":1},{"Inputs":[0.03254716843366623,0.06886792182922363,0.0584905669093132,0.09811320900917053,0.09433962404727936,0.09386792778968811,0.0292452834546566,0.031603772193193436,0.0292452834546566,0.07122641801834106,0.10000000149011612,0.09339622408151627,0.07169811427593231,0.10000000149011612,0.0886792466044426],"arrInputWeight":[[-0.4194868803024292],[-0.9273234605789185],[-0.17289818823337555],[-1.075469732284546],[-1.1300498247146606],[-1.29401695728302],[-0.3538706302642822],[-0.18198895454406738],[-0.092788465321064],[-0.48389554023742676],[-0.48084256052970886],[-0.3553153872489929],[-0.9551257491111755],[-1.3182517290115356],[-0.8659911751747131]],"matrixHiddenWeight":[[[0.19920267164707184],[0.21271629631519318]],[[-0.8803602457046509],[-0.5631577372550964]],[[-0.05600234493613243],[-0.4567995071411133]],[[-1.3575851917266846],[-0.6857560873031616]],[[-0.936138927936554],[-0.7892123460769653]],[[-0.8934548497200012],[-1.2547794580459595]],[[-0.019506318494677544],[0.4169408082962036]],[[-0.020604047924280167],[-0.07583438605070114]],[[0.376926064491272],[0.1483556479215622]],[[-0.9687858819961548],[-0.542813777923584]],[[-0.8469420075416565],[-0.7264578342437744]],[[-1.1583541631698608],[-1.1720983982086182]],[[-0.34639841318130493],[-0.1450677067041397]],[[-0.9301421642303467],[-0.8168966770172119]],[[-0.7368873953819275],[-0.40167227387428284]]],"Bias":0,"Activation":"sigmoid","hiddenLayers":2,"dense":false,"divMulI":2120,"divMulO":1},{"Inputs":[0.031506847590208054,0.06757991015911102,0.05707762390375137,0.0954337865114212,0.09132420271635056,0.09086757898330688,0.030136985704302788,0.032420091331005096,0.030136985704302788,0.06484018266201019,0.10000000149011612,0.09041095525026321,0.055251140147447586,0.09771689772605896,0.08493150770664215],"arrInputWeight":[[0.007809203118085861],[-1.021208643913269],[-0.7581454515457153],[-1.318413257598877],[-0.5660693645477295],[-0.6947757005691528],[0.41737285256385803],[-0.38993072509765625],[-0.2523556351661682],[-0.22005337476730347],[-1.1072403192520142],[-1.2603904008865356],[-0.5082491636276245],[-1.364017367362976],[-1.0452862977981567]],"matrixHiddenWeight":[[[-0.29207634925842285],[-0.1363355815410614]],[[-1.0232222080230713],[-0.6337924599647522]],[[-0.4935184121131897],[-0.06095568463206291]],[[-0.7686867713928223],[-1.3382455110549927]],[[-0.5079141855239868],[-1.4498755931854248]],[[-1.2110029458999634],[-0.8650264739990234]],[[-0.48711302876472473],[0.20838499069213867]],[[-0.255173921585083],[0.21565109491348267]],[[0.3563973307609558],[-0.03228233382105827]],[[-0.6887173056602478],[-0.8302062153816223]],[[-0.8502539992332458],[-0.8474380373954773]],[[-0.5018376708030701],[-1.0487924814224243]],[[-0.40750882029533386],[-0.7770618200302124]],[[-0.6865089535713196],[-1.167303442955017]],[[-1.1349750757217407],[-0.5156344175338745]]],"Bias":0,"Activation":"sigmoid","hiddenLayers":2,"dense":false,"divMulI":2190,"divMulO":1},{"Inputs":[0.03207547217607498,0.07075471431016922,0.059433963149785995,0.09858490526676178,0.09433962404727936,0.09386792778968811,0.03254716843366623,0.035849057137966156,0.03349056467413902,0.06933962553739548,0.09622641652822495,0.08679245412349701,0.06981132179498672,0.10000000149011612,0.09292452782392502],"arrInputWeight":[[0.048512425273656845],[-0.5730209946632385],[-0.4446665346622467],[-1.1859478950500488],[-0.8120295405387878],[-1.2442100048065186],[0.12461221218109131],[-0.016377050429582596],[-0.2007802128791809],[-0.191334068775177],[-0.558968722820282],[-0.6118597388267517],[-0.7123003602027893],[-1.166832447052002],[-0.9752036929130554]],"matrixHiddenWeight":[[[0.19912967085838318],[-0.31832408905029297]],[[-0.7822727560997009],[-0.1502748429775238]],[[-0.18252554535865784],[-0.7242363095283508]],[[-0.6158664226531982],[-1.3521084785461426]],[[-1.350256323814392],[-1.0408726930618286]],[[-0.9728978276252747],[-0.5539008378982544]],[[-0.09997673332691193],[0.050989966839551926]],[[-0.253600150346756],[0.22957000136375427]],[[0.2489929497241974],[-0.15914061665534973]],[[-0.5820047855377197],[-0.45517781376838684]],[[-0.5505679845809937],[-1.1201289892196655]],[[-0.46883973479270935],[-1.2110623121261597]],[[-0.5464634895324707],[-0.9649773836135864]],[[-1.1103003025054932],[-0.9730351567268372]],[[-1.1860356330871582],[-1.064354419708252]]],"Bias":0,"Activation":"sigmoid","hiddenLayers":2,"dense":false,"divMulI":2120,"divMulO":1},{"Inputs":[0.03207547217607498,0.07028301805257797,0.05896226316690445,0.09858490526676178,0.09433962404727936,0.09386792778968811,0.030188679695129395,0.03254716843366623,0.029716981574892998,0.07264150679111481,0.09858490526676178,0.09292452782392502,0.06603773683309555,0.10000000149011612,0.0886792466044426],"arrInputWeight":[[0.4274350702762604],[-0.9226817488670349],[-0.24418164789676666],[-0.8848452568054199],[-1.2961946725845337],[-1.088017463684082],[-0.402639240026474],[-0.21763178706169128],[-0.36510297656059265],[-0.8068758845329285],[-0.5561859607696533],[-0.7925963997840881],[-0.6993861794471741],[-1.1694046258926392],[-1.059342384338379]],"matrixHiddenWeight":[[[-0.1326940953731537],[-0.03528999537229538]],[[-0.8425610065460205],[-0.8701150417327881]],[[-0.13635411858558655],[-0.6770675182342529]],[[-0.8039921522140503],[-1.3956902027130127]],[[-0.9256944060325623],[-1.066873550415039]],[[-0.48830220103263855],[-1.2653121948242188]],[[-0.06872466951608658],[-0.14332698285579681]],[[-0.027178049087524414],[-0.36984947323799133]],[[0.5589413046836853],[0.46953731775283813]],[[-0.2411627173423767],[-0.7401073575019836]],[[-1.3627440929412842],[-0.5024069547653198]],[[-0.6176982522010803],[-0.9955683946609497]],[[-0.78946453332901],[-0.5870290994644165]],[[-0.7765858769416809],[-1.2667332887649536]],[[-1.2691926956176758],[-0.8119822144508362]]],"Bias":0,"Activation":"sigmoid","hiddenLayers":2,"dense":false,"divMulI":2120,"divMulO":1},{"Inputs":[0.032380953431129456,0.07095237821340561,0.0595238097012043,0.10000000149011612,0.09571428596973419,0.095238097012043,0.030476190149784088,0.03285714238882065,0.029999999329447746,0.017142856493592262,0.04380952566862106,0.032380953431129456,0.07380952686071396,0.09952381253242493,0.09380952268838882],"arrInputWeight":[[0.48871293663978577],[-0.8717278242111206],[-0.7909613847732544],[-1.336560845375061],[-1.199996829032898],[-0.38752150535583496],[-0.1291695237159729],[-0.39228859543800354],[-0.3433982729911804],[0.6371261477470398],[0.020973678678274155],[-0.14614687860012054],[-0.9263840913772583],[-1.2361876964569092],[-1.016579031944275]],"matrixHiddenWeight":[[[-0.1674836277961731],[-0.06291502714157104]],[[-0.8335762023925781],[-0.14380411803722382]],[[-0.7247747182846069],[-0.29713165760040283]],[[-1.228182077407837],[-0.49408575892448425]],[[-0.969016432762146],[-1.2225618362426758]],[[-0.9161484241485596],[-1.1314184665679932]],[[-0.28331810235977173],[0.3051227927207947]],[[-0.11906029284000397],[0.08975768089294434]],[[-0.37980490922927856],[-0.08125360310077667]],[[0.3202815353870392],[0.008990515023469925]],[[0.27644550800323486],[0.15029044449329376]],[[0.4834654629230499],[0.39984196424484253]],[[-0.552474856376648],[-0.9647986888885498]],[[-1.3156652450561523],[-0.9725709557533264]],[[-0.6975106000900269],[-1.2575585842132568]]],"Bias":0,"Activation":"sigmoid","hiddenLayers":2,"dense":false,"divMulI":2100,"divMulO":1},{"Inputs":[0.03207547217607498,0.06981132179498672,0.05896226316690445,0.09952830523252487,0.09528301656246185,0.09433962404727936,0.029716981574892998,0.03254716843366623,0.029716981574892998,0.07216981053352356,0.09905660152435303,0.09292452782392502,0.05471698194742203,0.10000000149011612,0.08679245412349701],"arrInputWeight":[[-0.25081631541252136],[-0.4999045431613922],[-0.6704050302505493],[-0.8144438862800598],[-1.4049382209777832],[-1.303209662437439],[0.2522675096988678],[-0.15530997514724731],[0.08292161673307419],[-0.3044194281101227],[-1.452797532081604],[-0.8280328512191772],[-0.12306433916091919],[-1.2836304903030396],[-0.9138461351394653]],"matrixHiddenWeight":[[[0.3318374752998352],[-0.2562849819660187]],[[-0.4422059953212738],[-0.8348110318183899]],[[-0.5873446464538574],[0.000631231814622879]],[[-1.3710203170776367],[-1.182451605796814]],[[-1.198036551475525],[-0.830211341381073]],[[-0.5460468530654907],[-1.3749842643737793]],[[0.02172393724322319],[-0.25602734088897705]],[[-0.32785624265670776],[-0.04303382337093353]],[[0.031302373856306076],[-0.0846034362912178]],[[-0.31266412138938904],[-0.6486484408378601]],[[-0.7260538935661316],[-1.3372471332550049]],[[-1.1265358924865723],[-0.41409409046173096]],[[-0.256877601146698],[0.04838882386684418]],[[-0.6898173093795776],[-0.8606897592544556]],[[-0.3720400929450989],[-0.6135734915733337]]],"Bias":0,"Activation":"sigmoid","hiddenLayers":2,"dense":false,"divMulI":2120,"divMulO":1},{"Inputs":[0.03207547217607498,0.06981132179498672,0.0584905669093132,0.10000000149011612,0.0957547202706337,0.09528301656246185,0.0292452834546566,0.03254716843366623,0.029716981574892998,0.07216981053352356,0.09905660152435303,0.09245283156633377,0.06367924809455872,0.10000000149011612,0.0886792466044426],"arrInputWeight":[[-0.24467584490776062],[-0.36304476857185364],[-0.27507078647613525],[-1.1367900371551514],[-1.3152493238449097],[-0.9433707594871521],[0.18205206096172333],[-0.23524051904678345],[0.04868233948945999],[-0.2614743113517761],[-1.1162351369857788],[-1.1784980297088623],[-0.10274390131235123],[-1.0294564962387085],[-0.8398633003234863]],"matrixHiddenWeight":[[[-0.22123509645462036],[0.24033349752426147]],[[-0.1763661801815033],[-0.40209445357322693]],[[-0.6617707014083862],[-0.33244675397872925]],[[-1.327138066291809],[-0.9360489845275879]],[[-0.9831793904304504],[-0.7075844407081604]],[[-0.5109471082687378],[-1.2535805702209473]],[[-0.20165739953517914],[-0.0377410389482975]],[[0.260762482881546],[-0.33986836671829224]],[[0.16869892179965973],[0.5238538384437561]],[[-0.7535446882247925],[-0.6408592462539673]],[[-0.8268852233886719],[-0.3991190791130066]],[[-0.783694863319397],[-1.1772598028182983]],[[-0.6252682209014893],[0.008712932467460632]],[[-0.63285231590271],[-1.0746476650238037]],[[-1.0458627939224243],[-1.1326192617416382]]],"Bias":0,"Activation":"sigmoid","hiddenLayers":2,"dense":false,"divMulI":2120,"divMulO":1},{"Inputs":[0.03207547217607498,0.06933962553739548,0.05896226316690445,0.10000000149011612,0.09528301656246185,0.09528301656246185,0.0292452834546566,0.03254716843366623,0.0292452834546566,0.07264150679111481,0.09905660152435303,0.09292452782392502,0.0584905669093132,0.10000000149011612,0.08726415038108826],"arrInputWeight":[[0.2589266300201416],[-0.0630696564912796],[-0.13744224607944489],[-0.7648385763168335],[-0.4700857102870941],[-1.2256402969360352],[0.3351120054721832],[0.14356876909732819],[0.581301748752594],[-0.6001439094543457],[-1.140368938446045],[-0.8913190364837646],[-0.05945524200797081],[-1.079601764678955],[-0.3901152014732361]],"matrixHiddenWeight":[[[0.23856474459171295],[0.3260718584060669]],[[-0.04780477657914162],[-0.7392059564590454]],[[-0.6632081270217896],[-0.7478556632995605]],[[-1.3145042657852173],[-0.9058507084846497]],[[-0.8624202013015747],[-1.103074550628662]],[[-0.7584111094474792],[-0.7408359050750732]],[[0.35287269949913025],[-0.277646541595459]],[[0.4145701229572296],[0.5036271810531616]],[[-0.27611881494522095],[0.22087453305721283]],[[-0.2941986620426178],[-0.30541539192199707]],[[-1.1207839250564575],[-1.0467164516448975]],[[-0.5630900859832764],[-0.3652005195617676]],[[-0.5197591185569763],[-0.6935989856719971]],[[-1.290926456451416],[-1.3783578872680664]],[[-1.1463228464126587],[-0.27316707372665405]]],"Bias":0,"Activation":"sigmoid","hiddenLayers":2,"dense":false,"divMulI":2120,"divMulO":1},{"Inputs":[0.03207547217607498,0.06933962553739548,0.0584905669093132,0.10000000149011612,0.0957547202706337,0.09528301656246185,0.028773585334420204,0.03254716843366623,0.0292452834546566,0.07216981053352356,0.09858490526676178,0.09245283156633377,0.062264151871204376,0.10000000149011612,0.08679245412349701],"arrInputWeight":[[0.2603917419910431],[-0.8195586204528809],[-0.4053053557872772],[-0.9361417889595032],[-1.2284433841705322],[-1.1416698694229126],[-0.3706717789173126],[-0.25170016288757324],[-0.19283635914325714],[-0.6934095025062561],[-0.8153674006462097],[-0.8985991477966309],[-0.18856386840343475],[-1.4181843996047974],[-0.8354649543762207]],"matrixHiddenWeight":[[[-0.0740218460559845],[-0.45936623215675354]],[[-0.6068539619445801],[-0.6837409734725952]],[[0.02210152894258499],[-0.620525062084198]],[[-1.469810128211975],[-1.062325358390808]],[[-0.44294774532318115],[-1.3293691873550415]],[[-1.428512454032898],[-0.7079747319221497]],[[0.00021729059517383575],[0.41425153613090515]],[[0.46460023522377014],[0.05083465203642845]],[[0.018782708793878555],[0.01624346151947975]],[[-0.9968834519386292],[-0.43642571568489075]],[[-0.6957287788391113],[-0.5487557053565979]],[[-0.9980798959732056],[-1.340394139289856]],[[-0.9238642454147339],[-0.6246340274810791]],[[-0.5096423625946045],[-0.5498685836791992]],[[-0.785651683807373],[-1.2192121744155884]]],"Bias":0,"Activation":"sigmoid","hiddenLayers":2,"dense":false,"divMulI":2120,"divMulO":1},{"Inputs":[0.006358381360769272,0.045086704194545746,0.0242774561047554,0.10000000149011612,0.0971098244190216,0.09595375508069992,0.05144508555531502,0.046820808202028275,0.04219653084874153,0.06184970960021019,0.058959536254405975,0.05549132823944092,