[{"Inputs":[0.09200000017881393,0.07639999687671661,0.06120000034570694,0.03920000046491623,0.024000000208616257,0.01679999940097332,0.05920000001788139,0.041600000113248825,0.025200000032782555,0.047200001776218414,0.041200000792741776,0.03359999880194664,0.10000000149011612,0.09719999879598618,0.09560000151395798],"arrInputWeight":[[-0.8931883573532104],[-0.670921802520752],[-0.7289302945137024],[-0.40221521258354187],[-0.26080653071403503],[0.22392959892749786],[-0.9229335784912109],[0.013734608888626099],[-0.10196539759635925],[-0.6206031441688538],[-0.19450649619102478],[-0.48103904724121094],[-0.7498599290847778],[-1.4064087867736816],[-1.2526966333389282]],"matrixHiddenWeight":[[[-1.2903492450714111],[-1.0491766929626465]],[[-0.5936512351036072],[-1.0771056413650513]],[[-0.6057843565940857],[-0.13255243003368378]],[[0.19571323692798615],[-0.4689147472381592]],[[0.08097432553768158],[-0.2869422435760498]],[[-0.17763251066207886],[0.5955467224121094]],[[-0.7618736028671265],[-0.6719282865524292]],[[-0.35292401909828186],[0.2387339025735855]],[[0.08031520247459412],[-0.232008159160614]],[[-0.623299241065979],[-0.6336172223091125]],[[-0.14742061495780945],[-0.6350196599960327]],[[-0.07826027274131775],[-0.25767800211906433]],[[-1.486349105834961],[-1.1361851692199707]],[[-0.9910815358161926],[-1.4212437868118286]],[[-0.9412817358970642],[-0.8098369240760803]]],"Bias":0,"Activation":"sigmoid","hiddenLayers":2,"dense":false,"divMulI":2500,"divMulO":1},{"Inputs":[0.10000000149011612,0.10000000149011612,0.10000000149011612,0.03852459043264389,0.03852459043264389,0.03852459043264389,0.0659836083650589,0.0659836083650589,0.0659836083650589,0.050819672644138336,0.050819672644138336,0.050819672644138336,0.05409836024045944,0.05409836024045944,0.05409836024045944],"arrInputWeight":[[-1.1872931718826294],[-1.3474206924438477],[-1.4427096843719482],[-0.20898781716823578],[0.11857611685991287],[0.2088763266801834],[-0.6565380692481995],[-1.0837364196777344],[-0.8069964051246643],[0.039383381605148315],[-0.6148250699043274],[-0.6070131063461304],[0.030932556837797165],[-0.09678247570991516],[-0.49892640113830566]],"matrixHiddenWeight":[[[-0.7841275930404663],[-1.5869011878967285]],[[-1.2949554920196533],[-0.8049551248550415]],[[-1.3428494930267334],[-1.365908145904541]],[[-0.4400203824043274],[0.26475802063941956]],[[-0.11990562826395035],[-0.4719664752483368]],[[-0.25738629698753357],[-0.1815742701292038]],[[-0.4528172016143799],[-0.8118745684623718]],[[-0.4060806632041931],[-0.5732880234718323]],[[-0.7607981562614441],[-0.8717662692070007]],[[0.07805833220481873],[-0.15220075845718384]],[[-0.7310097813606262],[-0.050447508692741394]],[[-0.232450932264328],[-0.5237017869949341]],[[-0.577129065990448],[-0.4603031277656555]],[[-0.860350489616394],[-0.8839321732521057]],[[-0.5036348104476929],[-0.5133094191551208]]],"Bias":0,"Activation":"sigmoid","hiddenLayers":2,"dense":false,"divMulI":2440,"divMulO":1},{"Inputs":[0.10000000149011612,0.10000000149011612,0.10000000149011612,0.024899598211050034,0.024899598211050034,0.024899598211050034,0.06425702571868896,0.06425702571868896,0.06425702571868896,0.04979919642210007,0.04979919642210007,0.04979919642210007,0.053012046962976456,0.053012046962976456,0.053012046962976456],"arrInputWeight":[[-1.085155725479126],[-0.9182743430137634],[-1.4314500093460083],[0.13492241501808167],[0.461023211479187],[0.15981078147888184],[-0.8676906228065491],[-0.30311232805252075],[-0.9780372977256775],[-0.61008220911026],[-0.30128753185272217],[-0.7010665535926819],[-0.06770973652601242],[0.06690867990255356],[-0.3484382927417755]],"matrixHiddenWeight":[[[-0.8358467221260071],[-1.4826358556747437]],[[-1.073946475982666],[-0.9167026877403259]],[[-1.2967815399169922],[-1.5621970891952515]],[[0.22794649004936218],[-0.08978390693664551]],[[-0.19653552770614624],[0.18691959977149963]],[[-0.3818349838256836],[0.4113166332244873]],[[-0.8561287522315979],[-0.8230940103530884]],[[-0.49889349937438965],[-0.4674367904663086]],[[-0.5921820998191833],[-0.859917163848877]],[[-0.5770286321640015],[-0.7557620406150818]],[[-0.03951377049088478],[-0.2913159430027008]],[[-0.45735251903533936],[0.115184485912323]],[[-0.24055761098861694],[-0.06056230515241623]],[[-0.641201913356781],[0.03358551114797592]],[[-0.346767783164978],[0.03419586271047592]]],"Bias":0,"Activation":"sigmoid","hiddenLayers":2,"dense":false,"divMulI":2490,"divMulO":1},{"Inputs":[0.06606335192918777,0.07239819318056107,0.0615384615957737,0.0194570142775774,0.025339366868138313,0.022171946242451668,0.10000000149011612,0.09592760354280472,0.09140271693468094,0.038009051233530045,0.03212669864296913,0.02805429883301258,0.052941177040338516,0.04117647185921669,0.029411764815449715],"arrInputWeight":[[-0.957722008228302],[-0.6192417144775391],[-0.7380362153053284],[-0.2147265076637268],[0.16519731283187866],[0.3775523900985718],[-0.7456152439117432],[-1.334770679473877],[-1.29667329788208],[-0.1672084629535675],[0.027291199192404747],[-0.22556546330451965],[-0.43401509523391724],[-0.22204691171646118],[0.48917099833488464]],"matrixHiddenWeight":[[[-0.7794901728630066],[-1.0157065391540527]],[[-0.9498416185379028],[-0.5563115477561951]],[[-0.2569233775138855],[-0.1821284294128418]],[[0.4474150240421295],[0.1282936930656433]],[[0.14217573404312134],[-0.1660442352294922]],[[-0.1330224573612213],[0.21263356506824493]],[[-1.691535234451294],[-0.7701319456100464]],[[-1.1693092584609985],[-1.2225818634033203]],[[-1.5471808910369873],[-1.0523111820220947]],[[-0.14937815070152283],[-0.03307615965604782]],[[0.37004056572914124],[-0.3269793689250946]],[[-0.11205072700977325],[0.4741610884666443]],[[-0.35939711332321167],[-0.048135627061128616]],[[0.11202222108840942],[-0.49806445837020874]],[[0.26645806431770325],[0.2926892340183258]]],"Bias":0,"Activation":"sigmoid","hiddenLayers":2,"dense":false,"divMulI":2210,"divMulO":1},{"Inputs":[0.06623931974172592,0.08504273742437363,0.05683760717511177,0.009829060174524784,0.04743589833378792,0.014102564193308353,0.041025642305612564,0.032478634268045425,0.012820512987673283,0.09572649747133255,0.10000000149011612,0.08290598541498184,0.041025642305612564,0.05683760717511177,0.021367521956562996],"arrInputWeight":[[-0.8090376853942871],[-0.908953845500946],[-0.6238929629325867],[0.10152054578065872],[-0.6279192566871643],[-0.08711840957403183],[0.040636979043483734],[0.25192680954933167],[0.25430387258529663],[-1.1130847930908203],[-1.0381897687911987],[-1.1366597414016724],[0.1928926706314087],[-0.4110108017921448],[0.0925467237830162]],"matrixHiddenWeight":[[[-0.6328997015953064],[-0.42522934079170227]],[[-1.4905469417572021],[-0.9784488677978516]],[[-0.45519179105758667],[-0.7128807902336121]],[[0.2546624541282654],[0.05724375694990158]],[[-0.04170181229710579],[-0.7113028168678284]],[[0.25402212142944336],[-0.00249358918517828]],[[-0.09551822394132614],[0.04964297264814377]],[[0.08634553849697113],[-0.3210444450378418]],[[0.3913465440273285],[-0.03852659836411476]],[[-1.3621279001235962],[-1.0339244604110718]],[[-0.9099013805389404],[-1.6937185525894165]],[[-1.235933780670166],[-1.0489972829818726]],[[-0.5358774065971375],[-0.6523699164390564]],[[-0.21324554085731506],[-0.47562074661254883]],[[0.021881774067878723],[0.4884735643863678]]],"Bias":0,"Activation":"sigmoid","hiddenLayers":2,"dense":false,"divMulI":2340,"divMulO":1},{"Inputs":[0.016019416972994804,0.021844660863280296,0.028155339881777763,0.10000000149011612,0.0966019406914711,0.08203883469104767,0.061650484800338745,0.03689320385456085,0.03349514678120613,0.052912622690200806,0.05922330170869827,0.05436893180012703,0.07087378948926926,0.05145630985498428,0.0359223298728466],"arrInputWeight":[[0.4204773008823395],[0.11370754987001419],[0.46387678384780884],[-1.580230951309204],[-1.398305892944336],[-0.4707450568675995],[-0.6783140301704407],[-0.37204715609550476],[0.1269153654575348],[-0.05780719220638275],[-0.30444613099098206],[-0.7980426549911499],[-0.798080325126648],[0.04686758294701576],[0.10843296349048615]],"matrixHiddenWeight":[[[-0.12471204251050949],[-0.1660919040441513]],[[0.4701194763183594],[-0.1648859679698944]],[[0.22594517469406128],[-0.21311640739440918]],[[-0.9645835757255554],[-1.4290671348571777]],[[-1.3270232677459717],[-1.4316520690917969]],[[-0.6335763931274414],[-1.1708035469055176]],[[-0.6014337539672852],[-0.26454341411590576]],[[-0.2604575455188751],[0.2741057872772217]],[[0.3188348412513733],[-0.044846296310424805]],[[-0.7848311066627502],[-0.4678742289543152]],[[-0.7464219331741333],[-0.7633259892463684]],[[0.011653512716293335],[-0.8430951833724976]],[[-0.6381417512893677],[-0.5458990931510925]],[[0.009652651846408844],[-0.6026154160499573]],[[-0.3937791585922241],[-0.03323750197887421]]],"Bias":0,"Activation":"sigmoid","hiddenLayers":2,"dense":false,"divMulI":2060,"divMulO":1},{"Inputs":[0.10000000149011612,0.10000000149011612,0.10000000149011612,0.02931726910173893,0.02931726910173893,0.02931726910173893,0.06425702571868896,0.06425702571868896,0.06425702571868896,0.04979919642210007,0.04979919642210007,0.04979919642210007,0.053012046962976456,0.053012046962976456,0.053012046962976456],"arrInputWeight":[[-1.4306515455245972],[-0.7694510221481323],[-1.459153175354004],[-0.28105518221855164],[0.39153313636779785],[0.26066872477531433],[-0.674555242061615],[-0.5177878141403198],[-0.7411437034606934],[-0.21661800146102905],[-0.6911169290542603],[-0.6578173041343689],[0.061776112765073776],[-0.7175593376159668],[-0.7514567375183105]],"matrixHiddenWeight":[[[-1.0923539400100708],[-1.5266064405441284]],[[-0.6879193782806396],[-0.9571467638015747]],[[-0.9762578010559082],[-1.2467552423477173]],[[-0.20674318075180054],[-0.0349096953868866]],[[-0.09206435084342957],[-0.044329822063446045]],[[0.16349278390407562],[-0.1483820080757141]],[[-1.0274043083190918],[-0.41813066601753235]],[[-0.14040759205818176],[-0.6206029653549194]],[[-0.9376157522201538],[-0.8893470168113708]],[[-0.39793500304222107],[0.08448107540607452]],[[-0.0943140760064125],[-0.7815326452255249]],[[-0.02892182767391205],[0.1146060898900032]],[[-0.02852778509259224],[-0.48055487871170044]],[[-0.2500974237918854],[-0.1517566740512848]],[[-0.00037496164441108704],[0.021640967577695847]]],"Bias":0,"Activation":"sigmoid","hiddenLayers":2,"dense":false,"divMulI":2490,"divMulO":1},{"Inputs":[0.10000000149011612,0.10000000149011612,0.10000000149011612,0.027419354766607285,0.02661290392279625,0.027419354766607285,0.06411290168762207,0.06411290168762207,0.06411290168762207,0.05161290243268013,0.05000000074505806,0.05000000074505806,0.05766129121184349,0.032258063554763794,0.03387096896767616],"arrInputWeight":[[-0.9598532319068909],[-1.5122190713882446],[-0.9508344531059265],[0.35885635018348694],[0.28171098232269287],[-0.11818975955247879],[-0.030929576605558395],[-0.11688390374183655],[-0.4762074947357178],[-0.4370834529399872],[-0.7120428085327148],[-0.46672913432121277],[-0.1825888603925705],[0.3772732615470886],[-0.4801517128944397]],"matrixHiddenWeight":[[[-0.9192860722541809],[-1.1681149005889893]],[[-1.6002930402755737],[-1.3637067079544067]],[[-0.9924779534339905],[-1.481514573097229]],[[0.21848711371421814],[0.1948154717683792]],[[0.14210465550422668],[0.5446789264678955]],[[0.4214644134044647],[0.2742510735988617]],[[-0.30430376529693604],[-0.23063451051712036]],[[-0.9936850666999817],[-0.09372761845588684]],[[-0.23160779476165771],[-0.7745528817176819]],[[0.020126041024923325],[-0.2400311827659607]],[[-0.5200322270393372],[-0.7187917828559875]],[[-0.6969744563102722],[-0.1280982494354248]],[[-0.23664675652980804],[-0.49829408526420593]],[[0.3841763734817505],[0.05646589398384094]],[[-0.1785261332988739],[-0.11697123199701309]]],"Bias":0,"Activation":"sigmoid","hiddenLayers":2,"dense":false,"divMulI":2480,"divMulO":1},{"Inputs":[0.09463414549827576,0.09756097197532654,0.10000000149011612,0.040487803518772125,0.03707316890358925,0.04146341606974602,0.05317073315382004,0.05024390295147896,0.04731707274913788,0.05999999865889549,0.05707317218184471,0.058048781007528305,0.037560977041721344,0.06292682886123657,0.06829268485307693],"arrInputWeight":[[-1.5924137830734253],[-1.2239253520965576],[-1.261935830116272],[-0.6905128955841064],[-0.3387850224971771],[-0.5833967328071594],[-0.5384456515312195],[0.034146711230278015],[0.04886145144701004],[-0.15821219980716705],[-0.1376596987247467],[-0.929523766040802],[0.27695798873901367],[-0.16668862104415894],[-0.897018313407898]],"matrixHiddenWeight":[[[-0.9179385304450989],[-0.8783978819847107]],[[-0.7344858050346375],[-0.8142966032028198]],[[-1.3432681560516357],[-1.6715408563613892]],[[0.04551152512431145],[-0.289568692445755]],[[-0.26422029733657837],[-0.5667620301246643]],[[-0.18616171181201935],[-0.21570643782615662]],[[-0.4807516038417816],[-0.16454508900642395]],[[-0.297324001789093],[-0.8136642575263977]],[[-0.415226548910141],[-0.3537934124469757]],[[-0.8055629134178162],[-0.9701296091079712]],[[-0.5757794380187988],[-0.4728092849254608]],[[-0.655606210231781],[-0.6154405474662781]],[[-0.5695132613182068],[0.035722486674785614]],[[-0.6324689984321594],[-0.09650313854217529]],[[-0.6735318899154663],[-1.0156046152114868]]],"Bias":0,"Activation":"sigmoid","hiddenLayers":2,"dense":false,"divMulI":2050,"divMulO":1},{"Inputs":[0.10000000149011612,0.10000000149011612,0.10000000149011612,0.08571428805589676,0.07899159938097,0.04159663990139961,0.059663865715265274,0.060084033757448196,0.059663865715265274,0.07605042308568954,0.07563025504350662,0.07184874266386032,0.06554622203111649,0.06554622203111649,0.06512605398893356],"arrInputWeight":[[-1.3335778713226318],[-1.264012336730957],[-0.9438018202781677],[-1.1252325773239136],[-0.5832107663154602],[0.1970762461423874],[-0.20160304009914398],[-0.020287130028009415],[-0.20846234261989594],[-0.32995477318763733],[-0.563621461391449],[-0.269014835357666],[-0.24280792474746704],[-0.6292320489883423],[-0.998887836933136]],"matrixHiddenWeight":[[[-0.9967026114463806],[-0.9334765076637268]],[[-1.2262282371520996],[-1.1698449850082397]],[[-0.7428883910179138],[-0.9300920367240906]],[[-0.5444630980491638],[-1.0346928834915161]],[[-0.8898782134056091],[-1.2360565662384033]],[[0.18131272494792938],[-0.5101338624954224]],[[-0.08672112226486206],[-0.9153308868408203]],[[-0.8084853887557983],[-0.25109976530075073]],[[-0.4576717019081116],[-0.03497916832566261]],[[-1.1215951442718506],[-0.616496741771698]],[[-1.0979772806167603],[-0.7848004698753357]],[[-0.3868713080883026],[-0.5651818513870239]],[[-1.0154162645339966],[-0.24857228994369507]],[[-1.0444450378417969],[-0.8744404911994934]],[[-0.15413272380828857],[-0.2463388442993164]]],"Bias":0,"Activation":"sigmoid","hiddenLayers":2,"dense":false,"divMulI":2380,"divMulO":1},{"Inputs":[0.10000000149011612,0.10000000149011612,0.10000000149011612,0.03402489796280861,0.03402489796280861,0.03402489796280861,0.06721992045640945,0.06721992045640945,0.06721992045640945,0.0547717846930027,0.0547717846930027,0.0547717846930027,0.051452282816171646,0.051452282816171646,0.051452282816171646],"arrInputWeight":[[-1.5452336072921753],[-1.4634617567062378],[-1.073897361755371],[0.3921557366847992],[0.1356654018163681],[0.3636598289012909],[-1.0136828422546387],[-0.8073415160179138],[-0.8436616659164429],[-0.6332160830497742],[-0.2961652874946594],[-0.8518926501274109],[-0.2771185040473938],[-0.2875586748123169],[-0.22927024960517883]],"matrixHiddenWeight":[[[-1.46454656124115],[-1.0769367218017578]],[[-1.4391523599624634],[-1.1438090801239014]],[[-0.9859337210655212],[-0.9994067549705505]],[[0.08914155513048172],[-0.16572636365890503]],[[-0.3078466057777405],[0.4607725143432617]],[[0.04178187996149063],[-0.3763298988342285]],[[-0.7429463863372803],[-0.3930518329143524]],[[-0.8401932120323181],[-0.11141158640384674]],[[-0.17908890545368195],[-0.45769742131233215]],[[0.015041951090097427],[-0.6679224371910095]],[[-0.7296354174613953],[-0.8181890845298767]],[[-0.008117076009511948],[-0.4181274175643921]],[[-0.33819130063056946],[-0.028553083539009094]],[[-0.31682172417640686],[-0.46961209177970886]],[[-0.4468466341495514],[-0.39655986428260803]]],"Bias":0,"Activation":"sigmoid","hiddenLayers":2,"dense":false,"divMulI":2410,"divMulO":1},{"Inputs":[0.0973094180226326,0.10000000149011612,0.0905829593539238,0.03408071771264076,0.03632286936044693,0.02466367743909359,0.06636771559715271,0.06950672715902328,0.055156949907541275,0.055156949907541275,0.059192825108766556,0.03542600944638252,0.04843049496412277,0.04843049496412277,0.03991031274199486],"arrInputWeight":[[-1.5785092115402222],[-1.1824880838394165],[-0.8311534523963928],[-0.05294894799590111],[0.03706664219498634],[-0.03350376337766647],[-0.6268542408943176],[-0.4121222496032715],[-0.8153026103973389],[-0.09710580110549927],[-0.48114094138145447],[-0.24777264893054962],[0.08136430382728577],[-0.590162456035614],[-0.11129278689622879]],"matrixHiddenWeight":[[[-1.102609395980835],[-1.6361852884292603]],[[-0.7526466250419617],[-1.1736782789230347]],[[-1.301831603050232],[-1.54787278175354]],[[-0.5397497415542603],[-0.5647653341293335]],[[0.11140844225883484],[0.3000071942806244]],[[-0.2611140012741089],[0.45194801688194275]],[[-0.7606788873672485],[-0.8624004125595093]],[[-1.116237998008728],[-1.2020413875579834]],[[-0.9176264405250549],[-0.11341282725334167]],[[-0.15444204211235046],[0.025088969618082047]],[[-0.605954647064209],[-0.20487363636493683]],[[-0.31984850764274597],[-0.2184004932641983]],[[-0.19484300911426544],[0.02220236510038376]],[[-0.5615777373313904],[-0.542439341545105]],[[-0.4065806269645691],[-0.5334882736206055]]],"Bias":0,"Activation":"sigmoid","hiddenLayers":2,"dense":false,"divMulI":2230,"divMulO":1},{"Inputs":[0.10000000149011612,0.09813953191041946,0.08186046779155731,0.03953488543629646,0.0325581394135952,0.019999999552965164,0.051627907902002335,0.04372093081474304,0.028837209567427635,0.06604651361703873,0.06325581669807434,0.048372093588113785,0.05534883588552475,0.05069767311215401,0.03395348787307739],"arrInputWeight":[[-1.747428059577942],[-0.9683470726013184],[-0.8715331554412842],[0.13144418597221375],[-0.1477760225534439],[0.3233613967895508],[-0.15492255985736847],[0.07869702577590942],[-0.10224232077598572],[-0.491847425699234],[-1.124704122543335],[-0.4423661530017853],[-0.548970103263855],[-0.9036259651184082],[-0.22765517234802246]],"matrixHiddenWeight":[[[-1.391065001487732],[-0.9263169169425964]],[[-1.3211145401000977],[-1.0261332988739014]],[[-1.191465139389038],[-1.2755298614501953]],[[-0.4439172148704529],[-0.4640650749206543]],[[-0.24380165338516235],[0.3107576072216034]],[[-0.21140140295028687],[0.031979016959667206]],[[-0.9336715340614319],[-0.8357272744178772]],[[-0.31606525182724],[-0.36306560039520264]],[[0.11551360040903091],[-0.1782892346382141]],[[-0.8428953289985657],[-0.6455342769622803]],[[-0.8987255692481995],[-0.3959616720676422]],[[-0.6308170557022095],[-0.4557933807373047]],[[-0.1263754516839981],[-0.98166424036026]],[[-0.8506225943565369],[-0.30137503147125244]],[[-0.4236038327217102],[-0.1655101776123047]]],"Bias":0,"Activation":"sigmoid","hiddenLayers":2,"dense":false,"divMulI":2150,"divMulO":1},{"Inputs":[0.020901639014482498,0.03360655903816223,0.08442623168230057,0.08934426307678223,0.09221311658620834,0.09672131389379501,0.05040983483195305,0.06106557324528694,0.0938524603843689,0.05860655754804611,0.07131147384643555,0.10000000149011612,0.01024590153247118,0.017213115468621254,0.053278688341379166],"arrInputWeight":[[-0.3337751030921936],[0.39884045720100403],[-1.18767249584198],[-0.48112571239471436],[-1.2665951251983643],[-0.8001840114593506],[0.14227920770645142],[-0.9513601660728455],[-1.2610362768173218],[-0.5535886883735657],[-0.394008070230484],[-1.5106329917907715],[0.6563509702682495],[0.3775235116481781],[-0.855726420879364]],"matrixHiddenWeight":[[[0.11492888629436493],[0.08590887486934662]],[[0.26583167910575867],[0.37102556228637695]],[[-0.42312097549438477],[-1.2593815326690674]],[[-1.4131929874420166],[-0.816149890422821]],[[-1.260369062423706],[-0.5623606443405151]],[[-0.99965500831604],[-0.921715259552002]],[[-0.21436187624931335],[-0.41528186202049255]],[[-0.20458580553531647],[-0.055224210023880005]],[[-1.0421005487442017],[-0.636751651763916]],[[-0.03527659550309181],[-0.054515186697244644]],[[-0.8455904722213745],[-0.2552605867385864]],[[-1.049394965171814],[-1.5538873672485352]],[[0.6764336824417114],[0.08831551671028137]],[[0.6093012094497681],[0.5221946239471436]],[[-0.5909514427185059],[-0.347675085067749]]],"Bias":0,"Activation":"sigmoid","hiddenLayers":2,"dense":false,"divMulI":2440,"divMulO":1},{"Inputs":[0.09262672811746597,0.10000000149011612,0.0861751139163971,0.02073732763528824,0.033640552312135696,0.03317972272634506,0.051152072846889496,0.06635944545269012,0.06497696042060852,0.044700462371110916,0.052073732018470764,0.03594470024108887,0.04285714402794838,0.04516129195690155,0.03732718899846077],"arrInputWeight":[[-1.5426243543624878],[-1.275580644607544],[-0.6302025318145752],[0.3355882167816162],[-0.3027415871620178],[0.16805614531040192],[-0.0633874163031578],[-0.496894508600235],[-0.28859177231788635],[-0.27279481291770935],[-0.20801445841789246],[-0.2656185030937195],[-0.7198157906532288],[0.12048488855361938],[-0.3617614507675171]],"matrixHiddenWeight":[[[-1.3992321491241455],[-0.7587453722953796]],[[-1.7423149347305298],[-1.6681586503982544]],[[-0.9362536668777466],[-0.5716797113418579]],[[0.6130580902099609],[-0.3702431917190552]],[[-0.2077946960926056],[-0.38429683446884155]],[[-0.16735483705997467],[-0.19441744685173035]],[[-0.8269561529159546],[-0.727276086807251]],[[-1.094887137413025],[-0.34619298577308655]],[[-1.067806363105774],[-0.752149224281311]],[[-0.03435901924967766],[-0.09353424608707428]],[[-0.9440820217132568],[-0.6783603429794312]],[[0.21679094433784485],[0.3316929042339325]],[[0.11506544053554535],[-0.053653355687856674]],[[-0.6241450309753418],[-0.1669970452785492]],[[-0.4736754298210144],[0.18417800962924957]]],"Bias":0,"Activation":"sigmoid","hiddenLayers":2,"dense":false,"divMulI":2170,"divMulO":1},{"Inputs":[0.02500000037252903,0.024152541533112526,0.020338982343673706,0.0957627147436142,0.10000000149011612,0.09872881323099136,0.052966102957725525,0.03983050957322121,0.03432203456759453,0.06398305296897888,0.05169491469860077,0.04279661178588867,0.05932203307747841,0.0576271191239357,0.05550847575068474],"arrInputWeight":[[0.4358513653278351],[0.4943545162677765],[0.2618308663368225],[0.6816558837890625],[0.4704675078392029],[0.3906617760658264],[0.597648561000824],[0.34211400151252747],[0.08601634204387665],[0.5756521821022034],[0.2149852067232132],[0.34494876861572266],[0.4656519889831543],[0.5815933346748352],[0.19135276973247528]],"matrixHiddenWeight":[[[0.0786113291978836]],[[0.5775406360626221]],[[0.7669164538383484]],[[0.26967254281044006]],[[0.1269579827785492]],[[0.3594183325767517]],[[0.8631510734558105]],[[0.07035256922245026]],[[0.76846843957901]],[[0.7997521758079529]],[[0.8991001844406128]],[[0.2888236343860626]],[[0.1120830550789833]],[[0.15513654053211212]],[[0.46783503890037537]]],"Bias":0,"Activation":"sigmoid","hiddenLayers":1,"dense":false,"divMulI":2360,"divMulO":1},{"Inputs":[0.03298969194293022,0.028865979984402657,0.025773195549845695,0.10000000149011612,0.08969072252511978,0.07731958478689194,0.07422680407762527,0.05876288563013077,0.04639175161719322,0.0871134027838707,0.08608247339725494,0.07731958478689194,0.07938144356012344,0.07680412381887436,0.08144330233335495],"arrInputWeight":[[0.7068849205970764],[0.026778582483530045],[0.14359040558338165],[0.1938273161649704],[0.6272976398468018],[0.11934202909469604],[0.22130736708641052],[0.22139853239059448],[0.702153205871582],[0.8894258141517639],[0.2098734825849533],[0.4126608669757843],[0.34271717071533203],[0.07711857557296753],[0.24473963677883148]],"matrixHiddenWeight":[[[0.25995907187461853]],[[0.8559485673904419]],[[0.7364069223403931]],[[0.6325923204421997]],[[0.6209732890129089]],[[0.017202408984303474]],[[0.6281265020370483]],[[0.44473937153816223]],[[0.2978478968143463]],[[0.3525533676147461]],[[0.8253546953201294]],[[0.1818474531173706]],[[0.19784292578697205]],[[0.8260133862495422]],[[0.38136541843414307]]],"Bias":0,"Activation":"sigmoid","hiddenLayers":1,"dense":false,"divMulI":1940,"divMulO":1},{"Inputs":[0.011940298601984978,0.020895522087812424,0.013432836160063744,0.09900497645139694,0.08905472606420517,0.08905472606420517,0.042288556694984436,0.05572139471769333,0.08159203827381134,0.04129353165626526,0.05522388219833374,0.03631840646266937,0.06666667014360428,0.08009950071573257,0.10000000149011612],"arrInputWeight":[[0.19003979861736298],[0.7511252164840698],[0.46929141879081726],[0.3369207978248596],[0.9389057755470276],[0.35710152983665466],[0.9726442694664001],[0.46829333901405334],[0.644344687461853],[0.8687313199043274],[0.07849322259426117],[0.3556603193283081],[0.8026797771453857],[0.5217664837837219],[0.7602486610412598]],"matrixHiddenWeight":[[[0.44043397903442383]],[[0.15671053528785706]],[[0.830033004283905]],[[0.2729416489601135]],[[0.6120815873146057]],[[0.3945867419242859]],[[0.5239824056625366]],[[0.9042333960533142]],[[0.41013026237487793]],[[0.5282649397850037]],[[0.17337706685066223]],[[0.5560601949691772]],[[0.7840211391448975]],[[0.22364142537117004]],[[0.3931705057621002]]],"Bias":0,"Activation":"sigmoid","hiddenLayers":1,"dense":false,"divMulI":2010,"divMulO":1},{"Inputs":[0.10000000149011612,0.09615384787321091,0.09444444626569748,0.04017094150185585,0.02777777798473835,0.021794872358441353,0.057692307978868484,0.04743589833378792,0.04743589833378792,0.08461538702249527,0.06324786692857742,0.04273504391312599,0.05299145355820656,0.05299145355820656,0.056410256773233414],"arrInputWeight":[[0.6278643012046814],[1.0158905982971191],[1.0045403242111206],[0.9523115158081055],[0.17673508822917938],[0.7956570386886597],[0.854797899723053],[0.8369191288948059],[0.4847770631313324],[0.7443899512290955],[0.4710227847099304],[0.47195833921432495],[0.8572403192520142],[0.23189839720726013],[0.04518578201532364]],"matrixHiddenWeight":[[[0.47389447689056396]],[[0.48735955357551575]],[[0.26665356755256653]],[[0.5168095231056213]],[[0.1229657530784607]],[[0.07392222434282303]],[[0.08303864300251007]],[[0.10465437173843384]],[[0.39828839898109436]],[[0.08090033382177353]],[[0.028422556817531586]],[[0.4317929148674011]],[[0.10735107958316803]],[[0.7120022773742676]],[[0.8940482139587402]]],"Bias":0,"Activation":"sigmoid","hiddenLayers":1,"dense":false,"divMulI":2340,"divMulO":1},{"Inputs":[0.03349282220005989,0.027751196175813675,0.02583732083439827,0.10000000149011612,0.08181817829608917,0.06889951974153519,0.07703348994255066,0.08516746759414673,0.08947368711233139,0.0736842080950737,0.0559808611869812,0.042583733797073364,0.06889951974153519,0.0755980834364891,0.08038277179002762],"arrInputWeight":[[0.908126711845398],[0.6681740283966064],[0.13507108390331268],[0.7433316707611084],[0.6339037418365479],[0.010958729311823845],[0.528167724609375],[0.7055907845497131],[0.9758554100990295],[0.8971230983734131],[0.9771764874458313],[0.11169996112585068],[0.9669733643531799],[0.22708387672901154],[0.7237977981567383]],"matrixHiddenWeight":[[[0.3798978626728058]],[[0.04408348351716995]],[[0.5528287291526794]],[[0.36320438981056213]],[[0.8230733275413513]],[[0.04820610582828522]],[[0.675710916519165]],[[0.8588341474533081]],[[0.03875119239091873]],[[0.31733834743499756]],[[0.8467696309089661]],[[0.4038028120994568]],[[0.07355165481567383]],[[0.5594501495361328]],[[0.9317380785942078]]],"Bias":0,"Activation":"sigmoid","hiddenLayers":1,"dense":false,"divMulI":2090,"divMulO":1},{"Inputs":[0.024336284026503563,0.022123893722891808,0.022123893722891808,0.06769911199808121,0.07035398483276367,0.07433628290891647,0.10000000149011612,0.08185840398073196,0.07300885021686554,0.06283185631036758,0.05840707942843437,0.05840707942843437,0.06769911199808121,0.06902655214071274,0.06814159452915192],"arrInputWeight":[[0.24331390857696533],[0.5686151385307312],[0.0687699243426323],[1.0015883445739746],[0.8369942307472229],[0.09164456278085709],[0.3421691358089447],[0.27958396077156067],[0.449453741312027],[0.7879213690757751],[0.09491191804409027],[0.31285279989242554],[0.7639033198356628],[0.44226157665252686],[0.2009955644607544]],"matrixHiddenWeight":[[[0.46260330080986023]],[[0.9616647362709045]],[[0.5982530117034912]],[[0.2870939373970032]],[[0.7548059821128845]],[[0.5121315717697144]],[[0.15711361169815063]],[[0.2655541002750397]],[[0.5199161171913147]],[[0.8260519504547119]],[[0.8721001744270325]],[[0.16184911131858826]],[[0.9793198704719543]],[[0.43456345796585083]],[[0.6455549597740173]]],"Bias":0,"Activation":"sigmoid","hiddenLayers":1,"dense":false,"divMulI":2260,"divMulO":1},{"Inputs":[0.027935221791267395,0.01781376451253891,0.012550607323646545,0.10000000149011612,0.0979757085442543,0.09716599434614182,0.05708501860499382,0.038866396993398666,0.02995951473712921,0.07044534385204315,0.05344129726290703,0.04412955418229103,0.06842105090618134,0.05910931155085564,0.05263157933950424],"arrInputWeight":[[0.06620746105909348],[0.3393992781639099],[0.8753637671470642],[0.617469072341919],[0.06398767232894897],[0.2804125249385834],[0.8910242915153503],[0.777821958065033],[0.3140394985675812],[0.6219527125358582],[0.8626452088356018],[0.46404093503952026],[0.6087713837623596],[0.03863965719938278],[0.36598411202430725]],"matrixHiddenWeight":[[[0.7501347661018372]],[[0.9984750151634216]],[[0.5262417197227478]],[[0.5791734457015991]],[[0.1930050402879715]],[[0.8731690645217896]],[[0.8815096616744995]],[[0.182305708527565]],[[0.23822878301143646]],[[0.7945724725723267]],[[0.740236222743988]],[[0.7453616857528687]],[[1.0055915117263794]],[[0.4927145540714264]],[[0.4998762905597687]]],"Bias":0,"Activation":"sigmoid","hiddenLayers":1,"dense":false,"divMulI":2470,"divMulO":1},{"Inputs":[0.020481927320361137,0.018875502049922943,0.02811245061457157,0.10000000149011612,0.09839357435703278,0.09799196571111679,0.0602409653365612,0.039759036153554916,0.03614457696676254,0.06385542452335358,0.06425702571868896,0.07228915393352509,0.07630521804094315,0.053012046962976456,0.046987950801849365],"arrInputWeight":[[0.8487110733985901],[0.18046052753925323],[0.9070260524749756],[0.4662952423095703],[0.2636526823043823],[0.1282258778810501],[0.5993906259536743],[0.07617992907762527],[0.8735084533691406],[0.10329876840114594],[0.7646853923797607],[0.21330098807811737],[0.02831249311566353],[0.966356635093689],[0.9178913831710815]],"matrixHiddenWeight":[[[0.3022531270980835]],[[0.6316248178482056]],[[0.9282199740409851]],[[0.13802705705165863]],[[0.18922217190265656]],[[0.28862646222114563]],[[0.9709197282791138]],[[0.048127591609954834]],[[0.09451357275247574]],[[0.9064971208572388]],[[0.3008542060852051]],[[0.1640481799840927]],[[0.6787195801734924]],[[0.28405728936195374]],[[0.7614662051200867]]],"Bias":0,"Activation":"sigmoid","hiddenLayers":1,"dense":false,"divMulI":2490,"divMulO":1},{"Inputs":[0.10000000149011612,0.09200000017881393,0.08977777510881424,0.018222222104668617,0.01688888855278492,0.019999999552965164,0.06044444441795349,0.03200000151991844,0.02666666731238365,0.08711110800504684,0.052000001072883606,0.04933333396911621,0.08044444769620895,0.05066666752099991,0.031111111864447594],"arrInputWeight":[[0.35525062680244446],[0.8453513383865356],[0.8633725047111511],[0.7299625873565674],[0.7293213605880737],[0.13564133644104004],[0.7585833668708801],[0.8179381489753723],[0.5153790712356567],[0.27043870091438293],[0.21167682111263275],[0.754531741142273],[0.5058373808860779],[0.06714129447937012],[0.278776615858078]],"matrixHiddenWeight":[[[0.7978240251541138]],[[0.6917566657066345]],[[0.655871570110321]],[[0.3392168879508972]],[[0.6064316034317017]],[[0.5578184723854065]],[[0.5908091068267822]],[[0.5254262089729309]],[[0.9248282313346863]],[[0.586627721786499]],[[0.08479522168636322]],[[0.3387302756309509]],[[0.8308932185173035]],[[0.5236867666244507]],[[0.5914639830589294]]],"Bias":0,"Activation":"sigmoid","hiddenLayers":1,"dense":false,"divMulI":2250,"divMulO":1},{"Inputs":[0.01928251050412655,0.020179372280836105,0.021076234057545662,0.10000000149011612,0.0982062816619873,0.0982062816619873,0.0520179383456707,0.0385650210082531,0.030493274331092834,0.06008968502283096,0.06098654866218567,0.06322869658470154,0.06950672715902328,0.05426008999347687,0.042152468115091324],"arrInputWeight":[[0.8197522759437561],[0.3005009591579437],[0.1688375324010849],[0.18123865127563477],[0.8475068807601929],[0.8173781037330627],[0.3407917618751526],[0.8986638784408569],[0.9414394497871399],[0.09791584312915802],[0.07639279961585999],[0.46226465702056885],[0.547463059425354],[0.5324150323867798],[0.041783809661865234]],"matrixHiddenWeight":[[[0.04171642288565636]],[[0.04139276221394539]],[[0.254142165184021]],[[0.8859080672264099]],[[0.229977548122406]],[[0.23397724330425262]],[[0.8000383973121643]],[[0.659247875213623]],[[0.7682105302810669]],[[0.2730727195739746]],[[0.34531378746032715]],[[0.19250339269638062]],[[0.21827039122581482]],[[0.9447751045227051]],[[0.5879358649253845]]],"Bias":0,"Activation":"sigmoid","hiddenLayers":1,"dense":false,"divMulI":2230,"divMulO":1},{"Inputs":[0.08497854322195053,0.08154506236314774,0.06523605436086655,0.03991416469216347,0.028326179832220078,0.022317595779895782,0.05193132907152176,0.03733905404806137,0.03476394712924957,0.08798283338546753,0.09356223046779633,0.10000000149011612,0.04077253118157387,0.045922745019197464,0.04935622215270996],"arrInputWeight":[[0.6990492939949036],[1.000510573387146],[0.43323591351509094],[0.6230733394622803],[0.2048255205154419],[0.8326607346534729],[0.905529260635376],[0.9578516483306885],[0.43117275834083557],[0.8993815779685974],[0.43971168994903564],[0.3882122039794922],[0.7166321873664856],[0.6957858204841614],[0.5093408226966858]],"matrixHiddenWeight":[[[0.7534301280975342]],[[0.31330737471580505]],[[0.43060165643692017]],[[0.7391490936279297]],[[0.5377404689788818]],[[0.8610091805458069]],[[0.07584089785814285]],[[0.2175927609205246]],[[0.5241849422454834]],[[0.3485947847366333]],[[0.08790820837020874]],[[0.32237040996551514]],[[0.8198638558387756]],[[0.766025722026825]],[[0.7832805514335632]]],"Bias":0,"Activation":"sigmoid","hiddenLayers":1,"dense":false,"divMulI":2330,"divMulO":1},{"Inputs":[0.08317307382822037,0.0625,0.05624999850988388,0.02211538515985012,0.018269231542944908,0.013461538590490818,0.10000000149011612,0.09711538255214691,0.09663461893796921,0.04951922968029976,0.04374999925494194,0.02211538515985012,0.048557691276073456,0.026442307978868484,0.022596154361963272],"arrInputWeight":[[0.45401492714881897],[0.2873937785625458],[0.7074384689331055],[0.3055209517478943],[0.4238305687904358],[0.1140313372015953],[0.8741989135742188],[0.5052871704101562],[0.5499086976051331],[0.3756004273891449],[0.7475494146347046],[0.42588838934898376],[0.4452276825904846],[0.1966041922569275],[0.25044935941696167]],"matrixHiddenWeight":[[[0.5800939798355103]],[[0.3010901212692261]],[[0.41101497411727905]],[[0.5817699432373047]],[[0.9187682867050171]],[[0.11137402057647705]],[[0.7486023902893066]],[[0.3503239154815674]],[[0.5975648164749146]],[[0.1764315515756607]],[[0.011928345076739788]],[[0.843144416809082]],[[0.09909143298864365]],[[0.9223187565803528]],[[0.7976517081260681]]],"Bias":0,"Activation":"sigmoid","hiddenLayers":1,"dense":false,"divMulI":2080,"divMulO":1},{"Inputs":[0.10000000149011612,0.08429752290248871,0.04380165413022041,0.03595041483640671,0.021487602964043617,0.01694214902818203,0.058264464139938354,0.03471074253320694,0.024380166083574295,0.08760330826044083,0.08223140239715576,0.08264462649822235,0.06694214791059494,0.04876033216714859,0.01652892492711544],"arrInputWeight":[[0.29404333233833313],[0.05269250646233559],[0.039710432291030884],[0.7163763642311096],[0.5247411131858826],[0.22684723138809204],[0.29458215832710266],[0.3297789990901947],[0.2809181809425354],[0.5651446580886841],[0.3499619662761688],[0.06451734900474548],[0.7351722121238708],[0.3897845447063446],[0.3271785378456116]],"matrixHiddenWeight":[[[0.15205682814121246]],[[0.046306513249874115]],[[0.25414082407951355]],[[0.30296701192855835]],[[0.1763511449098587]],[[0.2517152428627014]],[[0.9403115510940552]],[[0.6809236407279968]],[[0.38492995500564575]],[[0.4681078791618347]],[[0.6062952280044556]],[[0.37213918566703796]],[[0.9846917390823364]],[[0.4937695264816284]],[[0.30042600631713867]]],"Bias":0,"Activation":"sigmoid","hiddenLayers":1,"dense":false,"divMulI":2420,"divMulO":1},{"Inputs":[0.10000000149011612,0.09444444626569748,0.08636363595724106,0.028787879273295403,0.021717172116041183,0.020202020183205605,0.047979798167943954,0.033838383853435516,0.02929292991757393,0.05808080732822418,0.053535353392362595,0.049494948238134384,0.06161615997552872,0.043939393013715744,0.03333333507180214],"arrInputWeight":[[0.6615328192710876],[0.3055252730846405],[0.8280712366104126],[0.03660684823989868],[0.24819684028625488],[0.758674144744873],[0.6735306978225708],[0.5768897533416748],[0.12295214086771011],[0.43924209475517273],[0.8061833381652832],[0.3774314522743225],[0.05066034942865372],[0.27797988057136536],[0.665957510471344]],"matrixHiddenWeight":[[[0.5491514801979065]],[[0.6368685364723206]],[[0.23795846104621887]],[[0.5042979121208191]],[[0.15200263261795044]],[[0.8856691718101501]],[[0.6980838179588318]],[[0.6134029626846313]],[[0.35083043575286865]],[[0.5799002647399902]],[[0.46348902583122253]],[[0.7254977822303772]],[[0.7058749198913574]],[[0.6800413131713867]],[[0.7155256867408752]]],"Bias":0,"Activation":"sigmoid","hiddenLayers":1,"dense":false,"divMulI":1980,"divMulO":1},{"Inputs":[0.03347107395529747,0.025619834661483765,0.013223140500485897,0.10000000149011612,0.09834710508584976,0.09710744023323059,0.057438015937805176,0.043388430029153824,0.027272727340459824,0.06818182021379471,0.05537189915776253,0.040082644671201706,0.06735537201166153,0.06322313845157623,0.05578512325882912],"arrInputWeight":[[0.07830803096294403],[0.4635342061519623],[0.3281437158584595],[0.2460547834634781],[0.4024600684642792],[0.6872674822807312],[0.15884628891944885],[0.48021209239959717],[0.6423197984695435],[0.49176499247550964],[0.1914498507976532],[0.8763616681098938],[0.8194172382354736],[0.951975405216217],[0.10114385187625885]],"matrixHiddenWeight":[[[0.15772615373134613]],[[0.1751292198896408]],[[0.2003963589668274]],[[0.07160106301307678]],[[0.9987953305244446]],[[0.38599351048469543]],[[0.18060392141342163]],[[0.6275181174278259]],[[0.52953040599823]],[[0.09504830837249756]],[[0.41060197353363037]],[[0.4496385455131531]],[[0.2574053406715393]],[[0.9513312578201294]],[[0.3329615890979767]]],"Bias":0,"Activation":"sigmoid","hiddenLayers":1,"dense":false,"divMulI":2420,"divMulO":1},{"Inputs":[0.08225107938051224,0.07532467693090439,0.06753246486186981,0.03030303120613098,0.029004329815506935,0.024242423474788666,0.04848484694957733,0.03246753290295601,0.023376623168587685,0.061471860855817795,0.04199134185910225,0.03030303120613098,0.10000000149011612,0.09740259498357773,0.09220778942108154],"arrInputWeight":[[-1.3844575881958008],[-1.1656780242919922],[-1.0952988862991333],[0.24588067829608917],[-0.26997601985931396],[-0.5244882702827454],[-0.13948367536067963],[-0.3283434808254242],[0.38666272163391113],[-1.2041912078857422],[-0.3079805374145508],[-0.3816867768764496],[-1.7730990648269653],[-1.7611966133117676],[-1.5272636413574219]],"matrixHiddenWeight":[[[-1.776629090309143],[-1.5451428890228271]],[[-0.7989581823348999],[-1.013445496559143]],[[-1.5071207284927368],[-1.1371949911117554]],[[-0.15348385274410248],[0.2008855640888214]],[[-0.028991833329200745],[-0.4164794385433197]],[[-0.019739994779229164],[-0.009767929092049599]],[[-1.1109625101089478],[-0.21538911759853363]],[[-0.5452281832695007],[-0.09577137231826782]],[[-0.5217366218566895],[-0.518356442451477]],[[-1.3405433893203735],[-0.7871167063713074]],[[-0.3349562883377075],[0.0016265305457636714]],[[-0.3963744044303894],[-0.48311474919319153]],[[-1.4512683153152466],[-2.0998878479003906]],[[-1.5929338932037354],[-2.2331411838531494]],[[-1.8782739639282227],[-1.7468013763427734]]],"Bias":0,"Activation":"sigmoid","hiddenLayers":2,"dense":false,"divMulI":2310,"divMulO":20},{"Inputs":[0.10000000149011612,0.08481013029813766,0.07974683493375778,0.038818564265966415,0.02278481051325798,0.017721518874168396,0.08438818901777267,0.05654008314013481,0.04725738242268562,0.07130801677703857,0.043881855905056,0.03375527262687683,0.048945147544145584,0.04219409450888634,0.038818564265966415],"arrInputWeight":[[-2.243574380874634],[-1.4702037572860718],[-1.9435348510742188],[-0.171336829662323],[-0.29741132259368896],[-0.37766680121421814],[-1.8239725828170776],[-0.7105615139007568],[-1.2198506593704224],[-1.6699217557907104],[-1.044650673866272],[-0.5542559027671814],[-1.0190439224243164],[-0.40243878960609436],[-0.9874742031097412]],"matrixHiddenWeight":[[[-1.794127106666565],[-1.995269536972046]],[[-1.4477641582489014],[-1.512350082397461]],[[-1.2441632747650146],[-1.3139681816101074]],[[-0.8023718595504761],[-0.07320462167263031]],[[-0.00025739584816619754],[-0.5391873717308044]],[[-0.3104533851146698],[-0.10901275277137756]],[[-2.023648262023926],[-1.5254154205322266]],[[-0.6750661730766296],[-0.9958246350288391]],[[-0.5021526217460632],[-0.46437010169029236]],[[-1.2834540605545044],[-1.8755356073379517]],[[-1.157407283782959],[-0.6615846157073975]],[[-0.8439198136329651],[-0.11194226890802383]],[[-0.3174068033695221],[-0.9923185706138611]],[[-0.49245089292526245],[-1.0668351650238037]],[[-0.8211354613304138],[-0.3086585998535156]]],"Bias":0,"Activation":"sigmoid","hiddenLayers":2,"dense":false,"divMulI":2370,"divMulO":20},{"Inputs":[0.10000000149011612,0.0887254923582077,0.0833333358168602,0.020098039880394936,0.01764705963432789,0.01617647148668766,0.07058823853731155,0.052941177040338516,0.046078432351350784,0.06029411777853966,0.04411764815449715,0.03529411926865578,0.05245098099112511,0.03480392321944237,0.027450980618596077],"arrInputWeight":[[-1.9560621976852417],[-1.4622716903686523],[-2.1254353523254395],[0.11547860503196716],[0.5070670247077942],[0.07142142951488495],[-1.7347347736358643],[-0.5325499176979065],[-0.301561564207077],[-1.2879300117492676],[-0.6872988343238831],[-0.27117764949798584],[-1.2875641584396362],[-0.7433985471725464],[-0.37553486227989197]],"matrixHiddenWeight":[[[-1.8515304327011108],[-1.7923623323440552]],[[-1.9848792552947998],[-1.4672064781188965]],[[-2.0515124797821045],[-1.706815242767334]],[[0.2231464385986328],[-0.4867458939552307]],[[-0.10092155635356903],[0.22684983909130096]],[[0.4240761399269104],[-0.4164236783981323]],[[-1.7551045417785645],[-1.528266429901123]],[[-0.9370502829551697],[-0.6663889288902283]],[[-0.807830810546875],[-0.9687478542327881]],[[-0.9433436989784241],[-1.4525951147079468]],[[-1.143277883529663],[-1.1449306011199951]],[[-0.8050452470779419],[-0.5677712559700012]],[[-0.6174798607826233],[-0.9787067770957947]],[[-0.37712037563323975],[-0.674564003944397]],[[0.01821700856089592],[0.07888321578502655]]],"Bias":0,"Activation":"sigmoid","hiddenLayers":2,"dense":false,"divMulI":2040,"divMulO":20},{"Inputs":[0.061316873878240585,0.03786008059978485,0.023045267909765244,0.019341563805937767,0.012757201679050922,0.010288066230714321,0.10000000149011612,0.08806584030389786,0.07818929851055145,0.08971193432807922,0.06707818806171417,0.054320987313985825,0.0855967104434967,0.07037036865949631,0.06419753283262253],"arrInputWeight":[[-0.6589616537094116],[-0.43550655245780945],[0.3497314155101776],[0.3301505148410797],[-0.19382286071777344],[-0.03802991658449173],[-1.9797453880310059],[-1.0671100616455078],[-1.407066822052002],[-1.0757590532302856],[-1.2092468738555908],[-0.5024076700210571],[-1.614109992980957],[-1.4024028778076172],[-0.7593492865562439]],"matrixHiddenWeight":[[[-0.662556529045105],[-0.6165761351585388]],[[0.04391852766275406],[-0.8011947274208069]],[[-0.41419413685798645],[0.05780290812253952]],[[0.07450854778289795],[0.04523634538054466]],[[-0.06789619475603104],[0.014639304019510746]],[[-0.09013203531503677],[0.4894923269748688]],[[-2.16496205329895],[-1.9259276390075684]],[[-1.5208803415298462],[-1.831910252571106]],[[-1.6591689586639404],[-1.5256139039993286]],[[-1.8276617527008057],[-1.7137258052825928]],[[-0.9736422896385193],[-1.3920037746429443]],[[-0.7940158247947693],[-0.42791613936424255]],[[-1.4610936641693115],[-1.4749966859817505]],[[-0.6860044002532959],[-1.2889683246612549]],[[-0.4771271347999573],[-0.6221006512641907]]],"Bias":0,"Activation":"sigmoid","hiddenLayers":2,"dense":false,"divMulI":2430,"divMulO":20},{"Inputs":[0.060245901346206665,0.051229506731033325,0.0520491786301136,0.018852459266781807,0.017213115468621254,0.01844262331724167,0.10000000149011612,0.09918032586574554,0.09631147235631943,0.03606557473540306,0.022131146863102913,0.02049180306494236,0.03852459043264389,0.028278687968850136,0.023770492523908615],"arrInputWeight":[[-0.69505774974823],[-0.5762528777122498],[-1.0409629344940186],[-0.30555108189582825],[-0.36834341287612915],[0.29564139246940613],[-1.6396888494491577],[-2.0347084999084473],[-1.620439052581787],[-0.509804368019104],[-0.2249227613210678],[0.021755440160632133],[-0.14531674981117249],[0.18632636964321136],[-0.25182846188545227]],"matrixHiddenWeight":[[[-1.342850923538208],[-0.8444744348526001]],[[-0.4170635938644409],[-0.2483682483434677]],[[-1.2242540121078491],[-0.7570751905441284]],[[0.32495126128196716],[0.4228888750076294]],[[0.4023473858833313],[0.19757209718227386]],[[0.37329381704330444],[0.20310921967029572]],[[-1.855470061302185],[-2.0668931007385254]],[[-2.1880075931549072],[-1.8123056888580322]],[[-2.1415822505950928],[-2.000687599182129]],[[-0.8272565603256226],[-0.19448670744895935]],[[-0.32382142543792725],[-0.45578211545944214]],[[-0.05657612532377243],[-0.1605559140443802]],[[0.05708784610033035],[-0.6176428198814392]],[[-0.15889540314674377],[-0.04408279061317444]],[[0.2743355929851532],[0.3146083652973175]]],"Bias":0,"Activation":"sigmoid","hiddenLayers":2,"dense":false,"divMulI":2440,"divMulO":20},{"Inputs":[0.10000000149011612,0.08444444090127945,0.08222222328186035,0.030666666105389595,0.02266666665673256,0.02266666665673256,0.053777776658535004,0.024000000208616257,0.024888888001441956,0.06888888776302338,0.04488888755440712,0.04355555400252342,0.058666665107011795,0.035555556416511536,0.0284444447606802],"arrInputWeight":[[-2.245366334915161],[-1.8730722665786743],[-1.1796587705612183],[-0.5305202603340149],[-0.5589942336082458],[-0.4711071848869324],[-0.785460352897644],[0.36244410276412964],[0.17556025087833405],[-0.9969192147254944],[-0.9754276871681213],[-0.3732931911945343],[-1.4961605072021484],[-0.36993253231048584],[0.09347604960203171]],"matrixHiddenWeight":[[[-2.3787753582000732],[-2.593433380126953]],[[-1.4933408498764038],[-1.6775521039962769]],[[-1.1988314390182495],[-1.2684448957443237]],[[-0.3790495991706848],[0.1732781082391739]],[[0.10551079362630844],[-0.5102039575576782]],[[-0.46004271507263184],[-0.3723861575126648]],[[-0.4179626405239105],[-0.4347367584705353]],[[0.2609386444091797],[-0.604842483997345]],[[-0.2864111065864563],[0.08118081837892532]],[[-1.4092683792114258],[-1.2151817083358765]],[[-0.4278769791126251],[-0.659369945526123]],[[-0.7925468683242798],[-0.14728334546089172]],[[-0.9636738300323486],[-1.4925885200500488]],[[-0.7014787197113037],[-0.8115777969360352]],[[-0.33318790793418884],[0.03867277875542641]]],"Bias":0,"Activation":"sigmoid","hiddenLayers":2,"dense":false,"divMulI":2250,"divMulO":20},{"Inputs":[0.06708333641290665,0.050833333283662796,0.04416666552424431,0.014583333395421505,0.014166667126119137,0.014166667126119137,0.10000000149011612,0.09000000357627869,0.0833333358168602,0.036666665226221085,0.01875000074505806,0.013749999925494194,0.09708333015441895,0.0754166692495346,0.08041666448116302],"arrInputWeight":[[-1.207624077796936],[-1.0566174983978271],[-0.6854143738746643],[0.015056225471198559],[0.5517126321792603],[0.3425859212875366],[-1.5691646337509155],[-1.861876130104065],[-1.1937329769134521],[-0.39882105588912964],[0.43409207463264465],[-0.3176962733268738],[-1.9625462293624878],[-1.3367539644241333],[-1.5963709354400635]],"matrixHiddenWeight":[[[-0.8702138662338257],[-0.7327479124069214]],[[-1.183248519897461],[-0.34979161620140076]],[[-0.32724010944366455],[-0.2627098262310028]],[[0.2333373874425888],[-0.1557721346616745]],[[0.3346269130706787],[0.12679125368595123]],[[0.268340528011322],[0.2706053853034973]],[[-1.7611039876937866],[-1.7286728620529175]],[[-2.118889570236206],[-1.6682697534561157]],[[-1.4954102039337158],[-1.6724038124084473]],[[-0.6540725231170654],[-0.5697448253631592]],[[0.27186301350593567],[-0.2130657583475113]],[[0.2375117838382721],[0.5730387568473816]],[[-1.4012291431427002],[-1.7960708141326904]],[[-1.5934401750564575],[-0.8977227210998535]],[[-1.227207899093628],[-1.1318652629852295]]],"Bias":0,"Activation":"sigmoid","hiddenLayers":2,"dense":false,"divMulI":2400,"divMulO":20},{"Inputs":[0.06651584059000015,0.04570135846734047,0.03710407391190529,0.018099548295140266,0.012217194773256779,0.01402714941650629,0.10000000149011612,0.09728506952524185,0.08959276229143143,0.09366516023874283,0.061990950256586075,0.05067873373627663,0.06289593130350113,0.0737556591629982,0.08733031898736954],"arrInputWeight":[[-1.399692416191101],[-0.9454741477966309],[-0.6981386542320251],[0.46589741110801697],[0.5233925580978394],[-0.2744045853614807],[-1.5073471069335938],[-2.024059534072876],[-1.5831774473190308],[-1.6361113786697388],[-0.7463035583496094],[-0.4992569386959076],[-1.3550808429718018],[-1.2934664487838745],[-1.2302695512771606]],"matrixHiddenWeight":[[[-1.1567175388336182],[-0.7155448794364929]],[[-0.6509557962417603],[-0.4917369782924652]],[[-0.5741999745368958],[0.10065621137619019]],[[0.5078222155570984],[0.37766996026039124]],[[-0.12991952896118164],[0.06919030100107193]],[[0.051272109150886536],[0.3584772050380707]],[[-1.4348596334457397],[-2.1504476070404053]],[[-1.67596435546875],[-1.2113325595855713]],[[-1.2039837837219238],[-1.5885896682739258]],[[-1.539816975593567],[-2.02358078956604]],[[-1.3182731866836548],[-1.175158143043518]],[[-0.6547395586967468],[-0.5457131862640381]],[[-1.093347430229187],[-0.5098639130592346]],[[-1.1447970867156982],[-1.1106387376785278]],[[-1.3119614124298096],[-1.7895413637161255]]],"Bias":0,"Activation":"sigmoid","hiddenLayers":2,"dense":false,"divMulI":2210,"divMulO":20},{"Inputs":[0.10000000149011612,0.09354838728904724,0.09078340977430344,0.0364055298268795,0.029953917488455772,0.03087557666003704,0.0525345616042614,0.03271889314055443,0.028110599145293236,0.06728110462427139,0.0552995391190052,0.0525345616042614,0.0700460821390152,0.04838709533214569,0.03870967775583267],"arrInputWeight":[[-1.6527615785598755],[-1.570382833480835],[-1.8988778591156006],[-0.1847609430551529],[0.0679454579949379],[-0.08326532691717148],[-0.5946429371833801],[-0.0857195183634758],[-0.6735501885414124],[-1.3356578350067139],[-0.5465587973594666],[-0.9626326560974121],[-1.7569001913070679],[-1.2292544841766357],[-0.30839577317237854]],"matrixHiddenWeight":[[[-2.2655484676361084],[-1.7471596002578735]],[[-1.8752939701080322],[-2.070854425430298]],[[-1.37464439868927],[-1.91652512550354]],[[-0.8750907182693481],[-0.5661109685897827]],[[0.07583056390285492],[0.20914392173290253]],[[-0.7906303405761719],[-0.13594551384449005]],[[-0.8737817406654358],[-1.230985164642334]],[[0.13663119077682495],[-0.8378844857215881]],[[-0.03730597347021103],[-0.6415756344795227]],[[-0.825362503528595],[-1.2074556350708008]],[[-0.5090258717536926],[-0.6533422470092773]],[[-0.9093601703643799],[-0.4867032468318939]],[[-1.7151728868484497],[-1.4019170999526978]],[[-0.9946165680885315],[-1.1576147079467773]],[[-0.14228232204914093],[-0.00910663791000843]]],"Bias":0,"Activation":"sigmoid","hiddenLayers":2,"dense":false,"divMulI":2170,"divMulO":20},{"Inputs":[0.05772727355360985,0.04500000178813934,0.051363635808229446,0.006818181835114956,0.004545454401522875,0.007272727321833372,0.09454545378684998,0.09136363863945007,0.10000000149011612,0.08454545587301254,0.07772727310657501,0.0886363610625267,0.09000000357627869,0.07000000029802322,0.07999999821186066],"arrInputWeight":[[-0.37817898392677307],[-0.5195310115814209],[-0.6193691492080688],[0.05200544372200966],[0.026280345395207405],[0.8190307021141052],[-1.4133596420288086],[-1.1154707670211792],[-1.2669779062271118],[-1.8071352243423462],[-1.4361183643341064],[-1.5857408046722412],[-1.1142497062683105],[-1.1792110204696655],[-1.6072864532470703]],"matrixHiddenWeight":[[[-1.14873206615448],[-1.1900913715362549]],[[-0.3133893311023712],[-0.09578897058963776]],[[-0.6112396717071533],[-0.934673011302948]],[[0.8100302219390869],[0.42528799176216125]],[[-0.09794352203607559],[0.7811499238014221]],[[-0.14092369377613068],[0.022077804431319237]],[[-1.5873514413833618],[-1.380043625831604]],[[-2.0001587867736816],[-1.7523900270462036]],[[-1.497511863708496],[-1.7193580865859985]],[[-1.6894968748092651],[-1.2994056940078735]],[[-1.1178878545761108],[-1.248067855834961]],[[-1.5420033931732178],[-1.0352472066879272]],[[-1.1417423486709595],[-1.6837539672851562]],[[-1.2436267137527466],[-0.6204097867012024]],[[-1.3354400396347046],[-1.2030589580535889]]],"Bias":0,"Activation":"sigmoid","hiddenLayers":2,"dense":false,"divMulI":2200,"divMulO":20},{"Inputs":[0.06568627804517746,0.054411765187978745,0.05980392172932625,0.08186274766921997,0.08382353186607361,0.10000000149011612,0.019607843831181526,0.01568627543747425,0.020098039880394936,0.04019607976078987,0.022549020126461983,0.022058824077248573,0.08529412001371384,0.08039215952157974,0.08627451211214066],"arrInputWeight":[[-1.2544786930084229],[-0.7185271382331848],[-0.803817868232727],[-1.2747459411621094],[-1.0864659547805786],[-2.415587902069092],[0.34938496351242065],[-0.13584017753601074],[-0.28860175609588623],[-0.22227632999420166],[0.2662477493286133],[-0.1746264100074768],[-1.4429048299789429],[-1.4680793285369873],[-1.5295358896255493]],"matrixHiddenWeight":[[[-0.8462504148483276],[-1.0333614349365234]],[[-1.227537751197815],[-0.9068449139595032]],[[-0.88639897108078],[-0.7907310724258423]],[[-1.885711908340454],[-1.4764323234558105]],[[-1.4864228963851929],[-2.0244174003601074]],[[-1.6567226648330688],[-1.9916212558746338]],[[0.0229947566986084],[0.44235754013061523]],[[0.5771499872207642],[-0.14114604890346527]],[[0.09070389717817307],[0.15593497455120087]],[[-0.8585411310195923],[-0.8805849552154541]],[[0.05880901962518692],[0.39116957783699036]],[[0.40248462557792664],[0.30642667412757874]],[[-1.2190498113632202],[-1.6435647010803223]],[[-1.6799652576446533],[-1.0699081420898438]],[[-1.4747658967971802],[-1.1654454469680786]]],"Bias":0,"Activation":"sigmoid","hiddenLayers":2,"dense":false,"divMulI":2040,"divMulO":20},{"Inputs":[0.08136363327503204,0.058636363595724106,0.05045454576611519,0.022272726520895958,0.015454545617103577,0.013636363670229912,0.0949999988079071,0.09272727370262146,0.10000000149011612,0.0490909107029438,0.023636363446712494,0.015454545617103577,0.058636363595724106,0.034090910106897354,0.01727272756397724],"arrInputWeight":[[-1.882473111152649],[-0.6800473928451538],[-1.0574156045913696],[0.024359365925192833],[-0.12174972891807556],[0.23302008211612701],[-2.290100574493408],[-2.0347933769226074],[-1.5020345449447632],[-0.9594396948814392],[-0.10568901896476746],[0.08697131276130676],[-1.280035376548767],[-0.11123988032341003],[-0.031451016664505005]],"matrixHiddenWeight":[[[-1.6009057760238647],[-1.9677317142486572]],[[-0.8960943222045898],[-1.3237981796264648]],[[-0.24748678505420685],[-1.0102980136871338]],[[-0.5393885374069214],[0.28894245624542236]],[[0.028708375990390778],[0.5781717300415039]],[[-0.1130644679069519],[0.1689826399087906]],[[-1.5048792362213135],[-1.7584049701690674]],[[-2.1027445793151855],[-1.280324935913086]],[[-1.8229097127914429],[-1.6426349878311157]],[[-0.5954667329788208],[-0.8468269109725952]],[[-0.18584120273590088],[0.35132479667663574]],[[0.5819246172904968],[0.2894013822078705]],[[-1.1660207509994507],[-1.1895368099212646]],[[-0.3282509744167328],[0.08161502331495285]],[[0.3455888330936432],[-0.13550058007240295]]],"Bias":0,"Activation":"sigmoid","hiddenLayers":2,"dense":false,"divMulI":2200,"divMulO":20},{"Inputs":[0.10000000149011612,0.08803828060626984,0.08373206108808517,0.02966507151722908,0.0181818176060915,0.015311004593968391,0.050239235162734985,0.027751196175813675,0.023923445492982864,0.0755980834364891,0.04928229749202728,0.04401914030313492,0.06459330022335052,0.03923444822430611,0.03014354035258293],"arrInputWeight":[[-2.2642974853515625],[-1.2694445848464966],[-1.7277460098266602],[-0.07813078165054321],[-0.20850667357444763],[-0.099807009100914],[-0.6920617818832397],[-0.626336932182312],[0.34730544686317444],[-1.6312240362167358],[-0.9659087061882019],[-0.8662053942680359],[-0.829247772693634],[-0.4494231343269348],[0.004140435252338648]],"matrixHiddenWeight":[[[-2.2205138206481934],[-2.296534299850464]],[[-2.0162107944488525],[-1.5896717309951782]],[[-1.7886595726013184],[-1.133958339691162]],[[0.07211893796920776],[-0.4609006941318512]],[[0.10197240114212036],[0.5356523990631104]],[[0.0004942384548485279],[-0.25550320744514465]],[[-0.9254566431045532],[-0.2908868193626404]],[[-0.19825491309165955],[0.10956317186355591]],[[0.25264081358909607],[0.3138684928417206]],[[-1.5389689207077026],[-1.6416735649108887]],[[-0.7747266888618469],[-0.8414108157157898]],[[-0.1250682920217514],[-0.19311341643333435]],[[-0.6939488649368286],[-1.1390652656555176]],[[-0.1745242327451706],[-0.8635077476501465]],[[-0.6104287505149841],[-0.5785114765167236]]],"Bias":0,"Activation":"sigmoid","hiddenLayers":2,"dense":false,"divMulI":2090,"divMulO":20},{"Inputs":[0.027149321511387825,0.020361991599202156,0.0194570142775774,0.10000000149011612,0.08959276229143143,0.0882352963089943,0.07058823853731155,0.04796380177140236,0.04162896052002907,0.07737556844949722,0.07692307978868484,0.0778280571103096,0.07194570451974869,0.06877828389406204,0.07239819318056107],"arrInputWeight":[[0.3123188614845276],[-0.3727009892463684],[-0.17038944363594055],[-2.0438742637634277],[-1.1823066473007202],[-1.3726048469543457],[-0.9067971110343933],[-0.9457638263702393],[-0.4601469337940216],[-1.0600959062576294],[-1.780045747756958],[-1.6140320301055908],[-1.4155348539352417],[-0.8697896003723145],[-1.3420000076293945]],"matrixHiddenWeight":[[[0.21859368681907654],[0.3149814307689667]],[[-0.3993915319442749],[0.132687509059906]],[[0.4727151393890381],[0.4980410635471344]],[[-1.7447057962417603],[-1.740934133529663]],[[-1.4495203495025635],[-1.6758649349212646]],[[-1.2134755849838257],[-1.9880505800247192]],[[-1.2152029275894165],[-1.544022560119629]],[[-0.2464982569217682],[-0.8035633563995361]],[[-0.5677530765533447],[-0.837315559387207]],[[-1.1884183883666992],[-1.5403333902359009]],[[-1.2428665161132812],[-1.0281596183776855]],[[-1.261151671409607],[-1.7710820436477661]],[[-0.7805721759796143],[-1.2926944494247437]],[[-0.7198716998100281],[-1.144495964050293]],[[-1.1860185861587524],[-1.1967710256576538]]],"Bias":0,"Activation":"sigmoid","hiddenLayers":2,"dense":false,"divMulI":2210,"divMulO":20},{"Inputs":[0.10000000149011612,0.09155555814504623,0.08799999952316284,0.02755555510520935,0.028888888657093048,0.012888888828456402,0.052444443106651306,0.03466666489839554,0.02800000086426735,0.07333333045244217,0.058222223073244095,0.05111110955476761,0.0533333346247673,0.047555554658174515,0.03200000151991844],"arrInputWeight":[[-2.067600727081299],[-1.7864359617233276],[-2.15488862991333],[-0.17253124713897705],[0.20801801979541779],[0.07912184298038483],[-0.7622730731964111],[-0.795282781124115],[-0.058532509952783585],[-1.5554440021514893],[-1.2567195892333984],[-0.7644619941711426],[-0.39090418815612793],[-0.3829343914985657],[-0.36485201120376587]],"matrixHiddenWeight":[[[-2.1175365447998047],[-1.7028175592422485]],[[-1.3725227117538452],[-1.5843921899795532]],[[-1.9589228630065918],[-1.718097448348999]],[[-0.048283305019140244],[0.2784992456436157]],[[-0.6991467475891113],[-0.5857698321342468]],[[0.016380341723561287],[0.6638669967651367]],[[-1.3376286029815674],[-0.8629730939865112]],[[-0.41628071665763855],[0.10141020268201828]],[[0.031072696670889854],[0.21763217449188232]],[[-1.389357328414917],[-1.822624683380127]],[[-1.1938962936401367],[-0.6762485504150391]],[[-0.8502245545387268],[-0.6933506727218628]],[[-1.1596875190734863],[-1.3494809865951538]],[[-0.7750975489616394],[-1.2218319177627563]],[[-0.2962840497493744],[-0.33364176750183105]]],"Bias":0,"Activation":"sigmoid","hiddenLayers":2,"dense":false,"divMulI":2250,"divMulO":20},{"Inputs":[0.10000000149011612,0.09428571164608002,0.09238095581531525,0.02666666731238365,0.015714285895228386,0.012380952015519142,0.0776190459728241,0.06428571790456772,0.05666666850447655,0.08142857253551483,0.0533333346247673,0.03857142850756645,0.06285714358091354,0.03761904686689377,0.02666666731238365],"arrInputWeight":[[-2.040170669555664],[-1.430960774421692],[-2.0835928916931152],[0.1268715262413025],[0.40700262784957886],[-0.26856210827827454],[-1.2219370603561401],[-0.5667467713356018],[-0.8434916138648987],[-1.2016315460205078],[-0.6302914023399353],[-0.664398729801178],[-0.8414859771728516],[-0.3386407196521759],[-0.5850304365158081]],"matrixHiddenWeight":[[[-1.3253766298294067],[-2.1835219860076904]],[[-1.6596261262893677],[-1.8063573837280273]],[[-1.7550106048583984],[-1.898484468460083]],[[0.3746773302555084],[-0.41285207867622375]],[[0.024150488898158073],[0.5878366827964783]],[[-0.2622552514076233],[-0.21833178400993347]],[[-1.1488674879074097],[-1.1574668884277344]],[[-1.1438511610031128],[-0.4934980273246765]],[[-0.6947330832481384],[-1.0071711540222168]],[[-1.8191566467285156],[-1.5685056447982788]],[[-0.9702585339546204],[-0.5252795815467834]],[[-0.005314533598721027],[-0.1403607279062271]],[[-1.340571641921997],[-1.2820885181427002]],[[-0.7579910755157471],[-0.10594825446605682]],[[0.29302898049354553],[-0.2342572808265686]]],"Bias":0,"Activation":"sigmoid","hiddenLayers":2,"dense":false,"divMulI":2100,"divMulO":30},{"Inputs":[0.10000000149011612,0.09863636642694473,0.09772727638483047,0.022272726520895958,0.015909090638160706,0.014999999664723873,0.08090908825397491,0.05636363476514816,0.04318181797862053,0.05999999865889549,0.03999999910593033,0.030909091234207153,0.06590908765792847,0.06272727251052856,0.06136363744735718],"arrInputWeight":[[-1.7190282344818115],[-1.510560154914856],[-2.0826170444488525],[-0.5080065131187439],[0.4967971742153168],[0.326147198677063],[-1.4135724306106567],[-1.2787209749221802],[-0.9464865326881409],[-0.718429446220398],[-0.5567476749420166],[-0.6902675628662109],[-1.045753002166748],[-0.6829060316085815],[-0.6569569706916809]],"matrixHiddenWeight":[[[-2.103956699371338],[-1.5219594240188599]],[[-1.437243938446045],[-2.1126198768615723]],[[-2.1249594688415527],[-1.557910442352295]],[[0.18236765265464783],[-0.3673960566520691]],[[0.3389761745929718],[0.16884608566761017]],[[0.21817824244499207],[0.2415432333946228]],[[-1.3337481021881104],[-1.7431421279907227]],[[-0.40745076537132263],[-1.1939325332641602]],[[-0.5466485619544983],[-0.4453122019767761]],[[-0.637481153011322],[-0.8555972576141357]],[[-0.5493068099021912],[-0.6448251605033875]],[[-0.5937585234642029],[-0.3906732499599457]],[[-1.10234797000885],[-1.0322500467300415]],[[-1.1252514123916626],[-1.3174395561218262]],[[-0.9517242312431335],[-1.0394362211227417]]],"Bias":0,"Activation":"sigmoid","hiddenLayers":2,"dense":false,"divMulI":2200,"divMulO":30},{"Inputs":[0.08355555683374405,0.06044444441795349,0.04977777600288391,0.10000000149011612,0.09600000083446503,0.09511110931634903,0.019111111760139465,0.013333333656191826,0.012888888828456402,0.04977777600288391,0.02800000086426735,0.02266666665673256,0.058666665107011795,0.03377777710556984,0.02311111055314541],"arrInputWeight":[[-1.732842206954956],[-1.1388370990753174],[-1.0492910146713257],[-2.1307272911071777],[-1.5439001321792603],[-1.5634580850601196],[0.4577571749687195],[-0.2271130532026291],[0.07353092730045319],[-1.1104570627212524],[0.09762971103191376],[0.3443357050418854],[-1.3972960710525513],[-0.12200682610273361],[-0.2019834965467453]],"matrixHiddenWeight":[[[-1.769106388092041],[-1.6547367572784424]],[[-1.1036099195480347],[-0.8457432985305786]],[[-0.34607401490211487],[-0.6540496945381165]],[[-1.9404239654541016],[-1.5494203567504883]],[[-1.7640842199325562],[-1.9734514951705933]],[[-2.2230608463287354],[-1.4205725193023682]],[[-0.27427971363067627],[0.056850872933864594]],[[0.11681979894638062],[0.02942463755607605]],[[-0.10446600615978241],[-0.07287843525409698]],[[-0.38656216859817505],[-0.5303136706352234]],[[-0.0048881517723202705],[-0.6301267147064209]],[[0.03198204189538956],[-0.3615170419216156]],[[-0.704551637172699],[-1.1591981649398804]],[[-0.7967990636825562],[-0.10149692744016647]],[[0.3012652099132538],[-0.45078304409980774]]],"Bias":0,"Activation":"sigmoid","hiddenLayers":2,"dense":false,"divMulI":2250,"divMulO":30},{"Inputs":[0.03105263225734234,0.026842106133699417,0.028947368264198303,0.09421052783727646,0.08315789699554443,0.07894736528396606,0.06894736737012863,0.04684210568666458,0.038947369903326035,0.07473684102296829,0.08947368711233139,0.10000000149011612,0.06052631512284279,0.07578947395086288,0.0889473706483841],"arrInputWeight":[[-0.05319260060787201],[-0.0021429043263196945],[-0.056184157729148865],[-1.7095075845718384],[-0.940742552280426],[-1.3075737953186035],[-1.5737004280090332],[-0.19410879909992218],[-0.33109810948371887],[-0.7974830865859985],[-1.3290044069290161],[-1.9176665544509888],[-0.42543819546699524],[-1.0207616090774536],[-1.3905353546142578]],"matrixHiddenWeight":[[[-0.137609601020813],[-0.090021513402462]],[[0.19069381058216095],[0.010530354455113411]],[[0.02194305881857872],[-0.4964098036289215]],[[-1.213455080986023],[-2.1202356815338135]],[[-1.7411818504333496],[-1.7651323080062866]],[[-1.1219984292984009],[-1.4831196069717407]],[[-1.1640630960464478],[-1.4454500675201416]],[[-0.8022239208221436],[-0.5504612922668457]],[[-0.7286593317985535],[-0.3764772415161133]],[[-0.9594541788101196],[-0.9734329581260681]],[[-1.3767740726470947],[-1.7653056383132935]],[[-1.9430707693099976],[-1.3445682525634766]],[[-1.1546905040740967],[-0.5493297576904297]],[[-1.2695671319961548],[-0.8470094799995422]],[[-1.199244499206543],[-1.6351553201675415]]],"Bias":0,"Activation":"sigmoid","hiddenLayers":2,"dense":false,"divMulI":1900,"divMulO":30},{"Inputs":[0.061883408576250076,0.060538116842508316,0.06278026849031448,0.022421523928642273,0.013452914543449879,0.010762332007288933,0.10000000149011612,0.07399103045463562,0.06636771559715271,0.04439461976289749,0.021524664014577866,0.0197309423238039,0.04887892305850983,0.033183857798576355,0.02466367743909359],"arrInputWeight":[[-0.9761360883712769],[-0.9043914675712585],[-0.9314724206924438],[-0.3493964374065399],[-0.09873656183481216],[0.02756383828818798],[-2.543910026550293],[-1.7604613304138184],[-1.6641172170639038],[-0.9373525977134705],[-0.11129500716924667],[0.2924138903617859],[-0.9895004630088806],[0.006646718829870224],[0.09847699105739594]],"matrixHiddenWeight":[[[-0.8081045150756836],[-0.8434533476829529]],[[-1.5257623195648193],[-1.5598993301391602]],[[-1.559934139251709],[-1.154102087020874]],[[-0.06333489716053009],[-0.325313538312912]],[[0.5040464401245117],[0.3965539336204529]],[[0.24915605783462524],[-0.2776782810688019]],[[-2.394845485687256],[-2.4008240699768066]],[[-1.3524636030197144],[-1.2040271759033203]],[[-1.1025484800338745],[-1.6123278141021729]],[[-0.9328370690345764],[-0.9439956545829773]],[[-0.3321606516838074],[0.22019188106060028]],[[0.049544308334589005],[0.40206360816955566]],[[-0.5462363958358765],[-0.6975230574607849]],[[-0.4114873707294464],[-0.06760194897651672]],[[-0.3934350609779358],[-0.15135520696640015]]],"Bias":0,"Activation":"sigmoid","hiddenLayers":2,"dense":false,"divMulI":2230,"divMulO":30},{"Inputs":[0.07149122655391693,0.06578947603702545,0.06271930038928986,0.020614035427570343,0.017105262726545334,0.016228070482611656,0.09561403840780258,0.09692982584238052,0.10000000149011612,0.05219298228621483,0.03728070110082626,0.0271929819136858,0.04254385828971863,0.026754386723041534,0.020614035427570343],"arrInputWeight":[[-0.6932560801506042],[-0.8654860258102417],[-1.2909890413284302],[0.4126482903957367],[-0.17697200179100037],[-0.09019980579614639],[-1.4074090719223022],[-1.6130534410476685],[-2.2392101287841797],[-0.6064928770065308],[-0.5801516175270081],[0.07471291720867157],[-0.9821332693099976],[-0.558610737323761],[-0.27434876561164856]],"matrixHiddenWeight":[[[-0.9989268183708191],[-0.7772961854934692]],[[-1.3617688417434692],[-0.8446840047836304]],[[-0.5038285255432129],[-0.8669754266738892]],[[0.4947235584259033],[0.4481479823589325]],[[0.13374191522598267],[-0.37356048822402954]],[[0.24944725632667542],[0.5249366760253906]],[[-2.129730224609375],[-2.0453670024871826]],[[-2.175489902496338],[-1.5313585996627808]],[[-1.8710806369781494],[-2.1794285774230957]],[[-1.0698471069335938],[-1.1980313062667847]],[[0.11285533756017685],[-0.2370121330022812]],[[-0.04625198617577553],[-0.2451528012752533]],[[-0.34608137607574463],[-0.40902236104011536]],[[-0.014601171016693115],[-0.19371646642684937]],[[-0.3392420709133148],[-0.2322014719247818]]],"Bias":0,"Activation":"sigmoid","hiddenLayers":2,"dense":false,"divMulI":2280,"divMulO":30},{"Inputs":[0.08884461969137192,0.0605577677488327,0.04780876636505127,0.10000000149011612,0.10000000149011612,0.10000000149011612,0.08286852389574051,0.026693226769566536,0.0247011948376894,0.06852589547634125,0.038247011601924896,0.02629482001066208,0.05896414443850517,0.04462151229381561,0.036653388291597366],"arrInputWeight":[[-1.4614683389663696],[-0.47612571716308594],[-0.5861466526985168],[-2.000927209854126],[-1.2735013961791992],[-1.4092661142349243],[-1.1284511089324951],[-0.5441298484802246],[0.31219542026519775],[-0.6255097389221191],[-0.517815113067627],[-0.46868595480918884],[-0.7962716221809387],[-0.6276589035987854],[-0.034713029861450195]],"matrixHiddenWeight":[[[-1.5063706636428833],[-1.8799954652786255]],[[-0.5748476386070251],[-0.798458993434906]],[[-0.41197189688682556],[-0.4966605603694916]],[[-1.6866493225097656],[-2.00571346282959]],[[-1.6939237117767334],[-1.9637287855148315]],[[-1.4071866273880005],[-2.190974473953247]],[[-1.021902322769165],[-1.331770896911621]],[[-0.36999931931495667],[0.07125037163496017]],[[0.41152632236480713],[-0.10402674973011017]],[[-1.4461849927902222],[-1.4175609350204468]],[[-0.33488374948501587],[-0.6493395566940308]],[[0.12395261973142624],[-0.4582671523094177]],[[-0.7150191068649292],[-1.1817305088043213]],[[-0.8358301520347595],[-0.9771483540534973]],[[-0.5097257494926453],[-0.1381990909576416]]],"Bias":0,"Activation":"sigmoid","hiddenLayers":2,"dense":false,"divMulI":2510,"divMulO":30},{"Inputs":[0.10000000149011612,0.0822727307677269,0.07954545319080353,0.023636363446712494,0.011363636702299118,0.009545454755425453,0.06272727251052856,0.034090910106897354,0.026818182319402695,0.07500000298023224,0.04545454680919647,0.03454545512795448,0.06545454263687134,0.05045454576611519,0.04954545572400093],"arrInputWeight":[[-2.1355185508728027],[-1.5979210138320923],[-1.84964120388031],[-0.07283162325620651],[0.12335410714149475],[0.021322935819625854],[-0.7807691097259521],[-0.4638553261756897],[-0.5439764261245728],[-1.6605398654937744],[-0.8902368545532227],[-0.0022736594546586275],[-1.6672941446304321],[-0.9755338430404663],[-0.9024927020072937]],"matrixHiddenWeight":[[[-1.8240212202072144],[-1.9546657800674438]],[[-1.9015300273895264],[-1.8646364212036133]],[[-1.9247032403945923],[-1.8293205499649048]],[[-0.38840898871421814],[0.37624481320381165]],[[0.14718595147132874],[0.2824562191963196]],[[-0.1256716251373291],[-0.010627426207065582]],[[-0.7667333483695984],[-1.604063868522644]],[[-0.7731949090957642],[-0.24289917945861816]],[[-0.030575763434171677],[0.2548667788505554]],[[-1.0967596769332886],[-1.3594117164611816]],[[-0.3428555727005005],[-1.0611348152160645]],[[-0.21170662343502045],[-0.7624589800834656]],[[-1.3473398685455322],[-0.9765605330467224]],[[-1.2854454517364502],[-0.4470371901988983]],[[-1.1642893552780151],[-0.4359782338142395]]],"Bias":0,"Activation":"sigmoid","hiddenLayers":2,"dense":false,"divMulI":2200,"divMulO":30},{"Inputs":[0.07731092721223831,0.0676470622420311,0.06050420179963112,0.01638655550777912,0.03991596773266792,0.052941177040338516,0.07436975091695786,0.09327731281518936,0.10000000149011612,0.04159663990139961,0.045378152281045914,0.025630252435803413,0.04159663990139961,0.02857142873108387,0.02478991635143757],"arrInputWeight":[[-1.8032313585281372],[-1.1036850214004517],[-1.0262782573699951],[-0.25727808475494385],[-0.15358377993106842],[-1.1332529783248901],[-1.6713755130767822],[-2.229663610458374],[-1.9004627466201782],[-0.4383290112018585],[-0.2960861921310425],[0.24891045689582825],[-0.2978467643260956],[-0.2805253863334656],[-0.0459347628057003]],"matrixHiddenWeight":[[[-1.4495890140533447],[-1.3566579818725586]],[[-1.1281105279922485],[-1.3500663042068481]],[[-1.2896091938018799],[-1.0558840036392212]],[[0.4327039122581482],[0.3152686655521393]],[[-0.4303140342235565],[-0.8326123356819153]],[[-1.1300297975540161],[-0.5597560405731201]],[[-1.566699504852295],[-1.0172556638717651]],[[-1.8168137073516846],[-1.8609899282455444]],[[-2.092203378677368],[-1.9690533876419067]],[[-0.6514452695846558],[-0.21421010792255402]],[[-0.7618788480758667],[-0.11264946311712265]],[[-0.035163234919309616],[-0.30155009031295776]],[[-0.1442578285932541],[-0.9733359813690186]],[[-0.08630141615867615],[-0.5666075944900513]],[[-0.30672454833984375],[0.3524320125579834]]],"Bias":0,"Activation":"sigmoid","hiddenLayers":2,"dense":false,"divMulI":2380,"divMulO":30},{"Inputs":[0.05603448301553726,0.037931036204099655,0.03232758492231369,0.10000000149011612,0.0974137932062149,0.09525862336158752,0.014224138110876083,0.00732758641242981,0.00732758641242981,0.08965517580509186,0.06594827771186829,0.05215517058968544,0.0840517207980156,0.07672413438558578,0.07413793355226517],"arrInputWeight":[[-0.5489984154701233],[-0.6521559953689575],[0.06479035317897797],[-1.756142497062683],[-1.412951111793518],[-1.2544084787368774],[-0.2372431457042694],[-0.11812834441661835],[0.03325067088007927],[-1.5894302129745483],[-1.0956897735595703],[-0.18590545654296875],[-1.2239245176315308],[-1.1446057558059692],[-1.2470228672027588]],"matrixHiddenWeight":[[[-1.0355327129364014],[-0.8536496758460999]],[[-0.11585234850645065],[-0.4513806402683258]],[[-0.03367674723267555],[0.06243240088224411]],[[-1.559275507926941],[-1.9139455556869507]],[[-1.77362859249115],[-2.0384416580200195]],[[-1.6896742582321167],[-1.8395121097564697]],[[0.43124857544898987],[0.5056772232055664]],[[0.5447004437446594],[0.16620521247386932]],[[0.7526466846466064],[0.42896145582199097]],[[-1.7222942113876343],[-1.2519898414611816]],[[-1.1744717359542847],[-1.353723168373108]],[[-0.7694835066795349],[-0.8756638169288635]],[[-1.496144413948059],[-1.1863116025924683]],[[-0.8076359033584595],[-0.7439111471176147]],[[-1.074873685836792],[-1.1759345531463623]]],"Bias":0,"Activation":"sigmoid","hiddenLayers":2,"dense":false,"divMulI":2320,"divMulO":30},{"Inputs":[0.09890710562467575,0.10000000149011612,0.09890710562467575,0.01803278736770153,0.04918032884597778,0.062295082956552505,0.05027322471141815,0.03497267886996269,0.025136612355709076,0.053005464375019073,0.07486338913440704,0.08579234778881073,0.0726775974035263,0.05355191230773926,0.040437158197164536],"arrInputWeight":[[-1.844210147857666],[-1.617142915725708],[-1.6266132593154907],[0.01588543877005577],[-0.19430002570152283],[-0.715317964553833],[-0.20685528218746185],[0.19934359192848206],[0.19809292256832123],[-0.9200889468193054],[-1.4026610851287842],[-0.8918935060501099],[-1.391432523727417],[-0.10306742042303085],[-0.36441391706466675]],"matrixHiddenWeight":[[[-1.877013921737671],[-1.8951139450073242]],[[-1.9312635660171509],[-1.931200623512268]],[[-1.6171036958694458],[-1.928059458732605]],[[0.3630901873111725],[0.23074474930763245]],[[-0.9267470240592957],[-0.9202943444252014]],[[-0.2914727032184601],[-1.1094720363616943]],[[-0.4774630665779114],[-0.9692930579185486]],[[-0.10010546445846558],[0.01808813586831093]],[[-0.07154490053653717],[-0.46028563380241394]],[[-0.6833736300468445],[-0.48181116580963135]],[[-1.4072242975234985],[-1.08335280418396]],[[-1.422706127166748],[-1.6684679985046387]],[[-0.6581536531448364],[-0.9055323600769043]],[[-0.5256735682487488],[-0.2952297329902649]],[[-0.5015056729316711],[-0.43814611434936523]]],"Bias":0,"Activation":"sigmoid","hiddenLayers":2,"dense":false,"divMulI":1830,"divMulO":30},{"Inputs":[0.10000000149011612,0.09458128362894058,0.09458128362894058,0.031034482643008232,0.03842364624142647,0.03891625627875328,0.0674876868724823,0.055665023624897,0.0635467991232872,0.054187193512916565,0.03891625627875328,0.043842364102602005,0.05763546749949455,0.06059113144874573,0.03842364624142647],"arrInputWeight":[[-1.8966737985610962],[-1.5408339500427246],[-1.7924467325210571],[-0.6125852465629578],[0.03527133911848068],[-0.6841735243797302],[-0.8749988079071045],[-1.0662567615509033],[-1.3938120603561401],[-0.8554773926734924],[-0.04414572939276695],[-0.5205810070037842],[-0.6783065795898438],[-0.6179252862930298],[-0.9318448901176453]],"matrixHiddenWeight":[[[-1.788774847984314],[-1.9674664735794067]],[[-2.102400541305542],[-1.8368645906448364]],[[-2.252148151397705],[-1.663653016090393]],[[-0.6944594383239746],[-0.36814039945602417]],[[-0.7539677023887634],[-0.01648043654859066]],[[-0.9099482297897339],[-0.43276137113571167]],[[-0.8143807649612427],[-1.4041005373001099]],[[-0.49924713373184204],[-1.0983811616897583]],[[-1.0300307273864746],[-1.4207695722579956]],[[-0.47742247581481934],[-1.1779154539108276]],[[-0.4331555962562561],[-0.6043768525123596]],[[-0.271867960691452],[-0.8322324752807617]],[[-0.5427880883216858],[-1.169394612312317]],[[-0.9048927426338196],[-0.9024698138237]],[[-0.6885048747062683],[-0.21109892427921295]]],"Bias":0,"Activation":"sigmoid","hiddenLayers":2,"dense":false,"divMulI":2030,"divMulO":30},{"Inputs":[0.08140496164560318,0.06115702539682388,0.05000000074505806,0.014462810009717941,0.009504131972789764,0.00826446246355772,0.04876033216714859,0.021900827065110207,0.013223140500485897,0.10000000149011612,0.09504131972789764,0.09090909361839294,0.06198346987366676,0.03305784985423088,0.020247934386134148],"arrInputWeight":[[-1.5061551332473755],[-1.2047516107559204],[-0.6855913400650024],[0.19728726148605347],[0.23860521614551544],[-0.03390653431415558],[-0.9627751708030701],[0.0884704664349556],[0.24802565574645996],[-1.493147850036621],[-1.94618558883667],[-1.9760862588882446],[-0.7972374558448792],[-0.6172114610671997],[-0.14077353477478027]],"matrixHiddenWeight":[[[-1.7267675399780273],[-1.081580638885498]],[[-0.8803461194038391],[-1.400336503982544]],[[-0.36331045627593994],[-1.0684492588043213]],[[0.19697248935699463],[0.5020408630371094]],[[0.630655825138092],[0.19803152978420258]],[[0.06732439994812012],[-0.05524885654449463]],[[-0.7697457671165466],[-0.8771718144416809]],[[-0.126971036195755],[-0.4758591949939728]],[[0.6659334897994995],[-0.003534195013344288]],[[-1.5820765495300293],[-1.5399245023727417]],[[-2.1909172534942627],[-2.357722759246826]],[[-1.344525933265686],[-1.958614468574524]],[[-1.0720621347427368],[-0.8073175549507141]],[[-0.5732591152191162],[-0.3477785289287567]],[[0.23531901836395264],[0.0519760362803936]]],"Bias":0,"Activation":"sigmoid","hiddenLayers":2,"dense":false,"divMulI":2420,"divMulO":30},{"Inputs":[0.014170040376484394,0.005668016150593758,0.005668016150593758,0.10000000149011612,0.09554655849933624,0.09271255135536194,0.050607286393642426,0.015789473429322243,0.013765182346105576,0.0801619440317154,0.052226722240448,0.03724696487188339,0.052226722240448,0.05141700431704521,0.05263157933950424],"arrInputWeight":[[0.052602749317884445],[0.4243564009666443],[0.3359997868537903],[-1.976286768913269],[-1.4382779598236084],[-2.010471820831299],[-0.5581311583518982],[0.542421817779541],[0.648914635181427],[-1.8447014093399048],[-0.7229470014572144],[-0.014169183559715748],[-1.165433645248413],[-0.9976832270622253],[-0.8181484341621399]],"matrixHiddenWeight":[[[-0.11707703769207001],[0.5487799644470215]],[[0.6051175594329834],[0.6116698980331421]],[[0.5094419717788696],[0.5455714464187622]],[[-1.7725502252578735],[-2.1839218139648438]],[[-1.6531704664230347],[-1.3416260480880737]],[[-2.0199124813079834],[-1.917745590209961]],[[-0.8855010271072388],[-0.2823351323604584]],[[0.18407480418682098],[0.12233439832925797]],[[-0.10192717611789703],[0.3954051733016968]],[[-1.2782654762268066],[-1.5858700275421143]],[[-0.7176999449729919],[-0.8693131804466248]],[[-0.043701715767383575],[0.13328440487384796]],[[-0.407417893409729],[-0.27763277292251587]],[[-1.036370038986206],[-0.739830732345581]],[[-0.933979868888855],[-0.8934456706047058]]],"Bias":0,"Activation":"sigmoid","hiddenLayers":2,"dense":false,"divMulI":2470,"divMulO":30},{"Inputs":[0.053960397839546204,0.030693069100379944,0.02326732687652111,0.10000000149011612,0.08564356714487076,0.07574257254600525,0.012376237660646439,0.007425742689520121,0.005940594244748354,0.08811881393194199,0.07524752616882324,0.06534653156995773,0.07574257254600525,0.06930693238973618,0.06930693238973618],"arrInputWeight":[[-0.7224187254905701],[-0.2950555086135864],[0.4016050696372986],[-1.5738589763641357],[-2.0108885765075684],[-1.409972071647644],[0.5883530974388123],[0.43665027618408203],[0.8495205640792847],[-1.7139955759048462],[-0.9828602075576782],[-0.6747843027114868],[-1.8134034872055054],[-1.5831130743026733],[-1.6969205141067505]],"matrixHiddenWeight":[[[-0.9386368989944458],[-1.0525518655776978]],[[-0.6344793438911438],[0.1925995796918869]],[[-0.37046557664871216],[0.2988318204879761]],[[-2.2778098583221436],[-1.7232959270477295]],[[-1.6769897937774658],[-1.294634222984314]],[[-1.0080280303955078],[-1.354419469833374]],[[0.32993414998054504],[-0.28501462936401367]],[[0.4763980507850647],[0.6666730642318726]],[[0.24931949377059937],[0.8162453174591064]],[[-2.0382046699523926],[-1.1969839334487915]],[[-1.5072001218795776],[-1.035367488861084]],[[-1.5293272733688354],[-1.4052187204360962]],[[-1.3086776733398438],[-0.9899225234985352]],[[-1.1007598638534546],[-1.2823386192321777]],[[-0.7285163998603821],[-1.3663287162780762]]],"Bias":0,"Activation":"sigmoid","hiddenLayers":2,"dense":false,"divMulI":2020,"divMulO":30},{"Inputs":[0.10000000149011612,0.09959839284420013,0.09959839284420013,0.021686747670173645,0.028915662318468094,0.03815260902047157,0.05783132463693619,0.04176706820726395,0.03935743123292923,0.07590361684560776,0.055020079016685486,0.046987950801849365,0.04658634588122368,0.06586345285177231,0.08152610808610916],"arrInputWeight":[[-2.1756086349487305],[-1.522533893585205],[-1.6653920412063599],[-0.3397214114665985],[0.1231711208820343],[0.05108676850795746],[-0.8159432411193848],[-0.5615873336791992],[-0.7115185856819153],[-1.5563879013061523],[-0.4218851327896118],[-0.786561131477356],[-0.5270418524742126],[-1.2109330892562866],[-1.6335917711257935]],"matrixHiddenWeight":[[[-1.7862755060195923],[-1.8140238523483276]],[[-2.3187763690948486],[-1.4840155839920044]],[[-1.8891024589538574],[-1.6494576930999756]],[[-0.34688717126846313],[0.41678890585899353]],[[-0.27219390869140625],[-0.3786742687225342]],[[-0.2891824543476105],[-0.4657679498195648]],[[-0.9941345453262329],[-0.5813717842102051]],[[-0.4495466649532318],[-0.8906924724578857]],[[-0.5510860085487366],[-0.20422911643981934]],[[-0.8695008754730225],[-1.6403602361679077]],[[-0.400063693523407],[-0.5374487638473511]],[[-0.964006781578064],[-0.46494024991989136]],[[-0.2040238082408905],[-0.9132087230682373]],[[-0.8254566192626953],[-1.1805158853530884]],[[-1.059493064880371],[-1.0601588487625122]]],"Bias":0,"Activation":"sigmoid","hiddenLayers":2,"dense":false,"divMulI":2490,"divMulO":40},{"Inputs":[0.09959349781274796,0.04105691239237785,0.03211382031440735,0.09674796462059021,0.06544715166091919,0.05284553021192551,0.04796747863292694,0.01991869881749153,0.009756097570061684,0.0630081295967102,0.015447154641151428,0.007723577320575714,0.10000000149011612,0.06016260012984276,0.056910570710897446],"arrInputWeight":[[-1.9615482091903687],[-0.1033564954996109],[-0.6159094572067261],[-1.4689282178878784],[-0.7897959351539612],[-0.31071197986602783],[-0.3155248761177063],[0.4329396188259125],[-0.13381841778755188],[-1.1674909591674805],[-0.20154893398284912],[0.6561439037322998],[-2.1399827003479004],[-1.0331084728240967],[-0.9565872550010681]],"matrixHiddenWeight":[[[-2.2508533000946045],[-2.0292294025421143]],[[-0.9156472682952881],[-0.7537630796432495]],[[0.15556663274765015],[-0.5417875647544861]],[[-1.4537887573242188],[-1.329531192779541]],[[-1.5223392248153687],[-1.3632458448410034]],[[-0.3758140802383423],[-1.1868776082992554]],[[-0.7814916968345642],[-0.6297605633735657]],[[0.4701870381832123],[-0.4633477032184601]],[[-0.07491334527730942],[0.34422293305397034]],[[-0.5062208771705627],[-1.1217646598815918]],[[0.030995890498161316],[-0.023536019027233124]],[[-0.016093621030449867],[0.35442090034484863]],[[-2.230137825012207],[-1.6919324398040771]],[[-0.9086880683898926],[-0.44508275389671326]],[[-0.7829837799072266],[-0.8569657802581787]]],"Bias":0,"Activation":"sigmoid","hiddenLayers":2,"dense":false,"divMulI":2460,"divMulO":40},{"Inputs":[0.10000000149011612,0.09878542274236679,0.09878542274236679,0.04979757219552994,0.030364371836185455,0.025506073608994484,0.07813765108585358,0.06599190086126328,0.06315789371728897,0.07854250818490982,0.05263157933950424,0.04412955418229103,0.048178136348724365,0.05141700431704521,0.05465587228536606],"arrInputWeight":[[-2.078538179397583],[-1.8217328786849976],[-1.8653913736343384],[-0.21124161779880524],[-0.209549680352211],[0.2244422882795334],[-0.8220059871673584],[-0.5830442309379578],[-1.1221977472305298],[-1.620439052581787],[-0.33406782150268555],[-0.040798962116241455],[-0.9599536657333374],[-0.39573150873184204],[-0.7142029404640198]],"matrixHiddenWeight":[[[-1.8092323541641235],[-2.00960373878479]],[[-1.7591394186019897],[-1.566473364830017]],[[-1.6564326286315918],[-1.7592166662216187]],[[-0.29494744539260864],[-0.5112185478210449]],[[-0.36541804671287537],[-0.018045436590909958]],[[0.12477818876504898],[-0.3104799687862396]],[[-1.324715495109558],[-1.235497236251831]],[[-1.2264797687530518],[-1.0246837139129639]],[[-0.7227917909622192],[-0.9390448331832886]],[[-1.5003246068954468],[-0.8963872790336609]],[[-0.42391306161880493],[-0.8084529638290405]],[[-0.8658803701400757],[-0.6800277829170227]],[[-0.11025466024875641],[-0.2585747539997101]],[[-0.6310540437698364],[-0.3138836622238159]],[[-0.7124987244606018],[-1.0087647438049316]]],"Bias":0,"Activation":"sigmoid","hiddenLayers":2,"dense":false,"divMulI":2470,"divMulO":40},{"Inputs":[0.10000000149011612,0.09470899403095245,0.09206349402666092,0.05873015895485878,0.037566136568784714,0.028042327612638474,0.034391533583402634,0.01904761977493763,0.014814814552664757,0.07619047909975052,0.051851850003004074,0.0396825410425663,0.06560846418142319,0.05608465522527695,0.05079365149140358],"arrInputWeight":[[-1.7427095174789429],[-2.0515711307525635],[-2.3389155864715576],[-0.5210393071174622],[-0.5518920421600342],[0.19667880237102509],[0.0709286481142044],[-0.40121033787727356],[0.5836130976676941],[-1.0891114473342896],[-0.7444573044776917],[-0.5075826048851013],[-0.9880205392837524],[-0.611855149269104],[-0.9840773940086365]],"matrixHiddenWeight":[[[-2.051741123199463],[-1.7669734954833984]],[[-1.6422420740127563],[-1.7121647596359253]],[[-1.8735204935073853],[-1.6042495965957642]],[[-1.1302523612976074],[-1.4476782083511353]],[[-0.9114788174629211],[-0.019338926300406456]],[[-0.2017589658498764],[-0.08611807227134705]],[[-0.5399187803268433],[0.009906523860991001]],[[-0.39399638772010803],[-0.08821481466293335]],[[0.558463990688324],[0.1996946632862091]],[[-1.1592121124267578],[-1.4962786436080933]],[[-1.1420503854751587],[-0.3683604300022125]],[[-0.7807266116142273],[-0.4397183954715729]],[[-1.3768914937973022],[-0.7430055141448975]],[[-1.1878107786178589],[-1.028978943824768]],[[-0.9272734522819519],[-1.1417875289916992]]],"Bias":0,"Activation":"sigmoid","hiddenLayers":2,"dense":false,"divMulI":1890,"divMulO":40},{"Inputs":[0.10000000149011612,0.10000000149011612,0.0992031842470169,0.07250995934009552,0.051394421607255936,0.04023904353380203,0.09800796955823898,0.08047808706760406,0.06852589547634125,0.0820717141032219,0.06215139478445053,0.0605577677488327,0.07490039616823196,0.06533864885568619,0.06215139478445053],"arrInputWeight":[[-1.8901442289352417],[-1.7877610921859741],[-1.2218159437179565],[-1.1937843561172485],[-0.09143134951591492],[-0.3923775255680084],[-1.024661660194397],[-1.4392136335372925],[-0.422233909368515],[-0.7708160281181335],[-0.8977681398391724],[-0.41729575395584106],[-0.6195691823959351],[-1.312807321548462],[-1.1815543174743652]],"matrixHiddenWeight":[[[-2.002454996109009],[-1.8159586191177368]],[[-1.3253329992294312],[-2.022017240524292]],[[-1.4947948455810547],[-1.9137870073318481]],[[-0.9856986403465271],[-1.1084975004196167]],[[-0.6047727465629578],[-0.7950964570045471]],[[-0.06595862656831741],[-0.4717765748500824]],[[-1.0360532999038696],[-1.3341679573059082]],[[-0.7931224703788757],[-1.269458532333374]],[[-0.4717608392238617],[-1.077733039855957]],[[-1.0956432819366455],[-1.5955053567886353]],[[-0.3597989082336426],[-1.2211757898330688]],[[-1.0064644813537598],[-0.6573404669761658]],[[-0.8948807716369629],[-1.487979531288147]],[[-1.0496219396591187],[-1.0129474401474]],[[-0.33328181505203247],[-0.7203620672225952]]],"Bias":0,"Activation":"sigmoid","hiddenLayers":2,"dense":false,"divMulI":2510,"divMulO":40},{"Inputs":[0.10000000149011612,0.09037432819604874,0.08663101494312286,0.013368983753025532,0.0181818176060915,0.02299465239048004,0.07593582570552826,0.02085561491549015,0.02139037474989891,0.05454545468091965,0.05508021265268326,0.05508021265268326,0.06096256524324417,0.04438502714037895,0.03315507993102074],"arrInputWeight":[[-1.70343816280365],[-1.4511678218841553],[-2.025341033935547],[0.42886948585510254],[0.19496089220046997],[0.27040788531303406],[-1.3773449659347534],[0.09295051544904709],[0.09488794952630997],[-1.2268222570419312],[-0.932999312877655],[-0.9914196133613586],[-1.0604844093322754],[-0.8035504817962646],[-0.6503674983978271]],"matrixHiddenWeight":[[[-1.725922703742981],[-2.203117609024048]],[[-2.205033540725708],[-2.0697402954101562]],[[-1.9007693529129028],[-1.5979353189468384]],[[0.3199504315853119],[0.18366113305091858]],[[0.26104873418807983],[0.15903642773628235]],[[-0.1336764395236969],[-0.12833914160728455]],[[-1.7319642305374146],[-1.4186102151870728]],[[0.23459133505821228],[-0.26793551445007324]],[[-0.1137944832444191],[-0.34830424189567566]],[[-0.9264537692070007],[-0.8488734364509583]],[[-0.7240139842033386],[-1.2062631845474243]],[[-0.6876026391983032],[-0.767551600933075]],[[-0.5337775349617004],[-0.9329200387001038]],[[-0.4961850941181183],[-0.337815523147583]],[[-0.5040891766548157],[-0.22904306650161743]]],"Bias":0,"Activation":"sigmoid","hiddenLayers":2,"dense":false,"divMulI":1870,"divMulO":40},{"Inputs":[0.07234042882919312,0.059574469923973083,0.06468085199594498,0.01702127605676651,0.017872340977191925,0.0246808510273695,0.09702127426862717,0.10000000149011612,0.09574468433856964,0.040425531566143036,0.0191489364951849,0.015744680538773537,0.05702127516269684,0.034893617033958435,0.025957446545362473],"arrInputWeight":[[-0.937862753868103],[-0.7348383069038391],[-1.0690195560455322],[-0.1202659010887146],[0.2830837666988373],[-0.25933167338371277],[-1.7556549310684204],[-2.099508762359619],[-1.5786511898040771],[-0.42301011085510254],[0.36621472239494324],[0.26809626817703247],[-0.8140368461608887],[-0.8489560484886169],[-0.496431827545166]],"matrixHiddenWeight":[[[-1.591506004333496],[-1.425605058670044]],[[-1.234249472618103],[-0.7073864340782166]],[[-1.2628971338272095],[-0.7413581013679504]],[[-0.25140032172203064],[0.35394248366355896]],[[0.5114632248878479],[-0.3230877220630646]],[[0.08452495187520981],[-0.3237111568450928]],[[-1.7235581874847412],[-1.5992759466171265]],[[-2.053283452987671],[-1.6174336671829224]],[[-2.3316597938537598],[-2.0869016647338867]],[[-0.7727108001708984],[-0.450692355632782]],[[-0.2991794943809509],[0.10185205191373825]],[[-0.1497209072113037],[-0.00006597574974875897]],[[-0.9709361791610718],[-0.8079270720481873]],[[0.06088484078645706],[-0.6987351775169373]],[[-0.49287092685699463],[-0.3804633617401123]]],"Bias":0,"Activation":"sigmoid","hiddenLayers":2,"dense":false,"divMulI":2350,"divMulO":40},{"Inputs":[0.028502415865659714,0.02415458858013153,0.018840579316020012,0.10000000149011612,0.09082125872373581,0.07777778059244156,0.07101449370384216,0.05410628020763397,0.03333333507180214,0.07246376574039459,0.09468598663806915,0.08888889104127884,0.06280193477869034,0.0657004863023758,0.07922705262899399],"arrInputWeight":[[-0.049383051693439484],[0.18219594657421112],[0.35013440251350403],[-1.353672981262207],[-1.9194321632385254],[-1.3242145776748657],[-0.7045318484306335],[-0.8692342638969421],[-0.6023732423782349],[-0.7087097764015198],[-1.9502557516098022],[-1.2753843069076538],[-0.5934603810310364],[-1.4869142770767212],[-0.9775961637496948]],"matrixHiddenWeight":[[[0.17764759063720703],[-0.19492241740226746]],[[0.1709868460893631],[-0.4300025999546051]],[[-0.2431192249059677],[-0.3399145007133484]],[[-1.6540080308914185],[-1.950539469718933]],[[-1.199241280555725],[-1.7460507154464722]],[[-1.7169280052185059],[-1.056264042854309]],[[-1.534350872039795],[-1.4673285484313965]],[[-0.6137333512306213],[-0.5476764440536499]],[[-0.10758110880851746],[0.14333781599998474]],[[-1.1247533559799194],[-0.6885759234428406]],[[-2.1596176624298096],[-1.598964810371399]],[[-1.0723267793655396],[-1.272616982460022]],[[-0.6911414265632629],[-0.6065995693206787]],[[-1.2168649435043335],[-0.7446603775024414]],[[-1.1783734560012817],[-1.646756887435913]]],"Bias":0,"Activation":"sigmoid","hiddenLayers":2,"dense":false,"divMulI":2070,"divMulO":40},{"Inputs":[0.07083333283662796,0.06712962687015533,0.0625,0.015277777798473835,0.012037036940455437,0.009259259328246117,0.03981481492519379,0.028240740299224854,0.022685185074806213,0.04675925895571709,0.035185184329748154,0.027314815670251846,0.10000000149011612,0.08981481194496155,0.0833333358168602],"arrInputWeight":[[-1.8026554584503174],[-1.032068133354187],[-1.6322640180587769],[0.16643686592578888],[0.16906729340553284],[0.5433207154273987],[-0.6841263771057129],[-0.7382791638374329],[-0.5170570015907288],[-0.5759423971176147],[0.028690367937088013],[-0.3593756854534149],[-1.8581920862197876],[-1.4077203273773193],[-2.006807804107666]],"matrixHiddenWeight":[[[-1.6079845428466797],[-1.6222913265228271]],[[-0.9446626901626587],[-1.3227418661117554]],[[-1.010013222694397],[-1.6484922170639038]],[[0.43190914392471313],[0.19880951941013336]],[[-0.29834744334220886],[0.37779733538627625]],[[0.09314801543951035],[0.5976057052612305]],[[-0.200582817196846],[-1.0146725177764893]],[[-0.5494639873504639],[0.1783660352230072]],[[-0.3857020139694214],[0.14132431149482727]],[[-0.5345171093940735],[-0.38646164536476135]],[[-0.4656410813331604],[-0.7736175656318665]],[[-0.3507757782936096],[-0.5917030572891235]],[[-1.797804832458496],[-2.3545966148376465]],[[-1.8148890733718872],[-1.6046525239944458]],[[-1.8612562417984009],[-1.44475257396698]]],"Bias":0,"Activation":"sigmoid","hiddenLayers":2,"dense":false,"divMulI":2160,"divMulO":40},{"Inputs":[0.10000000149011612,0.07592592388391495,0.0634259283542633,0.017592592164874077,0.014814814552664757,0.012037036940455437,0.046296294778585434,0.05092592537403107,0.051851850003004074,0.05787036940455437,0.04398148134350777,0.034259259700775146,0.05925925821065903,0.05833333358168602,0.05416666716337204],"arrInputWeight":[[-2.4512248039245605],[-1.2419711351394653],[-1.7894461154937744],[-0.27243107557296753],[0.42581287026405334],[0.3569589853286743],[-0.8504682183265686],[-0.8364269733428955],[-0.5450018644332886],[-1.0510990619659424],[-0.6009117364883423],[-0.1759990155696869],[-1.1917985677719116],[-1.4913108348846436],[-0.7515483498573303]],"matrixHiddenWeight":[[[-2.1038663387298584],[-2.0962648391723633]],[[-1.7948187589645386],[-2.050400972366333]],[[-1.760061502456665],[-1.2849838733673096]],[[0.36812496185302734],[-0.42370566725730896]],[[0.48729264736175537],[0.1264723837375641]],[[-0.19152458012104034],[0.12213876843452454]],[[-0.6999532580375671],[-0.42332759499549866]],[[-1.1025937795639038],[-1.4125488996505737]],[[-1.1380324363708496],[-1.2327148914337158]],[[-1.3883799314498901],[-1.5323716402053833]],[[-1.2698465585708618],[-1.0984678268432617]],[[-0.581693172454834],[-0.4133276343345642]],[[-1.1385563611984253],[-1.2140973806381226]],[[-0.7971154451370239],[-1.1090253591537476]],[[-0.968065083026886],[-1.5146198272705078]]],"Bias":0,"Activation":"sigmoid","hiddenLayers":2,"dense":false,"divMulI":2160,"divMulO":40},{"Inputs":[0.10000000149011612,0.07447917014360428,0.0625,0.01406249962747097,0.00937500037252903,0.012500000186264515,0.0651041641831398,0.04635416716337204,0.0390625,0.0598958320915699,0.06354166567325592,0.09427083283662796,0.07187499850988388,0.06458333134651184,0.06197916716337204],"arrInputWeight":[[-2.2970285415649414],[-1.7175350189208984],[-1.4322166442871094],[0.09235764294862747],[0.4679488241672516],[0.12119151651859283],[-1.5598413944244385],[-0.480737566947937],[-0.8812863230705261],[-1.0658997297286987],[-0.9277632236480713],[-1.4962708950042725],[-0.9641170501708984],[-1.4881916046142578],[-1.3113852739334106]],"matrixHiddenWeight":[[[-1.9912365674972534],[-2.340338706970215]],[[-1.5164942741394043],[-1.3426597118377686]],[[-0.9711189866065979],[-0.8206759095191956]],[[0.07897361367940903],[-0.17609646916389465]],[[0.6264444589614868],[0.22503778338432312]],[[0.6930516362190247],[-0.0619170218706131]],[[-1.0391566753387451],[-0.5973226428031921]],[[-0.7394754886627197],[-0.8542171716690063]],[[-0.21112054586410522],[-0.33308419585227966]],[[-1.074123501777649],[-0.6878114938735962]],[[-0.600696325302124],[-1.4346381425857544]],[[-1.713815689086914],[-1.5026638507843018]],[[-0.8497634530067444],[-1.361130714416504]],[[-1.4296860694885254],[-0.9959531426429749]],[[-0.6877214908599854],[-0.7737290263175964]]],"Bias":0,"Activation":"sigmoid","hiddenLayers":2,"dense":false,"divMulI":1920,"divMulO":40},{"Inputs":[0.06494023650884628,0.044223107397556305,0.03585657477378845,0.10000000149011612,0.10000000149011612,0.10000000149011612,0.08446215093135834,0.06892430037260056,0.06294820457696915,0.07968127727508545,0.05896414443850517,0.057370517402887344,0.06533864885568619,0.06215139478445053,0.05896414443850517],"arrInputWeight":[[-0.8779851198196411],[-0.3127157390117645],[0.03385407105088234],[-1.7116594314575195],[-2.2708826065063477],[-2.0958619117736816],[-0.9685361981391907],[-0.9428409934043884],[-0.7651102542877197],[-0.9463341236114502],[-1.0544933080673218],[-1.2228447198867798],[-1.4839547872543335],[-1.3530912399291992],[-0.9078050255775452]],"matrixHiddenWeight":[[[-0.9400802850723267],[-1.3081270456314087]],[[-0.3381032645702362],[-0.8005266189575195]],[[-0.032290589064359665],[-0.521040678024292]],[[-1.444643259048462],[-1.2919127941131592]],[[-1.3260834217071533],[-1.8016090393066406]],[[-1.7510251998901367],[-1.3955519199371338]],[[-1.04563570022583],[-1.7238494157791138]],[[-1.2408485412597656],[-1.379189372062683]],[[-1.1886085271835327],[-0.8946459293365479]],