[{"Inputs":[0.09200000017881393,0.07639999687671661,0.06120000034570694,0.03920000046491623,0.024000000208616257,0.01679999940097332,0.05920000001788139,0.041600000113248825,0.025200000032782555,0.047200001776218414,0.041200000792741776,0.03359999880194664,0.10000000149011612,0.09719999879598618,0.09560000151395798],"arrInputWeight":[[-1.1645328998565674],[-0.711258590221405],[-0.8054970502853394],[-0.37800899147987366],[-0.11251632869243622],[0.045066606253385544],[-0.13904935121536255],[0.3015945553779602],[-0.32551297545433044],[-0.23807241022586823],[0.17028748989105225],[-0.04292938858270645],[-1.2664623260498047],[-1.0080928802490234],[-1.4636569023132324]],"matrixHiddenWeight":[[[-1.0557525157928467],[-1.3479459285736084]],[[-0.28574028611183167],[-0.578441858291626]],[[-0.4463112950325012],[-0.052007272839546204]],[[-0.4642016887664795],[-0.08934874832630157]],[[0.5846977829933167],[-0.05250399187207222]],[[0.10063690692186356],[0.033125247806310654]],[[-0.7467763423919678],[-0.671504557132721]],[[0.16868077218532562],[-0.5634180903434753]],[[0.5704275369644165],[0.039416681975126266]],[[-0.12131989002227783],[-0.6496919989585876]],[[-0.07598169147968292],[-0.42582836747169495]],[[-0.38710248470306396],[-0.026703396812081337]],[[-1.391052007675171],[-1.0681105852127075]],[[-1.176981806755066],[-1.0600405931472778]],[[-0.8468136191368103],[-0.649827241897583]]],"Bias":0,"Activation":"sigmoid","hiddenLayers":2,"dense":false,"divMulI":2500,"divMulO":1},{"Inputs":[0.10000000149011612,0.10000000149011612,0.10000000149011612,0.03852459043264389,0.03852459043264389,0.03852459043264389,0.0659836083650589,0.0659836083650589,0.0659836083650589,0.050819672644138336,0.050819672644138336,0.050819672644138336,0.05409836024045944,0.05409836024045944,0.05409836024045944],"arrInputWeight":[[-0.8000653386116028],[-1.228898286819458],[-1.0001236200332642],[0.051779985427856445],[0.04741579294204712],[-0.30266112089157104],[-0.721488893032074],[-0.7608978152275085],[-1.0376627445220947],[-0.3977072834968567],[-0.8713808059692383],[-0.41014450788497925],[-0.5417911410331726],[-0.47805970907211304],[-0.19185370206832886]],"matrixHiddenWeight":[[[-1.2447397708892822],[-1.322484016418457]],[[-0.9692269563674927],[-1.508437156677246]],[[-1.010615587234497],[-1.2179734706878662]],[[-0.5502471327781677],[-0.24800054728984833]],[[-0.0936504602432251],[0.17735746502876282]],[[0.2639007568359375],[-0.2948231101036072]],[[-0.16974204778671265],[-1.12232506275177]],[[-0.7368283867835999],[-0.5379807949066162]],[[-0.5190466046333313],[-0.8181933164596558]],[[-0.6859950423240662],[-0.4359748959541321]],[[-0.8630428314208984],[-0.8097895979881287]],[[-0.3224223256111145],[-0.24188177287578583]],[[-0.5819773077964783],[-0.8001747131347656]],[[-0.20433205366134644],[-0.4619898796081543]],[[-0.9322017431259155],[-0.8877871036529541]]],"Bias":0,"Activation":"sigmoid","hiddenLayers":2,"dense":false,"divMulI":2440,"divMulO":1},{"Inputs":[0.10000000149011612,0.10000000149011612,0.10000000149011612,0.024899598211050034,0.024899598211050034,0.024899598211050034,0.06425702571868896,0.06425702571868896,0.06425702571868896,0.04979919642210007,0.04979919642210007,0.04979919642210007,0.053012046962976456,0.053012046962976456,0.053012046962976456],"arrInputWeight":[[-1.2987771034240723],[-1.3886926174163818],[-0.8063051104545593],[-0.17822688817977905],[0.02949494682252407],[0.00847822055220604],[-0.7715135216712952],[-0.18358184397220612],[-0.4680239260196686],[-0.4667985439300537],[-0.6844942569732666],[-0.43852150440216064],[0.04101487621665001],[-0.3485870957374573],[-0.09802626073360443]],"matrixHiddenWeight":[[[-0.9403995275497437],[-1.7057528495788574]],[[-0.8285289406776428],[-1.4319957494735718]],[[-1.4953126907348633],[-1.4007515907287598]],[[0.12996017932891846],[0.17078322172164917]],[[-0.22689709067344666],[0.03217271715402603]],[[0.3991245925426483],[-0.2444339096546173]],[[-0.48231080174446106],[-0.5101363658905029]],[[-0.42350146174430847],[-1.0480823516845703]],[[-0.928074300289154],[-0.5990688800811768]],[[-0.6947223544120789],[-0.2609695792198181]],[[-0.058177389204502106],[-0.841447114944458]],[[-0.7943519353866577],[0.04191809520125389]],[[-0.4727969765663147],[-0.38352566957473755]],[[-0.14993853867053986],[-0.8146335482597351]],[[0.042535509914159775],[-0.47906678915023804]]],"Bias":0,"Activation":"sigmoid","hiddenLayers":2,"dense":false,"divMulI":2490,"divMulO":1},{"Inputs":[0.06606335192918777,0.07239819318056107,0.0615384615957737,0.0194570142775774,0.025339366868138313,0.022171946242451668,0.10000000149011612,0.09592760354280472,0.09140271693468094,0.038009051233530045,0.03212669864296913,0.02805429883301258,0.052941177040338516,0.04117647185921669,0.029411764815449715],"arrInputWeight":[[-1.159371018409729],[-1.1805822849273682],[-0.3060750961303711],[0.6313150525093079],[0.26944589614868164],[0.5648141503334045],[-1.0824979543685913],[-1.4096786975860596],[-1.5499942302703857],[0.2529763877391815],[-0.3436500132083893],[-0.03550853580236435],[-0.07587668299674988],[-0.13546708226203918],[0.29666393995285034]],"matrixHiddenWeight":[[[-0.219987690448761],[-0.6194322109222412]],[[-0.998765230178833],[-1.2248884439468384]],[[-0.4958060383796692],[-0.7187151312828064]],[[0.28095415234565735],[0.5695341229438782]],[[-0.3138763904571533],[0.26071250438690186]],[[0.2080105096101761],[0.09461347758769989]],[[-1.4327318668365479],[-0.8723587989807129]],[[-1.3407719135284424],[-0.8619320392608643]],[[-1.1932815313339233],[-1.0592505931854248]],[[-0.48671433329582214],[-0.2183976173400879]],[[-0.5699669718742371],[0.38455909490585327]],[[0.28272321820259094],[-0.19274303317070007]],[[-0.5438171625137329],[-0.42295724153518677]],[[0.1700947880744934],[-0.6560819149017334]],[[-0.055151648819446564],[-0.2695469260215759]]],"Bias":0,"Activation":"sigmoid","hiddenLayers":2,"dense":false,"divMulI":2210,"divMulO":1},{"Inputs":[0.06623931974172592,0.08504273742437363,0.05683760717511177,0.009829060174524784,0.04743589833378792,0.014102564193308353,0.041025642305612564,0.032478634268045425,0.012820512987673283,0.09572649747133255,0.10000000149011612,0.08290598541498184,0.041025642305612564,0.05683760717511177,0.021367521956562996],"arrInputWeight":[[-0.3359786570072174],[-1.130190134048462],[-0.7622933983802795],[0.6497767567634583],[0.030367515981197357],[0.5640632510185242],[-0.022479159757494926],[0.14376631379127502],[0.14133693277835846],[-1.0218453407287598],[-1.4410797357559204],[-0.7000327706336975],[-0.23232802748680115],[-0.8829854130744934],[0.29772132635116577]],"matrixHiddenWeight":[[[-0.5423120260238647],[-0.4061819911003113]],[[-1.1864451169967651],[-1.3895360231399536]],[[-0.9181049466133118],[-0.10332272946834564]],[[0.1717114895582199],[-0.044329069554805756]],[[0.10230949521064758],[-0.6913201808929443]],[[0.46415141224861145],[-0.023394905030727386]],[[0.21942655742168427],[0.2527444660663605]],[[0.1674657166004181],[0.3155920207500458]],[[0.12043879181146622],[0.7536916136741638]],[[-1.3974452018737793],[-1.4498708248138428]],[[-1.30301833152771],[-0.9351348280906677]],[[-0.806852400302887],[-0.8881322741508484]],[[-0.4093397855758667],[-0.1251853108406067]],[[-0.5007365942001343],[-0.4505845904350281]],[[0.37622758746147156],[0.5065001845359802]]],"Bias":0,"Activation":"sigmoid","hiddenLayers":2,"dense":false,"divMulI":2340,"divMulO":1},{"Inputs":[0.016019416972994804,0.021844660863280296,0.028155339881777763,0.10000000149011612,0.0966019406914711,0.08203883469104767,0.061650484800338745,0.03689320385456085,0.03349514678120613,0.052912622690200806,0.05922330170869827,0.05436893180012703,0.07087378948926926,0.05145630985498428,0.0359223298728466],"arrInputWeight":[[0.024329720064997673],[0.3044418692588806],[-0.39705780148506165],[-1.6647237539291382],[-1.2317005395889282],[-1.0654690265655518],[-0.9426820278167725],[0.21805867552757263],[-0.22089339792728424],[-0.7422329187393188],[-0.15438561141490936],[-0.9265999794006348],[-0.8188616633415222],[-0.2465747892856598],[-0.49928534030914307]],"matrixHiddenWeight":[[[0.3112786114215851],[0.447002649307251]],[[0.49262556433677673],[0.5273754596710205]],[[-0.26022908091545105],[0.38058653473854065]],[[-1.2506158351898193],[-1.3872689008712769]],[[-0.8609675168991089],[-1.5837324857711792]],[[-0.745894193649292],[-1.2000017166137695]],[[-0.8448620438575745],[-0.23192736506462097]],[[0.21369704604148865],[-0.5796480774879456]],[[-0.01770726777613163],[0.2585848867893219]],[[-0.2505563497543335],[-0.3497011661529541]],[[-0.4172823131084442],[-0.27424463629722595]],[[-0.7785290479660034],[-0.5620049238204956]],[[-0.6243084669113159],[-0.8237747550010681]],[[-0.4775986075401306],[-0.6790111660957336]],[[-0.39160028100013733],[0.24077816307544708]]],"Bias":0,"Activation":"sigmoid","hiddenLayers":2,"dense":false,"divMulI":2060,"divMulO":1},{"Inputs":[0.10000000149011612,0.10000000149011612,0.10000000149011612,0.02931726910173893,0.02931726910173893,0.02931726910173893,0.06425702571868896,0.06425702571868896,0.06425702571868896,0.04979919642210007,0.04979919642210007,0.04979919642210007,0.053012046962976456,0.053012046962976456,0.053012046962976456],"arrInputWeight":[[-1.1257981061935425],[-1.1430766582489014],[-1.217185616493225],[0.0919099971652031],[-0.23520547151565552],[-0.36799356341362],[-0.9604610800743103],[-0.3542487621307373],[-0.8611935377120972],[-0.005761891603469849],[-0.4718196392059326],[-0.3753734230995178],[-0.2985439896583557],[-0.6132230162620544],[-0.0728682354092598]],"matrixHiddenWeight":[[[-0.7931406497955322],[-1.3412367105484009]],[[-1.3025283813476562],[-1.4895470142364502]],[[-1.4730465412139893],[-1.0056012868881226]],[[-0.036108262836933136],[0.23714299499988556]],[[-0.0009892508387565613],[-0.03608173877000809]],[[-0.01965937949717045],[0.1668432354927063]],[[-0.2956634759902954],[-0.6592305302619934]],[[-0.5064059495925903],[-0.6831843852996826]],[[-0.7348329424858093],[-1.0193032026290894]],[[0.03181692585349083],[-0.18241716921329498]],[[-0.22106283903121948],[-0.08138889074325562]],[[-0.0782768726348877],[-0.02887536585330963]],[[0.09668503701686859],[-0.5048680305480957]],[[-0.4368540644645691],[-0.2236274629831314]],[[-0.4042472541332245],[-0.604285478591919]]],"Bias":0,"Activation":"sigmoid","hiddenLayers":2,"dense":false,"divMulI":2490,"divMulO":1},{"Inputs":[0.10000000149011612,0.10000000149011612,0.10000000149011612,0.027419354766607285,0.02661290392279625,0.027419354766607285,0.06411290168762207,0.06411290168762207,0.06411290168762207,0.05161290243268013,0.05000000074505806,0.05000000074505806,0.05766129121184349,0.032258063554763794,0.03387096896767616],"arrInputWeight":[[-1.135546088218689],[-1.3895361423492432],[-1.158711314201355],[-0.3207729160785675],[0.4248563349246979],[-0.48923397064208984],[-0.6515956521034241],[-0.4247250556945801],[-0.325507789850235],[-0.5097039341926575],[-0.7731080055236816],[0.02855336293578148],[-0.28335240483283997],[-0.12366029620170593],[0.10812827944755554]],"matrixHiddenWeight":[[[-1.4181218147277832],[-1.209303379058838]],[[-1.1623364686965942],[-1.0521208047866821]],[[-1.1255098581314087],[-1.3163683414459229]],[[0.3565961718559265],[-0.3088856339454651]],[[-0.011822765693068504],[0.3671855628490448]],[[-0.38436952233314514],[0.020212166011333466]],[[-0.4290476441383362],[-0.7259862422943115]],[[-1.167452096939087],[-0.7016773819923401]],[[-0.7825398445129395],[-0.5416801571846008]],[[-0.41747215390205383],[-0.934482753276825]],[[-0.7081038951873779],[-0.3849959075450897]],[[-0.5799824595451355],[-0.4025287926197052]],[[-0.6402314901351929],[-0.13911330699920654]],[[-0.2607024908065796],[-0.388223260641098]],[[-0.0005649086087942123],[0.20518909394741058]]],"Bias":0,"Activation":"sigmoid","hiddenLayers":2,"dense":false,"divMulI":2480,"divMulO":1},{"Inputs":[0.09463414549827576,0.09756097197532654,0.10000000149011612,0.040487803518772125,0.03707316890358925,0.04146341606974602,0.05317073315382004,0.05024390295147896,0.04731707274913788,0.05999999865889549,0.05707317218184471,0.058048781007528305,0.037560977041721344,0.06292682886123657,0.06829268485307693],"arrInputWeight":[[-1.1386587619781494],[-0.949728786945343],[-1.5884751081466675],[-0.4044102132320404],[0.15711064636707306],[-0.4422087073326111],[-0.8174507021903992],[-0.8653891086578369],[-0.5315940976142883],[-0.16432638466358185],[-0.27562618255615234],[-0.3415524363517761],[-0.30077821016311646],[-0.1919478476047516],[-0.4873003363609314]],"matrixHiddenWeight":[[[-1.3762733936309814],[-1.3143644332885742]],[[-0.8847460150718689],[-1.4227849245071411]],[[-1.233590006828308],[-1.00252103805542]],[[-0.39113810658454895],[-0.14461681246757507]],[[-0.35851335525512695],[-0.09320691972970963]],[[-0.3640909194946289],[-0.12268999218940735]],[[-0.3329881727695465],[-0.6354882121086121]],[[-0.5816592574119568],[0.050526268780231476]],[[-0.7685772180557251],[0.13541170954704285]],[[-0.653193473815918],[-0.8646341562271118]],[[-0.674157440662384],[-0.10718837380409241]],[[-0.7846889495849609],[-0.06250782310962677]],[[-0.6362678408622742],[-0.445697546005249]],[[-0.25839367508888245],[-0.882542073726654]],[[-0.34230536222457886],[-0.7270458340644836]]],"Bias":0,"Activation":"sigmoid","hiddenLayers":2,"dense":false,"divMulI":2050,"divMulO":1},{"Inputs":[0.10000000149011612,0.10000000149011612,0.10000000149011612,0.08571428805589676,0.07899159938097,0.04159663990139961,0.059663865715265274,0.060084033757448196,0.059663865715265274,0.07605042308568954,0.07563025504350662,0.07184874266386032,0.06554622203111649,0.06554622203111649,0.06512605398893356],"arrInputWeight":[[-1.5073585510253906],[-1.5787633657455444],[-1.4527463912963867],[-0.8136223554611206],[-0.5745127201080322],[-0.18047280609607697],[-0.7210010886192322],[-0.45183035731315613],[-0.07571370154619217],[-0.8855203986167908],[-1.0342490673065186],[-1.025949478149414],[-0.18354880809783936],[-0.6453279852867126],[-0.8205260634422302]],"matrixHiddenWeight":[[[-1.0557827949523926],[-0.6572620868682861]],[[-1.5022828578948975],[-0.755111813545227]],[[-0.9012136459350586],[-1.3625719547271729]],[[-0.4283134639263153],[-1.0765330791473389]],[[-1.0611239671707153],[-1.009678602218628]],[[0.053986623883247375],[0.1645386964082718]],[[-0.39668378233909607],[-0.24640803039073944]],[[-0.451294869184494],[-0.19631297886371613]],[[-0.5562855005264282],[-0.44160595536231995]],[[-0.389163613319397],[-1.1849136352539062]],[[-0.6333086490631104],[-1.1972413063049316]],[[-0.8484662771224976],[-0.2753286063671112]],[[-1.0375453233718872],[-0.6253558993339539]],[[-1.0516964197158813],[-0.1838664412498474]],[[-0.08766138553619385],[-0.7217229008674622]]],"Bias":0,"Activation":"sigmoid","hiddenLayers":2,"dense":false,"divMulI":2380,"divMulO":1},{"Inputs":[0.10000000149011612,0.10000000149011612,0.10000000149011612,0.03402489796280861,0.03402489796280861,0.03402489796280861,0.06721992045640945,0.06721992045640945,0.06721992045640945,0.0547717846930027,0.0547717846930027,0.0547717846930027,0.051452282816171646,0.051452282816171646,0.051452282816171646],"arrInputWeight":[[-1.352166771888733],[-1.2061336040496826],[-0.6898183822631836],[-0.4066757261753082],[-0.10395844280719757],[-0.18658803403377533],[-0.436016321182251],[-0.5258098840713501],[-0.7571571469306946],[-0.3195953667163849],[0.08700978755950928],[-0.3682834804058075],[-0.4751410484313965],[-0.502205491065979],[-0.06969868391752243]],"matrixHiddenWeight":[[[-1.5103150606155396],[-1.456555724143982]],[[-0.6606689691543579],[-1.2453430891036987]],[[-1.4318714141845703],[-1.314857006072998]],[[-0.39651253819465637],[-0.01582532562315464]],[[-0.3014468252658844],[-0.4020066559314728]],[[-0.3579254150390625],[-0.29138264060020447]],[[-0.26255667209625244],[-1.0579249858856201]],[[-1.0419185161590576],[-0.8398154377937317]],[[-0.38801977038383484],[-0.4513247609138489]],[[-0.837744414806366],[-0.6254352331161499]],[[-0.8230408430099487],[-0.6517797112464905]],[[-0.1820424646139145],[-0.4983471632003784]],[[-0.22309111058712006],[-0.07669492810964584]],[[0.03884341940283775],[-0.32410383224487305]],[[-0.24441395699977875],[0.07733723521232605]]],"Bias":0,"Activation":"sigmoid","hiddenLayers":2,"dense":false,"divMulI":2410,"divMulO":1},{"Inputs":[0.0973094180226326,0.10000000149011612,0.0905829593539238,0.03408071771264076,0.03632286936044693,0.02466367743909359,0.06636771559715271,0.06950672715902328,0.055156949907541275,0.055156949907541275,0.059192825108766556,0.03542600944638252,0.04843049496412277,0.04843049496412277,0.03991031274199486],"arrInputWeight":[[-1.1094517707824707],[-1.0831925868988037],[-0.8424627184867859],[-0.10602529346942902],[0.05356224998831749],[0.39327624440193176],[-0.6638968586921692],[-0.49672940373420715],[-0.9289760589599609],[-0.3039442002773285],[-1.007272720336914],[-0.4572071433067322],[-0.2927185297012329],[-0.15112490952014923],[-0.12301117181777954]],"matrixHiddenWeight":[[[-1.0579936504364014],[-1.0289242267608643]],[[-1.284033179283142],[-1.4182583093643188]],[[-1.3906323909759521],[-0.8759492039680481]],[[-0.22208841145038605],[-0.6228116750717163]],[[-0.4773201644420624],[-0.6140628457069397]],[[0.33320939540863037],[-0.16616904735565186]],[[-0.5632495284080505],[-1.1925128698349]],[[-0.5771835446357727],[-0.3641562759876251]],[[-0.9338691234588623],[-0.6420096158981323]],[[-0.09243763238191605],[-0.5612647533416748]],[[-1.0241554975509644],[-1.087331771850586]],[[0.24392259120941162],[0.11255943030118942]],[[-0.7255609035491943],[-0.043985068798065186]],[[-0.5483928322792053],[-0.13116712868213654]],[[-0.2255401462316513],[-0.04863095283508301]]],"Bias":0,"Activation":"sigmoid","hiddenLayers":2,"dense":false,"divMulI":2230,"divMulO":1},{"Inputs":[0.10000000149011612,0.09813953191041946,0.08186046779155731,0.03953488543629646,0.0325581394135952,0.019999999552965164,0.051627907902002335,0.04372093081474304,0.028837209567427635,0.06604651361703873,0.06325581669807434,0.048372093588113785,0.05534883588552475,0.05069767311215401,0.03395348787307739],"arrInputWeight":[[-1.0668611526489258],[-0.9436113834381104],[-1.3003137111663818],[-0.42766454815864563],[0.26373744010925293],[-0.06199025362730026],[-0.46819007396698],[-0.6989037394523621],[-0.03809254243969917],[-0.5943731069564819],[-1.0458338260650635],[-0.23752066493034363],[-0.2863260805606842],[0.03500907123088837],[-0.5645135045051575]],"matrixHiddenWeight":[[[-0.7609433531761169],[-1.17756187915802]],[[-1.6330602169036865],[-1.4576399326324463]],[[-0.9905775189399719],[-1.1100537776947021]],[[-0.3007897138595581],[-0.5750517845153809]],[[0.15879011154174805],[-0.5402204394340515]],[[0.337135910987854],[0.5583016276359558]],[[-0.5241097807884216],[-0.8063334822654724]],[[-0.7022877335548401],[-0.546674907207489]],[[-0.3520808517932892],[0.1981688141822815]],[[-0.44197383522987366],[-1.0365992784500122]],[[-0.989204466342926],[-0.9031166434288025]],[[-0.7229452729225159],[0.12603561580181122]],[[-0.027796249836683273],[-0.046817343682050705]],[[-0.15739706158638],[-0.01050536334514618]],[[-0.13331332802772522],[-0.5310856699943542]]],"Bias":0,"Activation":"sigmoid","hiddenLayers":2,"dense":false,"divMulI":2150,"divMulO":1},{"Inputs":[0.020901639014482498,0.03360655903816223,0.08442623168230057,0.08934426307678223,0.09221311658620834,0.09672131389379501,0.05040983483195305,0.06106557324528694,0.0938524603843689,0.05860655754804611,0.07131147384643555,0.10000000149011612,0.01024590153247118,0.017213115468621254,0.053278688341379166],"arrInputWeight":[[-0.15954454243183136],[-0.2469695657491684],[-1.2481355667114258],[-1.0959603786468506],[-1.2571041584014893],[-0.7874149680137634],[-0.212204247713089],[-0.8081305623054504],[-1.3634483814239502],[-0.34896591305732727],[-0.4638369083404541],[-1.34495210647583],[0.4221312999725342],[0.41162922978401184],[-0.6375184655189514]],"matrixHiddenWeight":[[[0.1808963567018509],[0.45301443338394165]],[[-0.19728519022464752],[0.13065475225448608]],[[-0.585379958152771],[-0.38409823179244995]],[[-1.229979395866394],[-1.212959885597229]],[[-0.9318195581436157],[-0.6359803080558777]],[[-1.3596735000610352],[-0.7186223864555359]],[[-0.1352384388446808],[-0.7481653094291687]],[[-0.5018731355667114],[-0.6855971217155457]],[[-0.5048182606697083],[-0.6004955768585205]],[[-0.19952012598514557],[-0.7102983593940735]],[[-0.12195689976215363],[-0.08793611824512482]],[[-1.4799902439117432],[-0.8768570423126221]],[[0.1966172456741333],[0.5261200070381165]],[[0.28163501620292664],[0.473484069108963]],[[0.05704037472605705],[0.17148949205875397]]],"Bias":0,"Activation":"sigmoid","hiddenLayers":2,"dense":false,"divMulI":2440,"divMulO":1},{"Inputs":[0.09262672811746597,0.10000000149011612,0.0861751139163971,0.02073732763528824,0.033640552312135696,0.03317972272634506,0.051152072846889496,0.06635944545269012,0.06497696042060852,0.044700462371110916,0.052073732018470764,0.03594470024108887,0.04285714402794838,0.04516129195690155,0.03732718899846077],"arrInputWeight":[[-0.9684157371520996],[-1.7094361782073975],[-1.0916385650634766],[-0.15478405356407166],[-0.015555977821350098],[-0.260131299495697],[-0.3331596553325653],[-0.6604094505310059],[-1.2788373231887817],[-0.41906067728996277],[-0.3383457660675049],[-0.04717164486646652],[-0.13410259783267975],[-0.7990636229515076],[0.08439920842647552]],"matrixHiddenWeight":[[[-1.3092478513717651],[-0.8747456073760986]],[[-1.3580639362335205],[-1.3765217065811157]],[[-1.193081259727478],[-0.7840181589126587]],[[0.31775400042533875],[0.5682390332221985]],[[0.3015783131122589],[-0.19563809037208557]],[[-0.15310828387737274],[-0.14365266263484955]],[[-0.6199530959129333],[-0.4454551041126251]],[[-0.9139878749847412],[-1.080013632774353]],[[-1.003469705581665],[-0.381109356880188]],[[0.03314664214849472],[-0.4127393662929535]],[[-0.09524372220039368],[-0.2657388746738434]],[[-0.16576386988162994],[-0.10029523819684982]],[[0.12053085118532181],[0.10219145566225052]],[[-0.5303138494491577],[-0.0990961417555809]],[[0.2156074196100235],[-0.6339321732521057]]],"Bias":0,"Activation":"sigmoid","hiddenLayers":2,"dense":false,"divMulI":2170,"divMulO":1},{"Inputs":[0.02500000037252903,0.024152541533112526,0.020338982343673706,0.0957627147436142,0.10000000149011612,0.09872881323099136,0.052966102957725525,0.03983050957322121,0.03432203456759453,0.06398305296897888,0.05169491469860077,0.04279661178588867,0.05932203307747841,0.0576271191239357,0.05550847575068474],"arrInputWeight":[[0.04122527688741684],[0.6260892748832703],[0.6525990962982178],[0.33616191148757935],[0.31396323442459106],[0.5390124320983887],[0.39104533195495605],[0.2532283365726471],[0.1566033661365509],[0.6690081357955933],[0.12267279624938965],[0.16224732995033264],[0.030972182750701904],[0.6681589484214783],[0.1842949241399765]],"matrixHiddenWeight":[[[0.15615594387054443]],[[0.7950707077980042]],[[0.5045965909957886]],[[0.9137068390846252]],[[0.6755326986312866]],[[0.14359170198440552]],[[0.7104460597038269]],[[0.4632212221622467]],[[0.07244842499494553]],[[0.03961746394634247]],[[0.34305018186569214]],[[0.21950072050094604]],[[0.984609842300415]],[[0.10938726365566254]],[[0.5212731957435608]]],"Bias":0,"Activation":"sigmoid","hiddenLayers":1,"dense":false,"divMulI":2360,"divMulO":1},{"Inputs":[0.03298969194293022,0.028865979984402657,0.025773195549845695,0.10000000149011612,0.08969072252511978,0.07731958478689194,0.07422680407762527,0.05876288563013077,0.04639175161719322,0.0871134027838707,0.08608247339725494,0.07731958478689194,0.07938144356012344,0.07680412381887436,0.08144330233335495],"arrInputWeight":[[0.484340101480484],[0.43001610040664673],[0.4193766713142395],[0.39426180720329285],[0.29509100317955017],[0.7498859763145447],[0.837253987789154],[0.19014620780944824],[0.728019654750824],[0.10164237767457962],[0.6622037887573242],[0.7842378616333008],[0.7981938719749451],[0.7713314890861511],[0.09145816415548325]],"matrixHiddenWeight":[[[0.8110103011131287]],[[0.572784960269928]],[[0.30157873034477234]],[[0.431335985660553]],[[0.45027831196784973]],[[0.4863526523113251]],[[0.9528465270996094]],[[0.28264319896698]],[[0.916368842124939]],[[0.8508989810943604]],[[0.17367886006832123]],[[0.3889956772327423]],[[0.5573979020118713]],[[0.609535813331604]],[[0.9563260674476624]]],"Bias":0,"Activation":"sigmoid","hiddenLayers":1,"dense":false,"divMulI":1940,"divMulO":1},{"Inputs":[0.011940298601984978,0.020895522087812424,0.013432836160063744,0.09900497645139694,0.08905472606420517,0.08905472606420517,0.042288556694984436,0.05572139471769333,0.08159203827381134,0.04129353165626526,0.05522388219833374,0.03631840646266937,0.06666667014360428,0.08009950071573257,0.10000000149011612],"arrInputWeight":[[0.6494880318641663],[0.7144955396652222],[0.7900022268295288],[0.3706972897052765],[0.4464721083641052],[0.9825296401977539],[0.5807771682739258],[0.474295973777771],[0.8739668130874634],[0.36777612566947937],[0.6135823130607605],[0.4684772789478302],[0.379366934299469],[0.24046757817268372],[0.14138415455818176]],"matrixHiddenWeight":[[[0.6833739876747131]],[[0.41441452503204346]],[[0.37834104895591736]],[[0.32020801305770874]],[[0.9427564144134521]],[[0.5969141721725464]],[[0.48525577783584595]],[[0.10299432277679443]],[[0.4668844938278198]],[[0.2166193723678589]],[[0.2804426848888397]],[[0.45490628480911255]],[[0.7262033820152283]],[[0.2555316388607025]],[[0.6394122838973999]]],"Bias":0,"Activation":"sigmoid","hiddenLayers":1,"dense":false,"divMulI":2010,"divMulO":1},{"Inputs":[0.10000000149011612,0.09615384787321091,0.09444444626569748,0.04017094150185585,0.02777777798473835,0.021794872358441353,0.057692307978868484,0.04743589833378792,0.04743589833378792,0.08461538702249527,0.06324786692857742,0.04273504391312599,0.05299145355820656,0.05299145355820656,0.056410256773233414],"arrInputWeight":[[0.5171407461166382],[0.8803505301475525],[0.8336941599845886],[0.20652277767658234],[0.71346515417099],[0.6870394945144653],[0.7218356132507324],[0.8982097506523132],[0.19649924337863922],[0.26242324709892273],[0.13221293687820435],[0.8610372543334961],[0.029270267114043236],[0.193076491355896],[0.6937244534492493]],"matrixHiddenWeight":[[[0.9877110123634338]],[[0.6308252215385437]],[[0.37376299500465393]],[[0.7955337166786194]],[[0.6515778303146362]],[[0.9753122329711914]],[[0.8017033338546753]],[[0.7285112142562866]],[[0.09364786744117737]],[[0.0787232369184494]],[[0.11673904210329056]],[[0.368591845035553]],[[0.9406306147575378]],[[0.3623572289943695]],[[0.4303416609764099]]],"Bias":0,"Activation":"sigmoid","hiddenLayers":1,"dense":false,"divMulI":2340,"divMulO":1},{"Inputs":[0.03349282220005989,0.027751196175813675,0.02583732083439827,0.10000000149011612,0.08181817829608917,0.06889951974153519,0.07703348994255066,0.08516746759414673,0.08947368711233139,0.0736842080950737,0.0559808611869812,0.042583733797073364,0.06889951974153519,0.0755980834364891,0.08038277179002762],"arrInputWeight":[[0.0304428581148386],[0.030601974576711655],[0.8952020406723022],[0.41182607412338257],[0.1316632330417633],[0.25823286175727844],[0.6069079637527466],[0.15755803883075714],[1.0070688724517822],[0.3384885787963867],[0.1161637008190155],[0.5746757388114929],[0.24969010055065155],[0.5034964680671692],[0.3536417484283447]],"matrixHiddenWeight":[[[0.7989274263381958]],[[0.10802815109491348]],[[0.5786935687065125]],[[0.35884785652160645]],[[0.7630725502967834]],[[0.5378655791282654]],[[0.3760688602924347]],[[0.990324854850769]],[[0.26310962438583374]],[[0.531582236289978]],[[0.09035639464855194]],[[0.9364622235298157]],[[0.5780307650566101]],[[0.4168241322040558]],[[0.6198912262916565]]],"Bias":0,"Activation":"sigmoid","hiddenLayers":1,"dense":false,"divMulI":2090,"divMulO":1},{"Inputs":[0.024336284026503563,0.022123893722891808,0.022123893722891808,0.06769911199808121,0.07035398483276367,0.07433628290891647,0.10000000149011612,0.08185840398073196,0.07300885021686554,0.06283185631036758,0.05840707942843437,0.05840707942843437,0.06769911199808121,0.06902655214071274,0.06814159452915192],"arrInputWeight":[[0.15135075151920319],[0.7834030985832214],[0.6052168011665344],[0.5711504220962524],[0.5341629385948181],[0.6656489372253418],[0.616100549697876],[0.0775892585515976],[0.16117504239082336],[0.14877580106258392],[0.7170016765594482],[0.12473906576633453],[0.25960245728492737],[0.5204065442085266],[0.05236198008060455]],"matrixHiddenWeight":[[[0.5565240383148193]],[[0.10354568064212799]],[[0.8196328282356262]],[[0.9224672317504883]],[[0.7155193090438843]],[[0.03054247796535492]],[[0.6925827860832214]],[[0.735811710357666]],[[0.39361947774887085]],[[0.6568347811698914]],[[0.443578839302063]],[[0.5796146988868713]],[[0.5388676524162292]],[[0.29319268465042114]],[[0.39219599962234497]]],"Bias":0,"Activation":"sigmoid","hiddenLayers":1,"dense":false,"divMulI":2260,"divMulO":1},{"Inputs":[0.027935221791267395,0.01781376451253891,0.012550607323646545,0.10000000149011612,0.0979757085442543,0.09716599434614182,0.05708501860499382,0.038866396993398666,0.02995951473712921,0.07044534385204315,0.05344129726290703,0.04412955418229103,0.06842105090618134,0.05910931155085564,0.05263157933950424],"arrInputWeight":[[0.4770511984825134],[0.6542216539382935],[0.968748927116394],[0.8209989070892334],[0.43897566199302673],[0.834516704082489],[0.5894380807876587],[0.790679395198822],[0.2008482664823532],[0.6542008519172668],[0.38161084055900574],[0.20502114295959473],[0.5469102263450623],[0.5006572008132935],[0.3087998330593109]],"matrixHiddenWeight":[[[0.767603874206543]],[[0.2118048518896103]],[[0.2963011562824249]],[[0.5556749105453491]],[[0.4148389995098114]],[[0.369733989238739]],[[0.44357830286026]],[[0.028937209397554398]],[[0.5952057242393494]],[[0.6369547247886658]],[[0.3172699511051178]],[[0.5910523533821106]],[[0.4712751507759094]],[[0.20021797716617584]],[[0.1509351134300232]]],"Bias":0,"Activation":"sigmoid","hiddenLayers":1,"dense":false,"divMulI":2470,"divMulO":1},{"Inputs":[0.020481927320361137,0.018875502049922943,0.02811245061457157,0.10000000149011612,0.09839357435703278,0.09799196571111679,0.0602409653365612,0.039759036153554916,0.03614457696676254,0.06385542452335358,0.06425702571868896,0.07228915393352509,0.07630521804094315,0.053012046962976456,0.046987950801849365],"arrInputWeight":[[0.0937483161687851],[0.16487577557563782],[0.5508465766906738],[0.08681348711252213],[0.34129536151885986],[0.08209405839443207],[0.3225780725479126],[0.5878451466560364],[0.5605217218399048],[0.3219267427921295],[0.231355220079422],[0.22202391922473907],[0.21230274438858032],[0.15563970804214478],[0.44845545291900635]],"matrixHiddenWeight":[[[0.9256136417388916]],[[0.8613784313201904]],[[0.9635162949562073]],[[0.6846259236335754]],[[0.6487783193588257]],[[0.9213950634002686]],[[0.2921653687953949]],[[0.8605844378471375]],[[0.40165799856185913]],[[0.532545804977417]],[[0.09445283561944962]],[[0.7728402018547058]],[[0.17335769534111023]],[[0.23450087010860443]],[[1.0006749629974365]]],"Bias":0,"Activation":"sigmoid","hiddenLayers":1,"dense":false,"divMulI":2490,"divMulO":1},{"Inputs":[0.10000000149011612,0.09200000017881393,0.08977777510881424,0.018222222104668617,0.01688888855278492,0.019999999552965164,0.06044444441795349,0.03200000151991844,0.02666666731238365,0.08711110800504684,0.052000001072883606,0.04933333396911621,0.08044444769620895,0.05066666752099991,0.031111111864447594],"arrInputWeight":[[0.5436897873878479],[0.2842161953449249],[0.6568934321403503],[0.8612979054450989],[0.6572877168655396],[0.9542911052703857],[0.9455644488334656],[0.8567805886268616],[0.566823422908783],[0.20446555316448212],[0.03326902911067009],[0.18385609984397888],[0.6166451573371887],[0.739933431148529],[0.9411693215370178]],"matrixHiddenWeight":[[[0.9541162252426147]],[[0.2991018295288086]],[[0.5200014114379883]],[[0.025265978649258614]],[[0.3356581926345825]],[[0.4721350073814392]],[[0.1846408247947693]],[[0.728834867477417]],[[0.8023799657821655]],[[1.006998062133789]],[[0.2714046239852905]],[[0.903822660446167]],[[0.5631504058837891]],[[0.5566736459732056]],[[0.05344058945775032]]],"Bias":0,"Activation":"sigmoid","hiddenLayers":1,"dense":false,"divMulI":2250,"divMulO":1},{"Inputs":[0.01928251050412655,0.020179372280836105,0.021076234057545662,0.10000000149011612,0.0982062816619873,0.0982062816619873,0.0520179383456707,0.0385650210082531,0.030493274331092834,0.06008968502283096,0.06098654866218567,0.06322869658470154,0.06950672715902328,0.05426008999347687,0.042152468115091324],"arrInputWeight":[[0.11353704333305359],[0.41301754117012024],[0.8399582505226135],[0.17824621498584747],[0.120491623878479],[0.5824589729309082],[0.920884370803833],[0.6570682525634766],[0.28753232955932617],[0.6654114723205566],[0.3307665288448334],[0.22494475543498993],[0.028609944507479668],[0.12445303797721863],[0.7246889472007751]],"matrixHiddenWeight":[[[0.8488481640815735]],[[0.6703406572341919]],[[0.7519419193267822]],[[0.07370862364768982]],[[0.8444160223007202]],[[0.08544787019491196]],[[0.5054428577423096]],[[0.4280482232570648]],[[0.4660530984401703]],[[0.4112597703933716]],[[0.2873387932777405]],[[0.7893631458282471]],[[0.7749912142753601]],[[0.9126629829406738]],[[0.08647862821817398]]],"Bias":0,"Activation":"sigmoid","hiddenLayers":1,"dense":false,"divMulI":2230,"divMulO":1},{"Inputs":[0.08497854322195053,0.08154506236314774,0.06523605436086655,0.03991416469216347,0.028326179832220078,0.022317595779895782,0.05193132907152176,0.03733905404806137,0.03476394712924957,0.08798283338546753,0.09356223046779633,0.10000000149011612,0.04077253118157387,0.045922745019197464,0.04935622215270996],"arrInputWeight":[[0.7059917449951172],[0.6529667377471924],[0.2141130119562149],[0.36470842361450195],[0.9413348436355591],[0.27150818705558777],[0.0856451615691185],[0.8518449068069458],[0.6391822695732117],[0.7519854307174683],[0.6617287993431091],[0.07248194515705109],[0.20163311064243317],[0.12289933115243912],[0.3981980085372925]],"matrixHiddenWeight":[[[0.19183871150016785]],[[0.6837683320045471]],[[0.9456415176391602]],[[0.32749143242836]],[[0.45612531900405884]],[[0.005301874130964279]],[[0.9857085347175598]],[[0.801045298576355]],[[0.1417102962732315]],[[0.6568844318389893]],[[0.9064028859138489]],[[0.5024634003639221]],[[0.19819913804531097]],[[0.936502993106842]],[[0.6709015369415283]]],"Bias":0,"Activation":"sigmoid","hiddenLayers":1,"dense":false,"divMulI":2330,"divMulO":1},{"Inputs":[0.08317307382822037,0.0625,0.05624999850988388,0.02211538515985012,0.018269231542944908,0.013461538590490818,0.10000000149011612,0.09711538255214691,0.09663461893796921,0.04951922968029976,0.04374999925494194,0.02211538515985012,0.048557691276073456,0.026442307978868484,0.022596154361963272],"arrInputWeight":[[0.6619624495506287],[0.7105662822723389],[0.6010371446609497],[0.6774479150772095],[0.16311565041542053],[0.586116373538971],[0.947413444519043],[0.6838024258613586],[0.7251319289207458],[0.07891203463077545],[0.7589967250823975],[0.7096418142318726],[0.20177872478961945],[0.5667394399642944],[0.775686502456665]],"matrixHiddenWeight":[[[0.13099786639213562]],[[0.5502824187278748]],[[0.8857257962226868]],[[0.5955113768577576]],[[0.9516490697860718]],[[0.8372398018836975]],[[0.3429573178291321]],[[1.0076446533203125]],[[0.10989594459533691]],[[0.25488948822021484]],[[0.02314627915620804]],[[0.8088020086288452]],[[0.7358774542808533]],[[1.0032955408096313]],[[0.5053801536560059]]],"Bias":0,"Activation":"sigmoid","hiddenLayers":1,"dense":false,"divMulI":2080,"divMulO":1},{"Inputs":[0.10000000149011612,0.08429752290248871,0.04380165413022041,0.03595041483640671,0.021487602964043617,0.01694214902818203,0.058264464139938354,0.03471074253320694,0.024380166083574295,0.08760330826044083,0.08223140239715576,0.08264462649822235,0.06694214791059494,0.04876033216714859,0.01652892492711544],"arrInputWeight":[[0.8823804259300232],[0.37810271978378296],[0.03952571749687195],[0.8007374405860901],[0.8916337490081787],[0.008000844158232212],[0.7172045111656189],[0.1750464141368866],[0.8653459548950195],[0.8907263278961182],[0.6311885714530945],[0.2951599061489105],[0.6745697855949402],[0.8845688104629517],[0.4856626093387604]],"matrixHiddenWeight":[[[0.18204525113105774]],[[0.6488829255104065]],[[0.0302093718200922]],[[0.10455304384231567]],[[0.39583200216293335]],[[0.9852803349494934]],[[0.7910133600234985]],[[0.17322967946529388]],[[0.532599151134491]],[[0.616468608379364]],[[0.968937337398529]],[[0.8897795677185059]],[[0.018916893750429153]],[[0.49259886145591736]],[[0.32321473956108093]]],"Bias":0,"Activation":"sigmoid","hiddenLayers":1,"dense":false,"divMulI":2420,"divMulO":1},{"Inputs":[0.10000000149011612,0.09444444626569748,0.08636363595724106,0.028787879273295403,0.021717172116041183,0.020202020183205605,0.047979798167943954,0.033838383853435516,0.02929292991757393,0.05808080732822418,0.053535353392362595,0.049494948238134384,0.06161615997552872,0.043939393013715744,0.03333333507180214],"arrInputWeight":[[0.8473057150840759],[0.8843383193016052],[0.132706880569458],[0.9172102212905884],[0.7125623822212219],[0.3763386607170105],[0.46306443214416504],[0.00763070210814476],[0.37584182620048523],[0.08335736393928528],[0.9779865741729736],[0.7011011838912964],[0.447007417678833],[0.23540565371513367],[0.3972834348678589]],"matrixHiddenWeight":[[[0.6411444544792175]],[[0.27164342999458313]],[[0.7576609253883362]],[[0.7766117453575134]],[[0.1060587614774704]],[[0.7336284518241882]],[[0.28455713391304016]],[[0.6961473226547241]],[[0.8382312059402466]],[[0.24342051148414612]],[[0.32332754135131836]],[[0.951244056224823]],[[0.14255645871162415]],[[0.5492056608200073]],[[0.41412708163261414]]],"Bias":0,"Activation":"sigmoid","hiddenLayers":1,"dense":false,"divMulI":1980,"divMulO":1},{"Inputs":[0.03347107395529747,0.025619834661483765,0.013223140500485897,0.10000000149011612,0.09834710508584976,0.09710744023323059,0.057438015937805176,0.043388430029153824,0.027272727340459824,0.06818182021379471,0.05537189915776253,0.040082644671201706,0.06735537201166153,0.06322313845157623,0.05578512325882912],"arrInputWeight":[[0.7321999073028564],[0.11384981870651245],[0.4089150130748749],[0.24166318774223328],[0.7136924266815186],[0.6561754941940308],[0.626685619354248],[0.2725216746330261],[0.4329794943332672],[0.3056839108467102],[0.6502853631973267],[0.7407575249671936],[0.9499419331550598],[0.388654887676239],[0.1390455961227417]],"matrixHiddenWeight":[[[0.5830274224281311]],[[0.9214263558387756]],[[0.613678514957428]],[[0.3745916783809662]],[[0.48602354526519775]],[[0.451381653547287]],[[0.6633766293525696]],[[0.6664440035820007]],[[0.04285310208797455]],[[0.4057295620441437]],[[0.7404682040214539]],[[0.2725013196468353]],[[0.6641240119934082]],[[0.5293208956718445]],[[0.4557863473892212]]],"Bias":0,"Activation":"sigmoid","hiddenLayers":1,"dense":false,"divMulI":2420,"divMulO":1},{"Inputs":[0.08225107938051224,0.07532467693090439,0.06753246486186981,0.03030303120613098,0.029004329815506935,0.024242423474788666,0.04848484694957733,0.03246753290295601,0.023376623168587685,0.061471860855817795,0.04199134185910225,0.03030303120613098,0.10000000149011612,0.09740259498357773,0.09220778942108154],"arrInputWeight":[[-1.106510043144226],[-1.4549669027328491],[-0.7079178094863892],[0.07507762312889099],[-0.5946430563926697],[-0.3062911629676819],[-0.3953794240951538],[-0.09773541986942291],[0.1582518070936203],[-1.2718629837036133],[-0.8596183061599731],[0.04978476092219353],[-1.5718395709991455],[-1.427846908569336],[-1.9389417171478271]],"matrixHiddenWeight":[[[-1.4134920835494995],[-1.6631739139556885]],[[-1.3324943780899048],[-1.7035013437271118]],[[-1.0400400161743164],[-0.7939322590827942]],[[-0.21179892122745514],[-0.667637825012207]],[[-0.7112138271331787],[-0.4563058316707611]],[[-0.26067879796028137],[0.3753824830055237]],[[-1.1313934326171875],[-0.5860365033149719]],[[0.11434711515903473],[-0.28044337034225464]],[[-0.326040118932724],[0.3411288857460022]],[[-1.1996468305587769],[-0.7580475211143494]],[[-0.8807536363601685],[-0.046349361538887024]],[[-0.6665910482406616],[-0.6772537231445312]],[[-1.6101503372192383],[-1.4901158809661865]],[[-2.4093427658081055],[-1.976181149482727]],[[-1.7824510335922241],[-1.795088529586792]]],"Bias":0,"Activation":"sigmoid","hiddenLayers":2,"dense":false,"divMulI":2310,"divMulO":20},{"Inputs":[0.10000000149011612,0.08481013029813766,0.07974683493375778,0.038818564265966415,0.02278481051325798,0.017721518874168396,0.08438818901777267,0.05654008314013481,0.04725738242268562,0.07130801677703857,0.043881855905056,0.03375527262687683,0.048945147544145584,0.04219409450888634,0.038818564265966415],"arrInputWeight":[[-2.452866792678833],[-1.2780441045761108],[-1.862720012664795],[-0.26149341464042664],[0.4180167317390442],[0.35302186012268066],[-1.4841240644454956],[-1.1013102531433105],[-0.9879173040390015],[-1.3766834735870361],[-0.5021159648895264],[-0.8129228949546814],[-1.197442650794983],[-0.24688385426998138],[-0.3269294202327728]],"matrixHiddenWeight":[[[-2.379931688308716],[-1.558621883392334]],[[-1.7184069156646729],[-2.0927557945251465]],[[-1.7684882879257202],[-1.0956521034240723]],[[-0.3421837389469147],[-0.23146198689937592]],[[-0.1210407093167305],[-0.15260258316993713]],[[0.40297600626945496],[0.1403741091489792]],[[-1.567854642868042],[-1.9005998373031616]],[[-1.0790154933929443],[-1.365410327911377]],[[-0.19992104172706604],[-0.8398181200027466]],[[-0.984005868434906],[-1.229066014289856]],[[-0.5682076215744019],[-0.484468549489975]],[[-0.7857072949409485],[0.10622072219848633]],[[-0.5817344188690186],[-0.46291583776474]],[[-0.596881628036499],[-0.6193513870239258]],[[-0.21243226528167725],[0.022781318053603172]]],"Bias":0,"Activation":"sigmoid","hiddenLayers":2,"dense":false,"divMulI":2370,"divMulO":20},{"Inputs":[0.10000000149011612,0.0887254923582077,0.0833333358168602,0.020098039880394936,0.01764705963432789,0.01617647148668766,0.07058823853731155,0.052941177040338516,0.046078432351350784,0.06029411777853966,0.04411764815449715,0.03529411926865578,0.05245098099112511,0.03480392321944237,0.027450980618596077],"arrInputWeight":[[-1.8127961158752441],[-1.9045559167861938],[-1.9351332187652588],[-0.035139840096235275],[-0.014486846514046192],[-0.09485771507024765],[-1.2944200038909912],[-0.7397708296775818],[-0.8071551322937012],[-1.4055095911026],[-1.015976905822754],[0.026903267949819565],[-1.2703169584274292],[-0.659329354763031],[-0.4983278810977936]],"matrixHiddenWeight":[[[-1.9226162433624268],[-2.073314666748047]],[[-2.026196002960205],[-1.8350114822387695]],[[-2.039473533630371],[-1.4816837310791016]],[[-0.02164403162896633],[0.3896280527114868]],[[0.02283986657857895],[-0.18863730132579803]],[[0.27890175580978394],[0.40786224603652954]],[[-0.9425252079963684],[-1.4685579538345337]],[[-0.9119971394538879],[-0.5841412544250488]],[[-0.5315208435058594],[-1.1289045810699463]],[[-1.3729848861694336],[-1.0698314905166626]],[[-0.3230178952217102],[-0.31311893463134766]],[[-0.17256294190883636],[-0.8955997228622437]],[[-0.8269297480583191],[-1.1502761840820312]],[[-0.14912132918834686],[-0.4745854437351227]],[[-0.2530812621116638],[-0.23207691311836243]]],"Bias":0,"Activation":"sigmoid","hiddenLayers":2,"dense":false,"divMulI":2040,"divMulO":20},{"Inputs":[0.061316873878240585,0.03786008059978485,0.023045267909765244,0.019341563805937767,0.012757201679050922,0.010288066230714321,0.10000000149011612,0.08806584030389786,0.07818929851055145,0.08971193432807922,0.06707818806171417,0.054320987313985825,0.0855967104434967,0.07037036865949631,0.06419753283262253],"arrInputWeight":[[-0.8775469660758972],[-0.31059151887893677],[0.08395322412252426],[0.4107453525066376],[0.2905538082122803],[0.04213685914874077],[-2.133350372314453],[-1.1027485132217407],[-0.8439815044403076],[-1.7115498781204224],[-1.3733680248260498],[-0.7784097790718079],[-1.4848883152008057],[-1.2511593103408813],[-1.3815066814422607]],"matrixHiddenWeight":[[[-0.4790201187133789],[-0.6543785929679871]],[[-0.6427294015884399],[0.037170182913541794]],[[-0.013864093460142612],[-0.34953680634498596]],[[0.2526257336139679],[-0.3561057150363922]],[[0.2998557984828949],[0.6335036158561707]],[[0.6732217073440552],[0.20704908668994904]],[[-1.8512263298034668],[-2.122030019760132]],[[-1.7338932752609253],[-0.997911810874939]],[[-1.1334517002105713],[-1.583168864250183]],[[-1.878597378730774],[-1.808902621269226]],[[-0.9465386271476746],[-0.6853745579719543]],[[-0.8343677520751953],[-0.5728739500045776]],[[-1.6063004732131958],[-1.3402403593063354]],[[-1.0101723670959473],[-1.4768179655075073]],[[-1.3202155828475952],[-0.4709179997444153]]],"Bias":0,"Activation":"sigmoid","hiddenLayers":2,"dense":false,"divMulI":2430,"divMulO":20},{"Inputs":[0.060245901346206665,0.051229506731033325,0.0520491786301136,0.018852459266781807,0.017213115468621254,0.01844262331724167,0.10000000149011612,0.09918032586574554,0.09631147235631943,0.03606557473540306,0.022131146863102913,0.02049180306494236,0.03852459043264389,0.028278687968850136,0.023770492523908615],"arrInputWeight":[[-1.2412081956863403],[-0.79941326379776],[-0.4042067229747772],[-0.23062340915203094],[-0.06373302638530731],[-0.06628356873989105],[-1.8329734802246094],[-1.8301682472229004],[-1.9791492223739624],[0.09313458204269409],[-0.04327172040939331],[-0.3325399160385132],[-0.6251817941665649],[0.003256248077377677],[0.19975346326828003]],"matrixHiddenWeight":[[[-0.9450975060462952],[-1.3326051235198975]],[[-0.7370421886444092],[-0.46617478132247925]],[[-1.2126803398132324],[-0.3604378402233124]],[[-0.13286468386650085],[0.4712468683719635]],[[0.5186010003089905],[-0.40520456433296204]],[[0.0869392454624176],[0.4219086170196533]],[[-1.7731417417526245],[-2.1536927223205566]],[[-1.6478759050369263],[-1.9545714855194092]],[[-2.1769027709960938],[-1.929461121559143]],[[-0.25729379057884216],[-0.09844082593917847]],[[-0.24401786923408508],[-0.028262659907341003]],[[-0.051995649933815],[-0.26851946115493774]],[[-0.04808052256703377],[-0.7369241714477539]],[[-0.27148330211639404],[-0.6507181525230408]],[[-0.23052017390727997],[0.019947681576013565]]],"Bias":0,"Activation":"sigmoid","hiddenLayers":2,"dense":false,"divMulI":2440,"divMulO":20},{"Inputs":[0.10000000149011612,0.08444444090127945,0.08222222328186035,0.030666666105389595,0.02266666665673256,0.02266666665673256,0.053777776658535004,0.024000000208616257,0.024888888001441956,0.06888888776302338,0.04488888755440712,0.04355555400252342,0.058666665107011795,0.035555556416511536,0.0284444447606802],"arrInputWeight":[[-2.322469472885132],[-1.3368090391159058],[-1.9200104475021362],[-0.48813068866729736],[-0.3992905616760254],[-0.5098176002502441],[-0.9516886472702026],[0.005540680605918169],[-0.4026939868927002],[-0.9825965166091919],[-0.7123539447784424],[-1.0923916101455688],[-0.8535124063491821],[-0.46875226497650146],[-0.0869397297501564]],"matrixHiddenWeight":[[[-2.4376518726348877],[-2.358025312423706]],[[-1.5227209329605103],[-1.558958888053894]],[[-1.3442951440811157],[-1.4484180212020874]],[[-0.16027523577213287],[0.1577156037092209]],[[-0.15543366968631744],[-0.31462526321411133]],[[-0.2055211365222931],[-0.5774062871932983]],[[-1.1401119232177734],[-0.5799655914306641]],[[-0.3252379298210144],[-0.5499473810195923]],[[-0.10491322726011276],[0.2704508304595947]],[[-1.7974326610565186],[-1.0409669876098633]],[[-0.7412013411521912],[-0.44769060611724854]],[[-0.8805806040763855],[-0.23033565282821655]],[[-1.4014397859573364],[-1.5780771970748901]],[[-0.22674036026000977],[-0.13208334147930145]],[[-0.7113827466964722],[0.10998860001564026]]],"Bias":0,"Activation":"sigmoid","hiddenLayers":2,"dense":false,"divMulI":2250,"divMulO":20},{"Inputs":[0.06708333641290665,0.050833333283662796,0.04416666552424431,0.014583333395421505,0.014166667126119137,0.014166667126119137,0.10000000149011612,0.09000000357627869,0.0833333358168602,0.036666665226221085,0.01875000074505806,0.013749999925494194,0.09708333015441895,0.0754166692495346,0.08041666448116302],"arrInputWeight":[[-1.0189018249511719],[-0.9421010613441467],[-0.1598508507013321],[0.6274423599243164],[0.5402494668960571],[0.26412445306777954],[-1.4739335775375366],[-1.9126473665237427],[-1.5479280948638916],[-0.4720974862575531],[-0.08574969321489334],[0.1953577995300293],[-1.844472885131836],[-1.747643232345581],[-1.0715006589889526]],"matrixHiddenWeight":[[[-0.7506904602050781],[-1.3553035259246826]],[[-0.7639915943145752],[-0.9156491160392761]],[[-0.8473822474479675],[-0.7705662846565247]],[[0.2963297367095947],[-0.20103326439857483]],[[0.4733197093009949],[-0.3082629442214966]],[[-0.01883755438029766],[0.41473591327667236]],[[-1.851587176322937],[-2.079519033432007]],[[-1.3787877559661865],[-2.0856423377990723]],[[-1.0938606262207031],[-1.639752745628357]],[[0.08608336001634598],[-0.18405413627624512]],[[-0.022497154772281647],[-0.07312419265508652]],[[0.38485750555992126],[0.37654659152030945]],[[-1.5814244747161865],[-1.8347538709640503]],[[-0.9248491525650024],[-1.2240443229675293]],[[-1.0306535959243774],[-1.4980939626693726]]],"Bias":0,"Activation":"sigmoid","hiddenLayers":2,"dense":false,"divMulI":2400,"divMulO":20},{"Inputs":[0.06651584059000015,0.04570135846734047,0.03710407391190529,0.018099548295140266,0.012217194773256779,0.01402714941650629,0.10000000149011612,0.09728506952524185,0.08959276229143143,0.09366516023874283,0.061990950256586075,0.05067873373627663,0.06289593130350113,0.0737556591629982,0.08733031898736954],"arrInputWeight":[[-1.1347060203552246],[-0.28033408522605896],[-0.07939890772104263],[0.5511153936386108],[0.5140135288238525],[-0.15843826532363892],[-2.20538592338562],[-1.2557320594787598],[-1.359062910079956],[-1.0919140577316284],[-1.3188202381134033],[-0.4619182050228119],[-0.9423288702964783],[-1.48991060256958],[-1.8105806112289429]],"matrixHiddenWeight":[[[-0.583362877368927],[-0.538938581943512]],[[-0.3116818964481354],[-0.6172334551811218]],[[-0.42175838351249695],[-0.41646236181259155]],[[-0.1515117883682251],[-0.07472860813140869]],[[0.49984899163246155],[-0.06537898629903793]],[[-0.1364719569683075],[0.6477034091949463]],[[-1.6964256763458252],[-1.9596022367477417]],[[-1.8493359088897705],[-1.9281702041625977]],[[-1.7480254173278809],[-1.8568978309631348]],[[-1.1149550676345825],[-1.1921275854110718]],[[-0.7788919806480408],[-0.8783585429191589]],[[-0.6484476923942566],[-0.28885984420776367]],[[-0.8200336694717407],[-1.237081527709961]],[[-0.8455383777618408],[-0.6681118607521057]],[[-1.1643590927124023],[-1.6029436588287354]]],"Bias":0,"Activation":"sigmoid","hiddenLayers":2,"dense":false,"divMulI":2210,"divMulO":20},{"Inputs":[0.10000000149011612,0.09354838728904724,0.09078340977430344,0.0364055298268795,0.029953917488455772,0.03087557666003704,0.0525345616042614,0.03271889314055443,0.028110599145293236,0.06728110462427139,0.0552995391190052,0.0525345616042614,0.0700460821390152,0.04838709533214569,0.03870967775583267],"arrInputWeight":[[-1.7370847463607788],[-2.1181893348693848],[-1.298422932624817],[-0.13825289905071259],[-0.09151626378297806],[-0.6445803046226501],[-0.5012633800506592],[-0.8110494613647461],[-0.4676743745803833],[-0.8966414332389832],[-0.9185884594917297],[-0.5517500638961792],[-0.9776400923728943],[-0.5139914751052856],[-0.2746208608150482]],"matrixHiddenWeight":[[[-1.9739288091659546],[-2.416409730911255]],[[-1.696233868598938],[-1.923229694366455]],[[-1.5516717433929443],[-1.9249731302261353]],[[-0.3276800215244293],[-0.31677666306495667]],[[-0.15362657606601715],[-0.3487994372844696]],[[-0.035638198256492615],[-0.37834030389785767]],[[-0.9379318356513977],[-1.1105695962905884]],[[0.17015841603279114],[-0.13569676876068115]],[[0.03672679886221886],[0.09108329564332962]],[[-1.1324774026870728],[-1.2990220785140991]],[[-1.355983018875122],[-1.2577667236328125]],[[-1.2969398498535156],[-0.6902883052825928]],[[-1.5520256757736206],[-1.3218286037445068]],[[-0.6710851788520813],[-0.28228503465652466]],[[-0.41152021288871765],[-0.47827762365341187]]],"Bias":0,"Activation":"sigmoid","hiddenLayers":2,"dense":false,"divMulI":2170,"divMulO":20},{"Inputs":[0.05772727355360985,0.04500000178813934,0.051363635808229446,0.006818181835114956,0.004545454401522875,0.007272727321833372,0.09454545378684998,0.09136363863945007,0.10000000149011612,0.08454545587301254,0.07772727310657501,0.0886363610625267,0.09000000357627869,0.07000000029802322,0.07999999821186066],"arrInputWeight":[[-0.5727046728134155],[-0.0266205333173275],[-0.46619048714637756],[-0.09024211019277573],[0.016246387735009193],[0.1307792216539383],[-2.0205237865448],[-1.8275032043457031],[-1.6472246646881104],[-1.419467568397522],[-0.840670108795166],[-1.5696338415145874],[-1.3084779977798462],[-0.9764907360076904],[-1.4671076536178589]],"matrixHiddenWeight":[[[-0.3060285747051239],[-0.5474262237548828]],[[-0.47278809547424316],[-0.4868229031562805]],[[-0.7591070532798767],[-0.16998547315597534]],[[0.35649728775024414],[0.2501409351825714]],[[-0.012203087098896503],[0.056053757667541504]],[[0.7329301238059998],[0.33965158462524414]],[[-1.9250082969665527],[-1.2608939409255981]],[[-1.3389310836791992],[-1.0273934602737427]],[[-1.6352897882461548],[-1.4731236696243286]],[[-1.777801275253296],[-1.14116632938385]],[[-1.6001414060592651],[-0.9697015285491943]],[[-0.9901019334793091],[-1.7940436601638794]],[[-1.4328380823135376],[-1.7566895484924316]],[[-1.143508791923523],[-0.6875974535942078]],[[-1.0043561458587646],[-1.3831778764724731]]],"Bias":0,"Activation":"sigmoid","hiddenLayers":2,"dense":false,"divMulI":2200,"divMulO":20},{"Inputs":[0.06568627804517746,0.054411765187978745,0.05980392172932625,0.08186274766921997,0.08382353186607361,0.10000000149011612,0.019607843831181526,0.01568627543747425,0.020098039880394936,0.04019607976078987,0.022549020126461983,0.022058824077248573,0.08529412001371384,0.08039215952157974,0.08627451211214066],"arrInputWeight":[[-1.2007075548171997],[-0.98649662733078],[-0.39989250898361206],[-1.7164738178253174],[-1.5633749961853027],[-2.2704999446868896],[0.23265554010868073],[0.06285084784030914],[-0.3658294081687927],[-0.24375896155834198],[0.29901617765426636],[0.08296665549278259],[-1.4670244455337524],[-1.4948811531066895],[-1.2684569358825684]],"matrixHiddenWeight":[[[-0.6516370177268982],[-1.1119709014892578]],[[-0.4708578884601593],[-0.9389511942863464]],[[-1.3247661590576172],[-0.6626108884811401]],[[-1.3721619844436646],[-1.210143804550171]],[[-1.1410138607025146],[-1.272931694984436]],[[-1.8179959058761597],[-1.82888662815094]],[[-0.17245298624038696],[-0.03707120567560196]],[[-0.33492764830589294],[0.1915895938873291]],[[-0.4532448649406433],[-0.41674917936325073]],[[-0.059851113706827164],[-0.5673297643661499]],[[-0.014219461940228939],[-0.13868504762649536]],[[-0.1900911182165146],[0.26055532693862915]],[[-1.2707980871200562],[-1.966774344444275]],[[-1.3093830347061157],[-1.8356733322143555]],[[-1.5630688667297363],[-1.8727846145629883]]],"Bias":0,"Activation":"sigmoid","hiddenLayers":2,"dense":false,"divMulI":2040,"divMulO":20},{"Inputs":[0.08136363327503204,0.058636363595724106,0.05045454576611519,0.022272726520895958,0.015454545617103577,0.013636363670229912,0.0949999988079071,0.09272727370262146,0.10000000149011612,0.0490909107029438,0.023636363446712494,0.015454545617103577,0.058636363595724106,0.034090910106897354,0.01727272756397724],"arrInputWeight":[[-1.3285795450210571],[-0.6136046648025513],[-1.0230128765106201],[0.2736380398273468],[0.20762422680854797],[0.625789999961853],[-2.1659934520721436],[-1.7079498767852783],[-1.4828131198883057],[-0.3187131881713867],[-0.250573068857193],[0.2667255401611328],[-0.5959805846214294],[-0.24310310184955597],[-0.3006531000137329]],"matrixHiddenWeight":[[[-1.9528504610061646],[-1.6866782903671265]],[[-0.5555456280708313],[-0.8004937171936035]],[[-0.3995254933834076],[-0.7165009379386902]],[[0.38023877143859863],[-0.42025700211524963]],[[0.4221481680870056],[0.06753688305616379]],[[-0.31524723768234253],[-0.28569453954696655]],[[-2.2377912998199463],[-1.5193551778793335]],[[-1.6824946403503418],[-1.4388846158981323]],[[-2.327751874923706],[-2.013655185699463]],[[-0.6105636358261108],[-0.4038999676704407]],[[-0.5632376670837402],[-0.4050319790840149]],[[0.464957594871521],[0.2926395535469055]],[[-0.6873545050621033],[-1.383948802947998]],[[0.03916696831583977],[-0.02929249033331871]],[[0.07046717405319214],[-0.20307719707489014]]],"Bias":0,"Activation":"sigmoid","hiddenLayers":2,"dense":false,"divMulI":2200,"divMulO":20},{"Inputs":[0.10000000149011612,0.08803828060626984,0.08373206108808517,0.02966507151722908,0.0181818176060915,0.015311004593968391,0.050239235162734985,0.027751196175813675,0.023923445492982864,0.0755980834364891,0.04928229749202728,0.04401914030313492,0.06459330022335052,0.03923444822430611,0.03014354035258293],"arrInputWeight":[[-2.202688455581665],[-1.5644241571426392],[-2.025792360305786],[-0.3825607895851135],[-0.03074406087398529],[0.5152223110198975],[-1.2160226106643677],[-0.5130527019500732],[0.1722525805234909],[-1.2407876253128052],[-0.34398844838142395],[-0.2775805592536926],[-1.2757160663604736],[-0.6124175786972046],[-0.03067435324192047]],"matrixHiddenWeight":[[[-2.2142386436462402],[-2.3106887340545654]],[[-1.9109282493591309],[-2.1544339656829834]],[[-1.1551918983459473],[-1.137080192565918]],[[-0.7040445804595947],[-0.288036972284317]],[[0.056432101875543594],[-0.200126051902771]],[[-0.34589898586273193],[-0.34296178817749023]],[[-0.7147682905197144],[-1.027868628501892]],[[-0.4710544943809509],[0.0504378117620945]],[[-0.4972967505455017],[0.22440432012081146]],[[-1.0446134805679321],[-0.9299420118331909]],[[-1.196609377861023],[-0.7592783570289612]],[[-0.3630368411540985],[-0.6609127521514893]],[[-1.3581541776657104],[-1.0629909038543701]],[[-0.619395911693573],[-0.7744325995445251]],[[-0.2081202119588852],[-0.11173013597726822]]],"Bias":0,"Activation":"sigmoid","hiddenLayers":2,"dense":false,"divMulI":2090,"divMulO":20},{"Inputs":[0.027149321511387825,0.020361991599202156,0.0194570142775774,0.10000000149011612,0.08959276229143143,0.0882352963089943,0.07058823853731155,0.04796380177140236,0.04162896052002907,0.07737556844949722,0.07692307978868484,0.0778280571103096,0.07194570451974869,0.06877828389406204,0.07239819318056107],"arrInputWeight":[[-0.42322617769241333],[-0.273063600063324],[0.42583322525024414],[-1.702541470527649],[-1.3200879096984863],[-1.614747405052185],[-1.5735613107681274],[-0.6516591906547546],[-0.37603825330734253],[-1.7002795934677124],[-1.4545880556106567],[-1.332261323928833],[-1.1383204460144043],[-0.8349962830543518],[-0.7751079201698303]],"matrixHiddenWeight":[[[-0.6452255249023438],[0.04553205892443657]],[[-0.1371452510356903],[-0.1663101762533188]],[[0.13082389533519745],[0.5062721371650696]],[[-1.5893195867538452],[-2.3836066722869873]],[[-1.3048055171966553],[-2.174849033355713]],[[-1.1567070484161377],[-1.2785534858703613]],[[-1.503907561302185],[-1.4001692533493042]],[[-1.062911033630371],[-0.809244692325592]],[[-1.0083054304122925],[-0.7112861275672913]],[[-1.2431708574295044],[-1.044236183166504]],[[-1.228356957435608],[-1.0948948860168457]],[[-1.7833346128463745],[-1.0583645105361938]],[[-1.0495702028274536],[-1.6150450706481934]],[[-0.8789494633674622],[-0.7669920325279236]],[[-1.018500566482544],[-0.8259446024894714]]],"Bias":0,"Activation":"sigmoid","hiddenLayers":2,"dense":false,"divMulI":2210,"divMulO":20},{"Inputs":[0.10000000149011612,0.09155555814504623,0.08799999952316284,0.02755555510520935,0.028888888657093048,0.012888888828456402,0.052444443106651306,0.03466666489839554,0.02800000086426735,0.07333333045244217,0.058222223073244095,0.05111110955476761,0.0533333346247673,0.047555554658174515,0.03200000151991844],"arrInputWeight":[[-1.8011202812194824],[-1.9713678359985352],[-2.0348124504089355],[-0.7027087211608887],[0.170948788523674],[-0.0974159985780716],[-0.659694492816925],[-0.3350049555301666],[-0.21484389901161194],[-1.4624630212783813],[-0.9296380281448364],[-1.0859733819961548],[-0.5610595941543579],[-0.6000516414642334],[-0.2664376497268677]],"matrixHiddenWeight":[[[-1.9533414840698242],[-1.8879194259643555]],[[-2.1294105052948],[-1.6886231899261475]],[[-1.4172309637069702],[-1.9660142660140991]],[[0.25426217913627625],[-0.42525768280029297]],[[-0.4597170054912567],[-0.5388800501823425]],[[0.6444265842437744],[0.0008050348842516541]],[[-0.9430291056632996],[-1.0010943412780762]],[[-0.3244645893573761],[-0.21694183349609375]],[[-0.5072457194328308],[-0.285506010055542]],[[-1.4465537071228027],[-1.6979190111160278]],[[-0.9550238847732544],[-0.6147871017456055]],[[-1.2836296558380127],[-0.379990816116333]],[[-0.4692085087299347],[-1.0271329879760742]],[[-0.7327607274055481],[-1.0088577270507812]],[[-0.6742456555366516],[-0.3358895182609558]]],"Bias":0,"Activation":"sigmoid","hiddenLayers":2,"dense":false,"divMulI":2250,"divMulO":20},{"Inputs":[0.10000000149011612,0.09428571164608002,0.09238095581531525,0.02666666731238365,0.015714285895228386,0.012380952015519142,0.0776190459728241,0.06428571790456772,0.05666666850447655,0.08142857253551483,0.0533333346247673,0.03857142850756645,0.06285714358091354,0.03761904686689377,0.02666666731238365],"arrInputWeight":[[-1.7853888273239136],[-1.4040367603302002],[-1.5756715536117554],[0.030021563172340393],[0.361714243888855],[0.442034512758255],[-1.647854208946228],[-0.8153305053710938],[-0.59597247838974],[-1.9921948909759521],[-0.9373784065246582],[-0.9759333729743958],[-1.09255850315094],[-0.032434508204460144],[0.052816279232501984]],"matrixHiddenWeight":[[[-1.5808014869689941],[-1.9807103872299194]],[[-2.338583469390869],[-2.0662992000579834]],[[-1.5305124521255493],[-1.4197134971618652]],[[-0.18821583688259125],[0.021596403792500496]],[[0.29028451442718506],[0.34935563802719116]],[[-0.013853074982762337],[0.5561238527297974]],[[-1.610627293586731],[-1.1857917308807373]],[[-1.0782638788223267],[-1.0118330717086792]],[[-1.2861007452011108],[-0.6581523418426514]],[[-1.4617122411727905],[-1.0812433958053589]],[[-0.6386207342147827],[-1.2082843780517578]],[[-0.7870521545410156],[-0.6033600568771362]],[[-0.8143972754478455],[-0.838840901851654]],[[-0.25799331068992615],[-0.8953993320465088]],[[-0.6627790331840515],[-0.6409180164337158]]],"Bias":0,"Activation":"sigmoid","hiddenLayers":2,"dense":false,"divMulI":2100,"divMulO":30},{"Inputs":[0.10000000149011612,0.09863636642694473,0.09772727638483047,0.022272726520895958,0.015909090638160706,0.014999999664723873,0.08090908825397491,0.05636363476514816,0.04318181797862053,0.05999999865889549,0.03999999910593033,0.030909091234207153,0.06590908765792847,0.06272727251052856,0.06136363744735718],"arrInputWeight":[[-1.9668388366699219],[-1.7014386653900146],[-1.4959299564361572],[-0.5044180154800415],[0.4177113175392151],[0.3815828263759613],[-1.1951680183410645],[-1.083437442779541],[-0.5990540385246277],[-0.9353046417236328],[-0.1871805340051651],[0.033691901713609695],[-0.9280982613563538],[-1.3093003034591675],[-0.6528956890106201]],"matrixHiddenWeight":[[[-1.5881296396255493],[-2.205388069152832]],[[-1.552383303642273],[-2.275597095489502]],[[-1.8833755254745483],[-1.4425547122955322]],[[0.044414374977350235],[0.1892601102590561]],[[0.2813393473625183],[-0.32696014642715454]],[[0.12954328954219818],[-0.32782143354415894]],[[-1.6606683731079102],[-1.3143281936645508]],[[-0.9206069707870483],[-0.3610345721244812]],[[-0.934683620929718],[-0.8385858535766602]],[[-0.431893527507782],[-0.8527777791023254]],[[-0.40995654463768005],[-0.8147889375686646]],[[0.030652830377221107],[-0.24563543498516083]],[[-1.5127573013305664],[-1.1931657791137695]],[[-1.179373025894165],[-1.2998974323272705]],[[-0.5859777927398682],[-0.5448212027549744]]],"Bias":0,"Activation":"sigmoid","hiddenLayers":2,"dense":false,"divMulI":2200,"divMulO":30},{"Inputs":[0.08355555683374405,0.06044444441795349,0.04977777600288391,0.10000000149011612,0.09600000083446503,0.09511110931634903,0.019111111760139465,0.013333333656191826,0.012888888828456402,0.04977777600288391,0.02800000086426735,0.02266666665673256,0.058666665107011795,0.03377777710556984,0.02311111055314541],"arrInputWeight":[[-1.2688590288162231],[-1.4522900581359863],[-0.45352354645729065],[-1.9699885845184326],[-1.7575929164886475],[-1.6126481294631958],[0.24520651996135712],[-0.03799280524253845],[0.6345499157905579],[-0.3571855425834656],[-0.5304255485534668],[0.2104615420103073],[-0.5031930804252625],[-0.3421836197376251],[-0.4586411416530609]],"matrixHiddenWeight":[[[-1.8984078168869019],[-1.3788155317306519]],[[-0.6008895635604858],[-0.6011016368865967]],[[-0.5338056087493896],[-0.8651964068412781]],[[-1.784061312675476],[-1.7900069952011108]],[[-1.7878272533416748],[-1.6924774646759033]],[[-2.0433950424194336],[-2.1875784397125244]],[[0.39016175270080566],[-0.41067081689834595]],[[0.6298884153366089],[0.5983999371528625]],[[-0.10466031730175018],[0.324389785528183]],[[-0.37222251296043396],[-0.4017921984195709]],[[0.20646683871746063],[0.25867101550102234]],[[-0.29948297142982483],[0.30359548330307007]],[[-1.4142098426818848],[-1.2968041896820068]],[[-0.35803404450416565],[0.16681642830371857]],[[0.29281917214393616],[0.19092388451099396]]],"Bias":0,"Activation":"sigmoid","hiddenLayers":2,"dense":false,"divMulI":2250,"divMulO":30},{"Inputs":[0.03105263225734234,0.026842106133699417,0.028947368264198303,0.09421052783727646,0.08315789699554443,0.07894736528396606,0.06894736737012863,0.04684210568666458,0.038947369903326035,0.07473684102296829,0.08947368711233139,0.10000000149011612,0.06052631512284279,0.07578947395086288,0.0889473706483841],"arrInputWeight":[[0.11952731013298035],[-0.560701847076416],[0.02851906418800354],[-1.287584662437439],[-1.561596155166626],[-1.4213533401489258],[-1.467495322227478],[-0.3413638174533844],[0.0024619880132377148],[-1.218285083770752],[-1.5643377304077148],[-1.5167293548583984],[-1.020936369895935],[-1.207489013671875],[-1.7588231563568115]],"matrixHiddenWeight":[[[-0.40751805901527405],[0.286930650472641]],[[-0.20905253291130066],[-0.44735801219940186]],[[-0.09178852289915085],[-0.22457057237625122]],[[-1.8188732862472534],[-1.6080878973007202]],[[-1.0428125858306885],[-0.9191672801971436]],[[-1.6303733587265015],[-1.0186914205551147]],[[-0.7746325135231018],[-1.3642278909683228]],[[-0.7268824577331543],[-0.5595113039016724]],[[-0.09483692795038223],[-0.6734118461608887]],[[-1.1509666442871094],[-1.2221808433532715]],[[-1.6817708015441895],[-1.8460298776626587]],[[-1.3326637744903564],[-1.8317841291427612]],[[-1.1418155431747437],[-0.7799163460731506]],[[-1.2850946187973022],[-1.6117254495620728]],[[-1.4833705425262451],[-1.0605638027191162]]],"Bias":0,"Activation":"sigmoid","hiddenLayers":2,"dense":false,"divMulI":1900,"divMulO":30},{"Inputs":[0.061883408576250076,0.060538116842508316,0.06278026849031448,0.022421523928642273,0.013452914543449879,0.010762332007288933,0.10000000149011612,0.07399103045463562,0.06636771559715271,0.04439461976289749,0.021524664014577866,0.0197309423238039,0.04887892305850983,0.033183857798576355,0.02466367743909359],"arrInputWeight":[[-1.5097190141677856],[-1.1213250160217285],[-0.9548117518424988],[-0.42549440264701843],[-0.16777977347373962],[-0.16941329836845398],[-2.726017951965332],[-1.0727522373199463],[-1.108153223991394],[-1.12235426902771],[-0.10233695060014725],[0.09775473177433014],[-1.1568140983581543],[0.038610197603702545],[-0.4131183326244354]],"matrixHiddenWeight":[[[-0.9694233536720276],[-1.2328118085861206]],[[-0.9820318222045898],[-0.7054402232170105]],[[-1.0537142753601074],[-1.5403603315353394]],[[-0.04566812515258789],[0.13580065965652466]],[[0.3297281265258789],[0.08626536279916763]],[[0.4895857274532318],[0.6278358697891235]],[[-2.6522176265716553],[-2.1144258975982666]],[[-1.5073349475860596],[-1.701790452003479]],[[-1.1739376783370972],[-1.154411792755127]],[[-0.4436250925064087],[-0.9096565246582031]],[[0.17477105557918549],[-0.34660062193870544]],[[-0.369149386882782],[0.18881602585315704]],[[-1.2427423000335693],[-1.2947869300842285]],[[-0.09071327745914459],[-0.011604536324739456]],[[-0.6264245510101318],[-0.5577477216720581]]],"Bias":0,"Activation":"sigmoid","hiddenLayers":2,"dense":false,"divMulI":2230,"divMulO":30},{"Inputs":[0.07149122655391693,0.06578947603702545,0.06271930038928986,0.020614035427570343,0.017105262726545334,0.016228070482611656,0.09561403840780258,0.09692982584238052,0.10000000149011612,0.05219298228621483,0.03728070110082626,0.0271929819136858,0.04254385828971863,0.026754386723041534,0.020614035427570343],"arrInputWeight":[[-0.9166096448898315],[-0.8454420566558838],[-1.1863876581192017],[0.35271358489990234],[-0.3498424291610718],[0.2521248757839203],[-1.6142549514770508],[-1.7680455446243286],[-2.2736523151397705],[-1.0688008069992065],[-0.12394580990076065],[0.30054256319999695],[-0.716902494430542],[-0.27781200408935547],[0.30307960510253906]],"matrixHiddenWeight":[[[-1.4326047897338867],[-0.8981879949569702]],[[-1.2053345441818237],[-0.881751298904419]],[[-0.9300790429115295],[-0.5602808594703674]],[[0.033315472304821014],[0.34739625453948975]],[[0.44372838735580444],[-0.03648217394948006]],[[0.5254100561141968],[-0.03480226546525955]],[[-1.371580719947815],[-1.624906063079834]],[[-1.8911558389663696],[-1.8183794021606445]],[[-2.143960475921631],[-2.100771903991699]],[[-1.1014081239700317],[-1.023970127105713]],[[-0.19248570501804352],[-0.23484885692596436]],[[0.23362912237644196],[0.20403365790843964]],[[-0.183627650141716],[-0.045139994472265244]],[[0.2712397873401642],[0.26681140065193176]],[[0.34245920181274414],[-0.3504297137260437]]],"Bias":0,"Activation":"sigmoid","hiddenLayers":2,"dense":false,"divMulI":2280,"divMulO":30},{"Inputs":[0.08884461969137192,0.0605577677488327,0.04780876636505127,0.10000000149011612,0.10000000149011612,0.10000000149011612,0.08286852389574051,0.026693226769566536,0.0247011948376894,0.06852589547634125,0.038247011601924896,0.02629482001066208,0.05896414443850517,0.04462151229381561,0.036653388291597366],"arrInputWeight":[[-1.0339241027832031],[-0.44201716780662537],[-0.45821380615234375],[-2.184680223464966],[-1.986614465713501],[-1.4684722423553467],[-1.4049323797225952],[-0.31482812762260437],[0.3948758542537689],[-0.5573054552078247],[-0.6089264750480652],[0.3470408022403717],[-0.7547574639320374],[-0.3760746419429779],[-0.7527856230735779]],"matrixHiddenWeight":[[[-1.3711426258087158],[-1.2326010465621948]],[[-0.7169421315193176],[-1.0946428775787354]],[[-0.48217764496803284],[-0.8716789484024048]],[[-2.0021238327026367],[-1.9560720920562744]],[[-1.7704598903656006],[-1.396854281425476]],[[-1.5440751314163208],[-1.9631423950195312]],[[-1.3761656284332275],[-0.9299542307853699]],[[-0.12026306986808777],[0.3415561616420746]],[[-0.5294010043144226],[-0.38411906361579895]],[[-0.9874716401100159],[-1.3850555419921875]],[[-0.3429616093635559],[-0.5599728226661682]],[[0.25969526171684265],[-0.5681309700012207]],[[-1.0368783473968506],[-0.36249011754989624]],[[-0.26380324363708496],[-0.6511268615722656]],[[-0.38923123478889465],[-0.12119493633508682]]],"Bias":0,"Activation":"sigmoid","hiddenLayers":2,"dense":false,"divMulI":2510,"divMulO":30},{"Inputs":[0.10000000149011612,0.0822727307677269,0.07954545319080353,0.023636363446712494,0.011363636702299118,0.009545454755425453,0.06272727251052856,0.034090910106897354,0.026818182319402695,0.07500000298023224,0.04545454680919647,0.03454545512795448,0.06545454263687134,0.05045454576611519,0.04954545572400093],"arrInputWeight":[[-1.8841742277145386],[-2.117630958557129],[-2.07659912109375],[-0.11725027859210968],[0.357347309589386],[-0.0170315932482481],[-1.5661938190460205],[0.08956366032361984],[-0.052698828279972076],[-1.8895210027694702],[-0.8671973347663879],[-0.5079761147499084],[-1.2969956398010254],[-0.9618800282478333],[-0.9499697685241699]],"matrixHiddenWeight":[[[-2.324070453643799],[-2.0610597133636475]],[[-1.185498595237732],[-1.3965444564819336]],[[-1.4993613958358765],[-1.6150671243667603]],[[0.0005926029407419264],[-0.46641966700553894]],[[0.3588261604309082],[-0.16967715322971344]],[[0.5459975600242615],[-0.1480141580104828]],[[-1.122498631477356],[-0.6503559350967407]],[[-0.22004370391368866],[-0.5727401971817017]],[[0.05932592228055],[0.08531418442726135]],[[-1.5017719268798828],[-1.5640631914138794]],[[-0.3598273992538452],[-0.46942901611328125]],[[-0.18008564412593842],[-0.2541435658931732]],[[-1.3815518617630005],[-1.0109785795211792]],[[-0.6269366145133972],[-1.0006932020187378]],[[-0.9726575613021851],[-1.1089646816253662]]],"Bias":0,"Activation":"sigmoid","hiddenLayers":2,"dense":false,"divMulI":2200,"divMulO":30},{"Inputs":[0.07731092721223831,0.0676470622420311,0.06050420179963112,0.01638655550777912,0.03991596773266792,0.052941177040338516,0.07436975091695786,0.09327731281518936,0.10000000149011612,0.04159663990139961,0.045378152281045914,0.025630252435803413,0.04159663990139961,0.02857142873108387,0.02478991635143757],"arrInputWeight":[[-1.8221135139465332],[-1.5206270217895508],[-1.3490864038467407],[0.25314784049987793],[-0.8753913640975952],[-0.5728247165679932],[-1.644057035446167],[-1.4677879810333252],[-1.9360991716384888],[-0.2991464138031006],[-0.6018508672714233],[-0.5881956219673157],[-0.7750364542007446],[-0.38615426421165466],[-0.2820720970630646]],"matrixHiddenWeight":[[[-1.2642571926116943],[-1.248506784439087]],[[-1.1511324644088745],[-1.4684500694274902]],[[-1.4636380672454834],[-1.3952231407165527]],[[0.03833622485399246],[0.1672193557024002]],[[-0.6318360567092896],[-0.8199509978294373]],[[-1.1796468496322632],[-0.3329247534275055]],[[-1.3055877685546875],[-1.3360695838928223]],[[-2.0958080291748047],[-2.1601922512054443]],[[-2.3876423835754395],[-1.643762230873108]],[[-0.5461155772209167],[-0.22057673335075378]],[[-0.8250957727432251],[-0.4912964105606079]],[[-0.09188909828662872],[-0.5024722218513489]],[[-0.42535537481307983],[-0.4235795736312866]],[[-0.029806965962052345],[-0.034004680812358856]],[[0.2529599666595459],[-0.5076285004615784]]],"Bias":0,"Activation":"sigmoid","hiddenLayers":2,"dense":false,"divMulI":2380,"divMulO":30},{"Inputs":[0.05603448301553726,0.037931036204099655,0.03232758492231369,0.10000000149011612,0.0974137932062149,0.09525862336158752,0.014224138110876083,0.00732758641242981,0.00732758641242981,0.08965517580509186,0.06594827771186829,0.05215517058968544,0.0840517207980156,0.07672413438558578,0.07413793355226517],"arrInputWeight":[[-0.7916604280471802],[-0.20097866654396057],[-0.20930425822734833],[-2.12045955657959],[-1.5886789560317993],[-1.853162169456482],[0.025675363838672638],[0.28406187891960144],[0.5010239481925964],[-1.380989670753479],[-0.5566070675849915],[-0.6516451835632324],[-1.1457751989364624],[-0.8047124147415161],[-1.6395621299743652]],"matrixHiddenWeight":[[[-0.44614648818969727],[-0.804121196269989]],[[-0.7749598622322083],[-0.7923461198806763]],[[0.20454834401607513],[0.17066355049610138]],[[-1.4861012697219849],[-1.446588158607483]],[[-1.371224284172058],[-1.2812691926956177]],[[-1.9842222929000854],[-1.4942506551742554]],[[-0.17092908918857574],[0.3801581859588623]],[[0.5470285415649414],[0.5704700350761414]],[[0.41980233788490295],[0.3996545970439911]],[[-1.89582097530365],[-1.5199373960494995]],[[-1.0102609395980835],[-1.1137422323226929]],[[-0.618330717086792],[-0.9150841236114502]],[[-1.651056170463562],[-1.6580535173416138]],[[-1.4245232343673706],[-1.6684683561325073]],[[-0.6918269395828247],[-1.245632290840149]]],"Bias":0,"Activation":"sigmoid","hiddenLayers":2,"dense":false,"divMulI":2320,"divMulO":30},{"Inputs":[0.09890710562467575,0.10000000149011612,0.09890710562467575,0.01803278736770153,0.04918032884597778,0.062295082956552505,0.05027322471141815,0.03497267886996269,0.025136612355709076,0.053005464375019073,0.07486338913440704,0.08579234778881073,0.0726775974035263,0.05355191230773926,0.040437158197164536],"arrInputWeight":[[-1.9716144800186157],[-1.8168312311172485],[-1.3474494218826294],[0.3584873378276825],[-0.6165943145751953],[-0.8358904123306274],[-0.29110491275787354],[-0.443524032831192],[0.1349988877773285],[-0.8015086650848389],[-1.6259009838104248],[-1.6284162998199463],[-1.5425183773040771],[-1.1032383441925049],[-0.1890619546175003]],"matrixHiddenWeight":[[[-1.9442951679229736],[-1.6475837230682373]],[[-1.3873417377471924],[-1.5255918502807617]],[[-2.1058876514434814],[-1.6238552331924438]],[[0.5470722317695618],[-0.3822741210460663]],[[-0.9825772047042847],[-0.8475524187088013]],[[-1.0114595890045166],[-1.2180033922195435]],[[-0.21001963317394257],[-0.8821997046470642]],[[-0.43487098813056946],[-0.7019093036651611]],[[-0.17997321486473083],[0.332246869802475]],[[-1.0963475704193115],[-0.4863840937614441]],[[-1.3014647960662842],[-1.0617597103118896]],[[-1.710202932357788],[-1.064268708229065]],[[-1.1553363800048828],[-1.4074807167053223]],[[-0.2967188060283661],[-0.6562025547027588]],[[-0.3628414273262024],[-0.4421142339706421]]],"Bias":0,"Activation":"sigmoid","hiddenLayers":2,"dense":false,"divMulI":1830,"divMulO":30},{"Inputs":[0.10000000149011612,0.09458128362894058,0.09458128362894058,0.031034482643008232,0.03842364624142647,0.03891625627875328,0.0674876868724823,0.055665023624897,0.0635467991232872,0.054187193512916565,0.03891625627875328,0.043842364102602005,0.05763546749949455,0.06059113144874573,0.03842364624142647],"arrInputWeight":[[-2.062012195587158],[-1.7350680828094482],[-1.7468726634979248],[-0.1416836977005005],[-0.12607111036777496],[-0.567448616027832],[-0.9509207010269165],[-0.4639487564563751],[-0.8684208989143372],[-0.9864996075630188],[-0.8879480361938477],[-0.8509370684623718],[-1.3831678628921509],[-0.7215347290039062],[-0.6794596910476685]],"matrixHiddenWeight":[[[-2.193643569946289],[-1.9622206687927246]],[[-1.3446333408355713],[-1.957575798034668]],[[-1.6691186428070068],[-1.8312125205993652]],[[-0.6297177076339722],[-0.18801255524158478]],[[-0.6601250767707825],[-0.309468150138855]],[[-0.3261929452419281],[-0.3162786066532135]],[[-0.7143992781639099],[-1.1085786819458008]],[[-0.9728838205337524],[-0.6220859885215759]],[[-1.5438181161880493],[-0.7257453799247742]],[[-1.236736536026001],[-0.9031862020492554]],[[-0.7162907123565674],[-0.1554006189107895]],[[-0.10652554780244827],[-0.769069492816925]],[[-1.0586193799972534],[-1.027584433555603]],[[-1.4248095750808716],[-1.3353791236877441]],[[-0.8341187834739685],[-0.46566906571388245]]],"Bias":0,"Activation":"sigmoid","hiddenLayers":2,"dense":false,"divMulI":2030,"divMulO":30},{"Inputs":[0.08140496164560318,0.06115702539682388,0.05000000074505806,0.014462810009717941,0.009504131972789764,0.00826446246355772,0.04876033216714859,0.021900827065110207,0.013223140500485897,0.10000000149011612,0.09504131972789764,0.09090909361839294,0.06198346987366676,0.03305784985423088,0.020247934386134148],"arrInputWeight":[[-1.6965428590774536],[-1.315747618675232],[-0.6584871411323547],[0.20697088539600372],[0.20753338932991028],[0.5416227579116821],[-0.4790624678134918],[0.12766879796981812],[0.107770174741745],[-2.2473220825195312],[-1.7731757164001465],[-1.9187095165252686],[-1.1448594331741333],[-0.28628286719322205],[0.49656689167022705]],"matrixHiddenWeight":[[[-1.683166265487671],[-1.3767753839492798]],[[-0.9958564639091492],[-1.3101054430007935]],[[-0.39063382148742676],[-0.2303038388490677]],[[-0.21771351993083954],[-0.21142251789569855]],[[-0.06586581468582153],[0.3484075367450714]],[[0.2532695233821869],[0.37505772709846497]],[[-0.41142117977142334],[-0.6967188119888306]],[[0.16524088382720947],[-0.283290296792984]],[[-0.26393309235572815],[0.5363942980766296]],[[-1.8627192974090576],[-2.0669009685516357]],[[-1.8329604864120483],[-1.8290104866027832]],[[-1.382670283317566],[-1.1549816131591797]],[[-0.6515383124351501],[-1.3128149509429932]],[[0.02571256458759308],[0.10273541510105133]],[[-0.09664689749479294],[-0.341275155544281]]],"Bias":0,"Activation":"sigmoid","hiddenLayers":2,"dense":false,"divMulI":2420,"divMulO":30},{"Inputs":[0.014170040376484394,0.005668016150593758,0.005668016150593758,0.10000000149011612,0.09554655849933624,0.09271255135536194,0.050607286393642426,0.015789473429322243,0.013765182346105576,0.0801619440317154,0.052226722240448,0.03724696487188339,0.052226722240448,0.05141700431704521,0.05263157933950424],"arrInputWeight":[[-0.1803470253944397],[0.31403326988220215],[0.30147719383239746],[-2.3260908126831055],[-1.9607261419296265],[-1.5094969272613525],[-0.8936963677406311],[0.22956635057926178],[0.36957409977912903],[-1.0807112455368042],[-0.9649892449378967],[-0.23781424760818481],[-0.370640367269516],[-0.6793626546859741],[-0.5929238796234131]],"matrixHiddenWeight":[[[0.4526675343513489],[0.5269476175308228]],[[0.692089319229126],[0.025118354707956314]],[[0.5428229570388794],[-0.08160991221666336]],[[-1.4864718914031982],[-2.0944809913635254]],[[-1.4512897729873657],[-1.9319111108779907]],[[-2.1671741008758545],[-1.9741747379302979]],[[-0.693202555179596],[-0.28724205493927]],[[0.18825770914554596],[0.4029606878757477]],[[0.6319409608840942],[0.6295125484466553]],[[-1.9191863536834717],[-1.722244143486023]],[[-1.1418300867080688],[-0.637424886226654]],[[-0.3762727677822113],[-0.054295897483825684]],[[-0.3064727783203125],[-0.5390164256095886]],[[-0.9612298607826233],[-0.27977830171585083]],[[-0.3767355978488922],[-1.0337938070297241]]],"Bias":0,"Activation":"sigmoid","hiddenLayers":2,"dense":false,"divMulI":2470,"divMulO":30},{"Inputs":[0.053960397839546204,0.030693069100379944,0.02326732687652111,0.10000000149011612,0.08564356714487076,0.07574257254600525,0.012376237660646439,0.007425742689520121,0.005940594244748354,0.08811881393194199,0.07524752616882324,0.06534653156995773,0.07574257254600525,0.06930693238973618,0.06930693238973618],"arrInputWeight":[[-0.510610044002533],[-0.3165505528450012],[-0.49226483702659607],[-2.1427698135375977],[-1.3530508279800415],[-1.1588910818099976],[-0.10236438363790512],[0.7664765119552612],[0.5288549065589905],[-1.911138653755188],[-1.0668033361434937],[-0.8682302832603455],[-0.9822774529457092],[-1.0251680612564087],[-1.3293851613998413]],"matrixHiddenWeight":[[[-0.5958356261253357],[-1.150805115699768]],[[0.14684680104255676],[0.2056533247232437]],[[-0.1836763471364975],[-0.033486876636743546]],[[-1.9234713315963745],[-2.208052396774292]],[[-1.7779878377914429],[-1.7655390501022339]],[[-0.7653504610061646],[-1.0610355138778687]],[[0.4276556968688965],[0.2558210790157318]],[[0.06603584438562393],[0.7870479822158813]],[[0.5036330223083496],[-0.007679562550038099]],[[-1.876414179801941],[-1.0520769357681274]],[[-1.2706900835037231],[-1.5827922821044922]],[[-0.8203871846199036],[-0.600124180316925]],[[-1.6682742834091187],[-1.3281739950180054]],[[-1.157827377319336],[-0.9000660181045532]],[[-0.5531732439994812],[-1.5287755727767944]]],"Bias":0,"Activation":"sigmoid","hiddenLayers":2,"dense":false,"divMulI":2020,"divMulO":30},{"Inputs":[0.10000000149011612,0.09959839284420013,0.09959839284420013,0.021686747670173645,0.028915662318468094,0.03815260902047157,0.05783132463693619,0.04176706820726395,0.03935743123292923,0.07590361684560776,0.055020079016685486,0.046987950801849365,0.04658634588122368,0.06586345285177231,0.08152610808610916],"arrInputWeight":[[-1.581057071685791],[-1.8272777795791626],[-1.8516676425933838],[0.16183769702911377],[-0.280123233795166],[-0.19616591930389404],[-1.0743508338928223],[-0.9198786020278931],[-0.18715853989124298],[-0.8023772835731506],[-0.8845072388648987],[-0.22198955714702606],[-0.07582838088274002],[-1.064459204673767],[-1.0126954317092896]],"matrixHiddenWeight":[[[-1.7830798625946045],[-1.6407768726348877]],[[-1.6038645505905151],[-1.6751056909561157]],[[-2.241471529006958],[-1.9745492935180664]],[[0.32609567046165466],[-0.16938096284866333]],[[-0.5482907891273499],[-0.21173809468746185]],[[-0.509059727191925],[-0.7781477570533752]],[[-0.5841265916824341],[-0.9490587711334229]],[[-0.5623550415039062],[-0.3175424039363861]],[[-0.8621990084648132],[-0.2153981626033783]],[[-1.7359427213668823],[-0.8372575640678406]],[[-1.1042104959487915],[-1.1719062328338623]],[[-0.9204681515693665],[-1.0516432523727417]],[[-0.4128395617008209],[-0.08722715079784393]],[[-0.5376885533332825],[-1.3214588165283203]],[[-1.69765043258667],[-1.2665905952453613]]],"Bias":0,"Activation":"sigmoid","hiddenLayers":2,"dense":false,"divMulI":2490,"divMulO":40},{"Inputs":[0.09959349781274796,0.04105691239237785,0.03211382031440735,0.09674796462059021,0.06544715166091919,0.05284553021192551,0.04796747863292694,0.01991869881749153,0.009756097570061684,0.0630081295967102,0.015447154641151428,0.007723577320575714,0.10000000149011612,0.06016260012984276,0.056910570710897446],"arrInputWeight":[[-1.9664726257324219],[-0.05942108482122421],[0.008450833149254322],[-1.9536958932876587],[-0.6681391596794128],[-0.35012251138687134],[-0.5416083931922913],[0.26090267300605774],[0.40757742524147034],[-0.6077812314033508],[0.6185541152954102],[0.3919455111026764],[-1.7750680446624756],[-0.7041348814964294],[-0.36003804206848145]],"matrixHiddenWeight":[[[-1.4178920984268188],[-1.8193843364715576]],[[-0.21204985678195953],[-0.3907383382320404]],[[-0.38326647877693176],[-0.43825772404670715]],[[-2.2680132389068604],[-1.8131942749023438]],[[-0.9159813523292542],[-1.0464153289794922]],[[-0.47709405422210693],[-0.4618920087814331]],[[-0.465801864862442],[-1.0103095769882202]],[[0.1860511153936386],[-0.1413453370332718]],[[-0.15520253777503967],[0.30580833554267883]],[[-0.5240055322647095],[-1.0100247859954834]],[[0.5633752346038818],[0.36759260296821594]],[[-0.13139961659908295],[0.5017931461334229]],[[-1.8535596132278442],[-2.298295021057129]],[[-1.3372163772583008],[-1.1824568510055542]],[[-1.1539314985275269],[-0.855811357498169]]],"Bias":0,"Activation":"sigmoid","hiddenLayers":2,"dense":false,"divMulI":2460,"divMulO":40},{"Inputs":[0.10000000149011612,0.09878542274236679,0.09878542274236679,0.04979757219552994,0.030364371836185455,0.025506073608994484,0.07813765108585358,0.06599190086126328,0.06315789371728897,0.07854250818490982,0.05263157933950424,0.04412955418229103,0.048178136348724365,0.05141700431704521,0.05465587228536606],"arrInputWeight":[[-1.8558964729309082],[-1.8771049976348877],[-2.205591917037964],[-1.0848512649536133],[0.00013374985428526998],[0.0033992554526776075],[-0.9745941758155823],[-0.7887398600578308],[-0.4750828146934509],[-0.8222159743309021],[-1.1706268787384033],[-0.7429185509681702],[-0.9445972442626953],[-0.5065014362335205],[-0.9017050862312317]],"matrixHiddenWeight":[[[-1.2734509706497192],[-1.8096987009048462]],[[-1.7036716938018799],[-1.7863316535949707]],[[-1.7933697700500488],[-2.0465776920318604]],[[-0.4307381510734558],[-0.9253280162811279]],[[-0.09760269522666931],[0.28764909505844116]],[[-0.031623393297195435],[0.4104017913341522]],[[-1.2516933679580688],[-1.061876893043518]],[[-1.0735100507736206],[-0.8708869814872742]],[[-0.8944106101989746],[-0.5933747291564941]],[[-1.489071249961853],[-1.2278465032577515]],[[-0.49152740836143494],[-0.7749848961830139]],[[0.003969870042055845],[-0.1915186643600464]],[[-0.5331850051879883],[-0.9288157224655151]],[[-0.26743465662002563],[-1.0348186492919922]],[[-0.9049214124679565],[-1.2096312046051025]]],"Bias":0,"Activation":"sigmoid","hiddenLayers":2,"dense":false,"divMulI":2470,"divMulO":40},{"Inputs":[0.10000000149011612,0.09470899403095245,0.09206349402666092,0.05873015895485878,0.037566136568784714,0.028042327612638474,0.034391533583402634,0.01904761977493763,0.014814814552664757,0.07619047909975052,0.051851850003004074,0.0396825410425663,0.06560846418142319,0.05608465522527695,0.05079365149140358],"arrInputWeight":[[-1.6519958972930908],[-1.542892575263977],[-2.1308302879333496],[-0.753082275390625],[-0.9640417695045471],[0.01596546545624733],[-0.5500479340553284],[-0.09211364388465881],[0.10905368626117706],[-1.344821572303772],[-0.9268308877944946],[-0.9372232556343079],[-1.0872242450714111],[-1.143968105316162],[-0.9163478016853333]],"matrixHiddenWeight":[[[-1.9987319707870483],[-1.6468340158462524]],[[-2.0068252086639404],[-1.8677480220794678]],[[-1.4366967678070068],[-1.6756798028945923]],[[-1.3346134424209595],[-1.3670586347579956]],[[-0.2126053124666214],[-0.26805269718170166]],[[-0.15410162508487701],[-0.7313810586929321]],[[-0.6652709245681763],[-0.02179364301264286]],[[0.11330161988735199],[-0.11620750278234482]],[[-0.3234727382659912],[0.24039919674396515]],[[-1.6627172231674194],[-1.8105028867721558]],[[-1.3429276943206787],[-1.1968218088150024]],[[-0.5444155335426331],[-0.34620293974876404]],[[-1.1730518341064453],[-1.3262757062911987]],[[-0.9182137846946716],[-0.583329439163208]],[[-0.9910213351249695],[-0.3902614116668701]]],"Bias":0,"Activation":"sigmoid","hiddenLayers":2,"dense":false,"divMulI":1890,"divMulO":40},{"Inputs":[0.10000000149011612,0.10000000149011612,0.0992031842470169,0.07250995934009552,0.051394421607255936,0.04023904353380203,0.09800796955823898,0.08047808706760406,0.06852589547634125,0.0820717141032219,0.06215139478445053,0.0605577677488327,0.07490039616823196,0.06533864885568619,0.06215139478445053],"arrInputWeight":[[-1.9645912647247314],[-1.8495908975601196],[-1.7588244676589966],[-0.7821236848831177],[-1.028183102607727],[-0.8478965163230896],[-1.3884118795394897],[-1.337891936302185],[-0.8153581023216248],[-0.7944044470787048],[-1.2559274435043335],[-0.5756045579910278],[-0.6890437006950378],[-0.9161406755447388],[-1.087362289428711]],"matrixHiddenWeight":[[[-1.5992966890335083],[-1.3111323118209839]],[[-1.137473464012146],[-1.3588882684707642]],[[-1.342572808265686],[-1.5370935201644897]],[[-0.6679438948631287],[-1.3227646350860596]],[[-0.7146649956703186],[-1.0713779926300049]],[[-0.062482547014951706],[-0.8066844344139099]],[[-1.8776048421859741],[-1.9825245141983032]],[[-1.381489872932434],[-1.2792302370071411]],[[-0.7651984095573425],[-1.411198377609253]],[[-0.9985746145248413],[-1.1473722457885742]],[[-0.41765090823173523],[-0.7242996692657471]],[[-0.9531146883964539],[-0.9988287687301636]],[[-1.3720053434371948],[-0.8538500070571899]],[[-1.366714596748352],[-0.9590180516242981]],[[-0.41220781207084656],[-0.9679793119430542]]],"Bias":0,"Activation":"sigmoid","hiddenLayers":2,"dense":false,"divMulI":2510,"divMulO":40},{"Inputs":[0.10000000149011612,0.09037432819604874,0.08663101494312286,0.013368983753025532,0.0181818176060915,0.02299465239048004,0.07593582570552826,0.02085561491549015,0.02139037474989891,0.05454545468091965,0.05508021265268326,0.05508021265268326,0.06096256524324417,0.04438502714037895,0.03315507993102074],"arrInputWeight":[[-1.625515103340149],[-1.6012109518051147],[-1.7604987621307373],[-0.16465909779071808],[0.511358380317688],[-0.4964030385017395],[-1.3864202499389648],[-0.12421342730522156],[0.08191172778606415],[-0.8379924893379211],[-0.4273884892463684],[-1.1285654306411743],[-0.7945309281349182],[-0.761902391910553],[0.0797097384929657]],"matrixHiddenWeight":[[[-2.285386562347412],[-1.7524915933609009]],[[-2.1361043453216553],[-2.212691307067871]],[[-2.027585029602051],[-1.6457886695861816]],[[0.5477768182754517],[-0.28640878200531006]],[[0.06569796800613403],[0.11275511234998703]],[[0.029743347316980362],[-0.5125111937522888]],[[-1.3317714929580688],[-1.0875117778778076]],[[-0.05634249746799469],[0.19599542021751404]],[[-0.5142077207565308],[0.3259779214859009]],[[-1.2001761198043823],[-1.063149333000183]],[[-0.6461859345436096],[-0.6426555514335632]],[[-1.1230480670928955],[-1.2996323108673096]],[[-1.4840859174728394],[-0.6226354241371155]],[[-0.6154037714004517],[-0.18531344830989838]],[[-0.2190127670764923],[-0.7428354620933533]]],"Bias":0,"Activation":"sigmoid","hiddenLayers":2,"dense":false,"divMulI":1870,"divMulO":40},{"Inputs":[0.07234042882919312,0.059574469923973083,0.06468085199594498,0.01702127605676651,0.017872340977191925,0.0246808510273695,0.09702127426862717,0.10000000149011612,0.09574468433856964,0.040425531566143036,0.0191489364951849,0.015744680538773537,0.05702127516269684,0.034893617033958435,0.025957446545362473],"arrInputWeight":[[-0.9255263209342957],[-1.0748764276504517],[-1.154739260673523],[-0.37511929869651794],[0.42474088072776794],[-0.47635674476623535],[-1.687047004699707],[-1.6021902561187744],[-1.4567533731460571],[-0.7602634429931641],[0.0012991185067221522],[-0.1532496213912964],[-0.7766647934913635],[-0.06281624734401703],[-0.25941136479377747]],"matrixHiddenWeight":[[[-1.0293231010437012],[-1.088090419769287]],[[-1.1720246076583862],[-0.7061768770217896]],[[-1.4888871908187866],[-1.6169103384017944]],[[-0.4067878723144531],[0.49705275893211365]],[[0.4277934730052948],[-0.10459508001804352]],[[-0.10641304403543472],[0.33506351709365845]],[[-1.9525525569915771],[-1.864074468612671]],[[-1.894045114517212],[-2.4963817596435547]],[[-1.5657291412353516],[-2.1404731273651123]],[[-0.838657557964325],[-0.7071070671081543]],[[-0.31250375509262085],[0.2873106300830841]],[[0.08076205104589462],[-0.3633354604244232]],[[-1.1663472652435303],[-1.1215862035751343]],[[-0.28625014424324036],[-0.3728819191455841]],[[-0.24802808463573456],[-0.26862508058547974]]],"Bias":0,"Activation":"sigmoid","hiddenLayers":2,"dense":false,"divMulI":2350,"divMulO":40},{"Inputs":[0.028502415865659714,0.02415458858013153,0.018840579316020012,0.10000000149011612,0.09082125872373581,0.07777778059244156,0.07101449370384216,0.05410628020763397,0.03333333507180214,0.07246376574039459,0.09468598663806915,0.08888889104127884,0.06280193477869034,0.0657004863023758,0.07922705262899399],"arrInputWeight":[[-0.5596348643302917],[0.3467956483364105],[-0.04357901215553284],[-1.425795316696167],[-1.2597723007202148],[-1.6342427730560303],[-1.5435711145401],[-1.189620018005371],[-0.7040674090385437],[-0.7477235794067383],[-1.8762840032577515],[-0.9901688694953918],[-0.44266822934150696],[-1.2474747896194458],[-1.3765723705291748]],"matrixHiddenWeight":[[[0.3346588909626007],[-0.5932685732841492]],[[0.4262772798538208],[-0.1904120296239853]],[[0.1577535718679428],[0.06157054752111435]],[[-1.9713976383209229],[-1.8583641052246094]],[[-1.5581977367401123],[-1.889941930770874]],[[-1.0144802331924438],[-1.4481396675109863]],[[-1.383089303970337],[-1.1695958375930786]],[[-0.5359296798706055],[-0.6454481482505798]],[[0.026117492467164993],[-0.717509388923645]],[[-1.1874858140945435],[-1.456807017326355]],[[-1.7866613864898682],[-1.296082854270935]],[[-1.5993268489837646],[-1.3498460054397583]],[[-0.6363998055458069],[-1.281812310218811]],[[-1.2140283584594727],[-1.070455551147461]],[[-1.265351414680481],[-0.9968987703323364]]],"Bias":0,"Activation":"sigmoid","hiddenLayers":2,"dense":false,"divMulI":2070,"divMulO":40},{"Inputs":[0.07083333283662796,0.06712962687015533,0.0625,0.015277777798473835,0.012037036940455437,0.009259259328246117,0.03981481492519379,0.028240740299224854,0.022685185074806213,0.04675925895571709,0.035185184329748154,0.027314815670251846,0.10000000149011612,0.08981481194496155,0.0833333358168602],"arrInputWeight":[[-1.7170466184616089],[-1.4744832515716553],[-0.9386979341506958],[-0.2298983931541443],[0.3801927864551544],[0.43547990918159485],[-0.2117186188697815],[0.16749615967273712],[-0.28203797340393066],[-0.5808764696121216],[-0.11518062651157379],[-0.6127772927284241],[-1.692327857017517],[-2.1930909156799316],[-1.5854989290237427]],"matrixHiddenWeight":[[[-1.5077738761901855],[-0.7390323877334595]],[[-1.6159406900405884],[-1.4012506008148193]],[[-0.6960993409156799],[-0.9536670446395874]],[[-0.3423636257648468],[0.5326763391494751]],[[-0.2522740364074707],[-0.19194193184375763]],[[-0.005765995010733604],[0.22514423727989197]],[[-0.8844918608665466],[-0.37539243698120117]],[[-0.3152938783168793],[-0.08560652285814285]],[[-0.3515782356262207],[-0.5435177087783813]],[[-0.3413313329219818],[-0.9638815522193909]],[[-0.38448840379714966],[-0.5545764565467834]],[[0.21801653504371643],[0.12047469615936279]],[[-2.3781094551086426],[-2.19626784324646]],[[-1.6562563180923462],[-1.650748610496521]],[[-1.4437617063522339],[-1.9339450597763062]]],"Bias":0,"Activation":"sigmoid","hiddenLayers":2,"dense":false,"divMulI":2160,"divMulO":40},{"Inputs":[0.10000000149011612,0.07592592388391495,0.0634259283542633,0.017592592164874077,0.014814814552664757,0.012037036940455437,0.046296294778585434,0.05092592537403107,0.051851850003004074,0.05787036940455437,0.04398148134350777,0.034259259700775146,0.05925925821065903,0.05833333358168602,0.05416666716337204],"arrInputWeight":[[-2.328451156616211],[-1.5025861263275146],[-0.9492871165275574],[0.17847469449043274],[-0.36919698119163513],[0.669096052646637],[-0.8045809268951416],[-1.346317172050476],[-0.9746271967887878],[-1.2516319751739502],[-0.4298464357852936],[-0.7590646147727966],[-1.0157746076583862],[-0.8653886914253235],[-0.6428951025009155]],"matrixHiddenWeight":[[[-2.6206085681915283],[-2.331051826477051]],[[-1.6331820487976074],[-1.8419864177703857]],[[-1.0198209285736084],[-1.5413482189178467]],[[0.01521630585193634],[-0.2758215665817261]],[[0.48450174927711487],[-0.3717976212501526]],[[-0.11285989731550217],[-0.14610876142978668]],[[-0.6180198192596436],[-0.47864997386932373]],[[-1.0079368352890015],[-0.5776051878929138]],[[-0.40126627683639526],[-1.249861717224121]],[[-1.4576194286346436],[-1.029368281364441]],[[-0.5621587038040161],[-0.9814973473548889]],[[0.06943628191947937],[0.06538230180740356]],[[-0.86943119764328],[-1.234205722808838]],[[-1.0608916282653809],[-0.9659457802772522]],[[-0.6756479740142822],[-1.3727654218673706]]],"Bias":0,"Activation":"sigmoid","hiddenLayers":2,"dense":false,"divMulI":2160,"divMulO":40},{"Inputs":[0.10000000149011612,0.07447917014360428,0.0625,0.01406249962747097,0.00937500037252903,0.012500000186264515,0.0651041641831398,0.04635416716337204,0.0390625,0.0598958320915699,0.06354166567325592,0.09427083283662796,0.07187499850988388,0.06458333134651184,0.06197916716337204],"arrInputWeight":[[-2.2051475048065186],[-1.699293613433838],[-1.3597655296325684],[0.046556517481803894],[0.6963279247283936],[0.4584963917732239],[-1.2591042518615723],[-0.8362369537353516],[-0.2571581304073334],[-1.1317381858825684],[-1.3950870037078857],[-2.117624282836914],[-1.0874955654144287],[-1.1357464790344238],[-0.6940327286720276]],"matrixHiddenWeight":[[[-1.4818878173828125],[-1.8875476121902466]],[[-1.4299321174621582],[-1.4657081365585327]],[[-0.9870043992996216],[-1.138527512550354]],[[-0.1359771192073822],[0.3450614809989929]],[[0.31560757756233215],[0.1536995768547058]],[[0.2955661416053772],[0.20128388702869415]],[[-0.6192038655281067],[-1.422151803970337]],[[-0.7213211059570312],[-0.2878349721431732]],[[-0.7910242080688477],[-0.7654057145118713]],[[-1.3027784824371338],[-0.6045250296592712]],[[-0.7116822600364685],[-1.072974681854248]],[[-1.879830002784729],[-1.905798077583313]],[[-1.6147428750991821],[-1.6744858026504517]],[[-0.8908693790435791],[-0.8696351051330566]],[[-1.341431975364685],[-0.6176894307136536]]],"Bias":0,"Activation":"sigmoid","hiddenLayers":2,"dense":false,"divMulI":1920,"divMulO":40},{"Inputs":[0.06494023650884628,0.044223107397556305,0.03585657477378845,0.10000000149011612,0.10000000149011612,0.10000000149011612,0.08446215093135834,0.06892430037260056,0.06294820457696915,0.07968127727508545,0.05896414443850517,0.057370517402887344,0.06533864885568619,0.06215139478445053,0.05896414443850517],"arrInputWeight":[[-0.5256496667861938],[-0.13352727890014648],[-0.14332130551338196],[-2.2371327877044678],[-1.4547802209854126],[-1.6540881395339966],[-1.2429099082946777],[-1.1934881210327148],[-0.7472937107086182],[-1.3249194622039795],[-0.6341147422790527],[-0.83259516954422],[-1.3104931116104126],[-1.1560453176498413],[-1.0419870615005493]],"matrixHiddenWeight":[[[-0.7988849878311157],[-0.6199535131454468]],[[-0.39847227931022644],[-0.2773842513561249]],[[0.15832477807998657],[-0.766811192035675]],[[-1.8181214332580566],[-1.5103936195373535]],[[-1.9102438688278198],[-1.5767792463302612]],[[-1.4608008861541748],[-1.7984998226165771]],[[-1.3656268119812012],[-1.2008275985717773]],[[-1.0885587930679321],[-0.8435853719711304]],[[-1.2529616355895996],[-1.0568970441818237]],[[-1.3947710990905762],[-1.266107439994812]],